{"learner":{"attributes":{"scikit_learn":"{\"_estimator_type\": \"classifier\"}"},"feature_names":["home_fifa_ranking","away_fifa_ranking","ranking_gap","home_form5_pts","home_form5_scored","home_form5_conceded","home_form10_pts","home_form10_scored","home_form10_conceded","away_form5_pts","away_form5_scored","away_form5_conceded","away_form10_pts","away_form10_scored","away_form10_conceded","h2h_home_wins","h2h_draws","h2h_away_wins","h2h_home_goals_avg","h2h_away_goals_avg","h2h_matches","neutral_venue","competition_weight","is_knockout"],"feature_types":["int","int","int","float","float","float","float","float","float","float","float","float","float","float","float","float","float","float","float","float","int","int","float","int"],"gradient_booster":{"model":{"cats":{"enc":[],"feature_segments":[],"sorted_idx":[]},"gbtree_model_param":{"num_parallel_tree":"1","num_trees":"900"},"iteration_indptr":[0,3,6,9,12,15,18,21,24,27,30,33,36,39,42,45,48,51,54,57,60,63,66,69,72,75,78,81,84,87,90,93,96,99,102,105,108,111,114,117,120,123,126,129,132,135,138,141,144,147,150,153,156,159,162,165,168,171,174,177,180,183,186,189,192,195,198,201,204,207,210,213,216,219,222,225,228,231,234,237,240,243,246,249,252,255,258,261,264,267,270,273,276,279,282,285,288,291,294,297,300,303,306,309,312,315,318,321,324,327,330,333,336,339,342,345,348,351,354,357,360,363,366,369,372,375,378,381,384,387,390,393,396,399,402,405,408,411,414,417,420,423,426,429,432,435,438,441,444,447,450,453,456,459,462,465,468,471,474,477,480,483,486,489,492,495,498,501,504,507,510,513,516,519,522,525,528,531,534,537,540,543,546,549,552,555,558,561,564,567,570,573,576,579,582,585,588,591,594,597,600,603,606,609,612,615,618,621,624,627,630,633,636,639,642,645,648,651,654,657,660,663,666,669,672,675,678,681,684,687,690,693,696,699,702,705,708,711,714,717,720,723,726,729,732,735,738,741,744,747,750,753,756,759,762,765,768,771,774,777,780,783,786,789,792,795,798,801,804,807,810,813,816,819,822,825,828,831,834,837,840,843,846,849,852,855,858,861,864,867,870,873,876,879,882,885,888,891,894,897,900],"tree_info":[0,1,2,0,1,2,0,1,2,0,1,2,0,1,2,0,1,2,0,1,2,0,1,2,0,1,2,0,1,2,0,1,2,0,1,2,0,1,2,0,1,2,0,1,2,0,1,2,0,1,2,0,1,2,0,1,2,0,1,2,0,1,2,0,1,2,0,1,2,0,1,2,0,1,2,0,1,2,0,1,2,0,1,2,0,1,2,0,1,2,0,1,2,0,1,2,0,1,2,0,1,2,0,1,2,0,1,2,0,1,2,0,1,2,0,1,2,0,1,2,0,1,2,0,1,2,0,1,2,0,1,2,0,1,2,0,1,2,0,1,2,0,1,2,0,1,2,0,1,2,0,1,2,0,1,2,0,1,2,0,1,2,0,1,2,0,1,2,0,1,2,0,1,2,0,1,2,0,1,2,0,1,2,0,1,2,0,1,2,0,1,2,0,1,2,0,1,2,0,1,2,0,1,2,0,1,2,0,1,2,0,1,2,0,1,2,0,1,2,0,1,2,0,1,2,0,1,2,0,1,2,0,1,2,0,1,2,0,1,2,0,1,2,0,1,2,0,1,2,0,1,2,0,1,2,0,1,2,0,1,2,0,1,2,0,1,2,0,1,2,0,1,2,0,1,2,0,1,2,0,1,2,0,1,2,0,1,2,0,1,2,0,1,2,0,1,2,0,1,2,0,1,2,0,1,2,0,1,2,0,1,2,0,1,2,0,1,2,0,1,2,0,1,2,0,1,2,0,1,2,0,1,2,0,1,2,0,1,2,0,1,2,0,1,2,0,1,2,0,1,2,0,1,2,0,1,2,0,1,2,0,1,2,0,1,2,0,1,2,0,1,2,0,1,2,0,1,2,0,1,2,0,1,2,0,1,2,0,1,2,0,1,2,0,1,2,0,1,2,0,1,2,0,1,2,0,1,2,0,1,2,0,1,2,0,1,2,0,1,2,0,1,2,0,1,2,0,1,2,0,1,2,0,1,2,0,1,2,0,1,2,0,1,2,0,1,2,0,1,2,0,1,2,0,1,2,0,1,2,0,1,2,0,1,2,0,1,2,0,1,2,0,1,2,0,1,2,0,1,2,0,1,2,0,1,2,0,1,2,0,1,2,0,1,2,0,1,2,0,1,2,0,1,2,0,1,2,0,1,2,0,1,2,0,1,2,0,1,2,0,1,2,0,1,2,0,1,2,0,1,2,0,1,2,0,1,2,0,1,2,0,1,2,0,1,2,0,1,2,0,1,2,0,1,2,0,1,2,0,1,2,0,1,2,0,1,2,0,1,2,0,1,2,0,1,2,0,1,2,0,1,2,0,1,2,0,1,2,0,1,2,0,1,2,0,1,2,0,1,2,0,1,2,0,1,2,0,1,2,0,1,2,0,1,2,0,1,2,0,1,2,0,1,2,0,1,2,0,1,2,0,1,2,0,1,2,0,1,2,0,1,2,0,1,2,0,1,2,0,1,2,0,1,2,0,1,2,0,1,2,0,1,2,0,1,2,0,1,2,0,1,2,0,1,2,0,1,2,0,1,2,0,1,2,0,1,2,0,1,2,0,1,2,0,1,2,0,1,2,0,1,2,0,1,2,0,1,2,0,1,2,0,1,2,0,1,2,0,1,2,0,1,2,0,1,2,0,1,2,0,1,2,0,1,2,0,1,2,0,1,2,0,1,2,0,1,2,0,1,2,0,1,2,0,1,2,0,1,2,0,1,2,0,1,2,0,1,2,0,1,2,0,1,2,0,1,2,0,1,2,0,1,2,0,1,2,0,1,2,0,1,2,0,1,2,0,1,2,0,1,2,0,1,2,0,1,2,0,1,2,0,1,2,0,1,2,0,1,2,0,1,2,0,1,2,0,1,2,0,1,2,0,1,2,0,1,2,0,1,2,0,1,2,0,1,2,0,1,2,0,1,2,0,1,2,0,1,2,0,1,2,0,1,2,0,1,2,0,1,2,0,1,2,0,1,2,0,1,2,0,1,2,0,1,2,0,1,2,0,1,2,0,1,2,0,1,2,0,1,2],"trees":[{"base_weights":[-1.0751908E-2,-1.8782519E-1,4.3543133E-1,-2.8752467E-1,1.1010299E-1,-1.6860335E-1,6.058843E-1,-3.4049445E-1,2.2644974E-1,5.046439E-1,-3.21047E-2,-4.074476E-1,2.3512341E-1,3.9048782E-1,9.3809617E-1,-2.1182938E-2,-8.135787E-3,2.378009E-2,-1.2438587E-2,-2.1648197E-2,3.581406E-2,2.870501E-2,-7.257227E-3,-2.308709E-2,2.8781865E-2,-2.9423151E-2,2.6870996E-2,2.253603E-2,-1.98078E-2,5.4672062E-2,1.8128628E-2],"categories":[],"categories_nodes":[],"categories_segments":[],"categories_sizes":[],"default_left":[0,0,0,0,0,0,0,0,0,0,0,0,0,0,0,0,0,0,0,0,0,0,0,0,0,0,0,0,0,0,0],"id":0,"left_children":[1,3,5,7,9,11,13,15,17,19,21,23,25,27,29,-1,-1,-1,-1,-1,-1,-1,-1,-1,-1,-1,-1,-1,-1,-1,-1],"loss_changes":[5.9110535E1,1.5939646E1,2.1988136E1,1.1009483E1,7.5910583E0,4.682435E0,1.1512428E1,5.31921E0,4.6315794E0,7.4198103E0,6.948106E0,1.8804803E0,4.875894E0,5.0314226E0,5.377556E0,0E0,0E0,0E0,0E0,0E0,0E0,0E0,0E0,0E0,0E0,0E0,0E0,0E0,0E0,0E0,0E0],"parents":[2147483647,0,0,1,1,2,2,3,3,4,4,5,5,6,6,7,7,8,8,9,9,10,10,11,11,12,12,13,13,14,14],"right_children":[2,4,6,8,10,12,14,16,18,20,22,24,26,28,30,-1,-1,-1,-1,-1,-1,-1,-1,-1,-1,-1,-1,-1,-1,-1,-1],"split_conditions":[8.2E1,1.8469E0,5.729E-1,1.7322E0,5.828E-1,1.9406E0,1.7365E0,4.2E1,1.5032E0,3.375E-1,7.694E-1,8.823E-1,3.4E-1,4E-1,1.5372E0,-2.1182938E-2,-8.135787E-3,2.378009E-2,-1.2438587E-2,-2.1648197E-2,3.581406E-2,2.870501E-2,-7.257227E-3,-2.308709E-2,2.8781865E-2,-2.9423151E-2,2.6870996E-2,2.253603E-2,-1.98078E-2,5.4672062E-2,1.8128628E-2],"split_indices":[0,13,9,8,11,8,8,0,14,14,6,12,17,15,14,0,0,0,0,0,0,0,0,0,0,0,0,0,0,0,0],"split_type":[0,0,0,0,0,0,0,0,0,0,0,0,0,0,0,0,0,0,0,0,0,0,0,0,0,0,0,0,0,0,0],"sum_hessian":[7.461319E2,5.3456305E2,2.1156885E2,4.005551E2,1.3400793E2,4.6565475E1,1.6500337E2,3.634371E2,3.7118004E1,3.4829193E1,9.9178734E1,2.9251253E1,1.7314222E1,1.0142062E2,6.358275E1,2.46665E2,1.16772125E2,2.4350548E1,1.2767455E1,6.221328E0,2.8607866E1,1.4946355E1,8.423238E1,2.8222864E1,1.0283895E0,4.394651E0,1.2919571E1,9.4603905E1,6.8167224E0,4.9359695E1,1.4223055E1],"tree_param":{"num_deleted":"0","num_feature":"24","num_nodes":"31","size_leaf_vector":"1"}},{"base_weights":[-1.4245849E-3,6.62977E-2,-2.13382E-1,1.7436478E-1,-1.3963543E-1,-2.869933E-1,2.3491599E-2,-3.585221E-1,2.2659507E-1,1.6749391E-1,-2.4014987E-1,3.0251166E-1,-3.3146128E-1,4.823326E-1,-2.204528E-1,-2.471072E-2,2.64165E-2,2.379084E-3,1.7101452E-2,1.9276952E-2,-5.600815E-3,-7.4490034E-3,-2.2027306E-2,3.7505575E-2,-2.4548888E-2,-4.6124347E-3,-2.2286534E-2,-8.228784E-4,4.6504315E-2,1.8803691E-2,-1.6027698E-2],"categories":[],"categories_nodes":[],"categories_segments":[],"categories_sizes":[],"default_left":[0,0,0,0,0,0,0,0,0,0,0,0,0,0,0,0,0,0,0,0,0,0,0,0,0,0,0,0,0,0,0],"id":1,"left_children":[1,3,5,7,9,11,13,15,17,19,21,23,25,27,29,-1,-1,-1,-1,-1,-1,-1,-1,-1,-1,-1,-1,-1,-1,-1,-1],"loss_changes":[9.301514E0,1.0953712E1,2.7426448E0,9.058177E0,5.2751794E0,3.2402391E0,4.3736596E0,3.7723408E0,6.0662937E0,2.627417E0,2.2761087E0,3.5379739E0,3.0164595E0,3.0408444E0,1.6478503E0,0E0,0E0,0E0,0E0,0E0,0E0,0E0,0E0,0E0,0E0,0E0,0E0,0E0,0E0,0E0,0E0],"parents":[2147483647,0,0,1,1,2,2,3,3,4,4,5,5,6,6,7,7,8,8,9,9,10,10,11,11,12,12,13,13,14,14],"right_children":[2,4,6,8,10,12,14,16,18,20,22,24,26,28,30,-1,-1,-1,-1,-1,-1,-1,-1,-1,-1,-1,-1,-1,-1,-1,-1],"split_conditions":[1.6149E0,6.9E1,2.3972E0,5E0,9.725E-1,1.2774E0,1.006E0,1.3412E0,7E-1,8.345E-1,1.7814E0,2.3E1,6E-1,3.747E-1,2.499E0,-2.471072E-2,2.64165E-2,2.379084E-3,1.7101452E-2,1.9276952E-2,-5.600815E-3,-7.4490034E-3,-2.2027306E-2,3.7505575E-2,-2.4548888E-2,-4.6124347E-3,-2.2286534E-2,-8.228784E-4,4.6504315E-2,1.8803691E-2,-1.6027698E-2],"split_indices":[5,1,8,0,6,8,13,11,22,12,14,0,22,12,5,0,0,0,0,0,0,0,0,0,0,0,0,0,0,0,0],"split_type":[0,0,0,0,0,0,0,0,0,0,0,0,0,0,0,0,0,0,0,0,0,0,0,0,0,0,0,0,0,0,0],"sum_hessian":[6.46012E2,4.9010602E2,1.5590602E2,3.2153046E2,1.6857555E2,1.1878163E2,3.7124393E1,2.8177843E1,2.9335263E2,4.1402077E1,1.2717348E2,7.924526E0,1.108571E2,1.2547072E1,2.457732E1,2.4822605E1,3.3552375E0,1.1555841E2,1.777942E2,2.3045223E1,1.8356853E1,8.860587E1,3.8567604E1,5.101491E0,2.823035E0,3.642079E1,7.443631E1,6.3909283E0,6.156144E0,3.1354554E0,2.1441866E1],"tree_param":{"num_deleted":"0","num_feature":"24","num_nodes":"31","size_leaf_vector":"1"}},{"base_weights":[-3.90811E-3,-3.2925895E-1,5.552341E-1,-5.653716E-1,-1.0085577E-1,3.6214474E-1,8.660954E-1,-6.732572E-2,-6.2413496E-1,6.0951704E-1,-1.2920643E-1,5.9642243E-1,2.513816E-1,7.8910863E-1,5.0459236E-2,-3.2160416E-2,6.239924E-3,-4.1806657E-2,-2.7595649E-2,3.968972E-2,-2.4200423E-2,-9.623486E-3,8.322904E-3,5.324985E-3,3.632974E-2,1.8813482E-2,-3.1886254E-3,4.5344274E-2,3.18658E-2],"categories":[],"categories_nodes":[],"categories_segments":[],"categories_sizes":[],"default_left":[0,0,0,0,0,0,0,0,0,0,0,0,0,0,0,0,0,0,0,0,0,0,0,0,0,0,0,0,0],"id":2,"left_children":[1,3,5,7,9,11,13,15,17,19,21,23,25,27,-1,-1,-1,-1,-1,-1,-1,-1,-1,-1,-1,-1,-1,-1,-1],"loss_changes":[1.5462465E2,2.8919601E1,1.8453163E1,7.683838E0,5.603668E0,4.8992844E0,5.153885E-1,3.2866783E0,3.1519012E0,2.541022E0,4.981837E0,3.859686E0,5.2920065E0,8.881073E-1,0E0,0E0,0E0,0E0,0E0,0E0,0E0,0E0,0E0,0E0,0E0,0E0,0E0,0E0,0E0],"parents":[2147483647,0,0,1,1,2,2,3,3,4,4,5,5,6,6,7,7,8,8,9,9,10,10,11,11,12,12,13,13],"right_children":[2,4,6,8,10,12,14,16,18,20,22,24,26,28,-1,-1,-1,-1,-1,-1,-1,-1,-1,-1,-1,-1,-1,-1,-1],"split_conditions":[2.1E1,-1.7E1,5.7E1,3.4E-1,3.953E-1,5.1E1,9.5E1,7.241E-1,-7.7E1,2.0008E0,3.333E-1,3.982E-1,8E-1,1.3939E0,5.0459236E-2,-3.2160416E-2,6.239924E-3,-4.1806657E-2,-2.7595649E-2,3.968972E-2,-2.4200423E-2,-9.623486E-3,8.322904E-3,5.324985E-3,3.632974E-2,1.8813482E-2,-3.1886254E-3,4.5344274E-2,3.18658E-2],"split_indices":[2,2,2,17,14,1,2,6,2,10,16,5,22,6,0,0,0,0,0,0,0,0,0,0,0,0,0,0,0],"split_type":[0,0,0,0,0,0,0,0,0,0,0,0,0,0,0,0,0,0,0,0,0,0,0,0,0,0,0,0,0],"sum_hessian":[8.479669E2,5.363117E2,3.116552E2,2.6297992E2,2.7333176E2,1.9357959E2,1.1807563E2,2.798028E1,2.3499963E2,9.703183E0,2.636286E2,6.0734325E1,1.3284526E2,8.1006325E1,3.70693E1,6.412189E0,2.156809E1,5.7027023E1,1.7797263E2,8.538414E0,1.1647692E0,2.174499E2,4.617868E1,1.3131209E1,4.7603115E1,9.500366E1,3.7841595E1,4.2812965E1,3.819336E1],"tree_param":{"num_deleted":"0","num_feature":"24","num_nodes":"29","size_leaf_vector":"1"}},{"base_weights":[2.5327887E-2,4.985273E-1,-4.2098173E-1,1.2180915E0,3.8300753E-1,-1.9394892E-1,-5.539215E-1,5.5048084E-1,1.2764579E0,1.9848484E-1,5.8853376E-1,-3.1421922E-2,-3.8964623E-1,-4.6138054E-1,-6.679182E-1,4.761769E-2,-2.503036E-4,3.5534475E-2,6.8516366E-2,4.810329E-3,3.758828E-2,-8.2429836E-4,3.5585657E-2,-3.2346886E-2,2.877902E-3,3.0127544E-2,-2.185796E-2,-2.6109008E-2,-1.1059956E-2,1.03086885E-2,-3.426823E-2],"categories":[],"categories_nodes":[],"categories_segments":[],"categories_sizes":[],"default_left":[0,0,0,0,0,0,0,0,0,0,0,0,0,0,0,0,0,0,0,0,0,0,0,0,0,0,0,0,0,0,0],"id":3,"left_children":[1,3,5,7,9,11,13,15,17,19,21,23,25,27,29,-1,-1,-1,-1,-1,-1,-1,-1,-1,-1,-1,-1,-1,-1,-1,-1],"loss_changes":[1.5838326E2,2.9789062E1,1.1541748E1,1.2414322E0,1.1832737E1,4.5703473E0,2.254158E0,1.2927098E0,1.4225082E0,9.408379E0,1.1082745E1,4.407648E0,3.340908E0,1.8894005E0,1.7668419E0,0E0,0E0,0E0,0E0,0E0,0E0,0E0,0E0,0E0,0E0,0E0,0E0,0E0,0E0,0E0,0E0],"parents":[2147483647,0,0,1,1,2,2,3,3,4,4,5,5,6,6,7,7,8,8,9,9,10,10,11,11,12,12,13,13,14,14],"right_children":[2,4,6,8,10,12,14,16,18,20,22,24,26,28,30,-1,-1,-1,-1,-1,-1,-1,-1,-1,-1,-1,-1,-1,-1,-1,-1],"split_conditions":[2E0,-8E1,2.5E1,7.953E-1,1.2095E0,1.1459E0,5.7E1,1.32265E0,1.2389E0,2.2028E0,8.883E-1,5.715E-1,1.998E-1,1.7182E0,1.869E-1,4.761769E-2,-2.503036E-4,3.5534475E-2,6.8516366E-2,4.810329E-3,3.758828E-2,-8.2429836E-4,3.5585657E-2,-3.2346886E-2,2.877902E-3,3.0127544E-2,-2.185796E-2,-2.6109008E-2,-1.1059956E-2,1.03086885E-2,-3.426823E-2],"split_indices":[2,2,2,5,5,12,2,13,8,4,13,5,11,13,11,0,0,0,0,0,0,0,0,0,0,0,0,0,0,0,0],"split_type":[0,0,0,0,0,0,0,0,0,0,0,0,0,0,0,0,0,0,0,0,0,0,0,0,0,0,0,0,0,0,0],"sum_hessian":[7.4795026E2,3.6298196E2,3.8496832E2,4.8892113E1,3.1408984E2,1.4307896E2,2.4188936E2,4.7694416E0,4.412267E1,1.6653737E2,1.4755247E2,7.87978E1,6.428116E1,1.3629456E2,1.055948E2,2.3528202E0,2.4166214E0,7.498551E0,3.662412E1,1.4154547E2,2.4991898E1,2.5105928E1,1.2244655E2,9.160406E0,6.96374E1,2.403697E0,6.187746E1,1.0782548E2,2.8469076E1,1.8546784E0,1.0374013E2],"tree_param":{"num_deleted":"0","num_feature":"24","num_nodes":"31","size_leaf_vector":"1"}},{"base_weights":[2.490555E-3,5.7223473E-2,-3.461969E-1,1.5146771E-1,-9.669577E-2,-4.2826086E-1,8.8168075E-3,1.3515066E-1,1.0508132E0,-4.667355E-1,-3.5710964E-2,-4.674378E-1,1.5854359E-1,7.349464E-1,-2.7992994E-1,8.657026E-3,-8.73645E-3,-1.4450194E-3,6.533274E-2,-2.8438171E-2,-9.964449E-3,1.4314865E-2,-6.2518115E-3,-2.459874E-2,-1.1411471E-3,-2.3131778E-2,4.088813E-2,6.2897325E-2,-2.1256085E-3,2.2974432E-2,-2.3016766E-2],"categories":[],"categories_nodes":[],"categories_segments":[],"categories_sizes":[],"default_left":[0,0,0,0,0,0,0,0,0,0,0,0,0,0,0,0,0,0,0,0,0,0,0,0,0,0,0,0,0,0,0],"id":4,"left_children":[1,3,5,7,9,11,13,15,17,19,21,23,25,27,29,-1,-1,-1,-1,-1,-1,-1,-1,-1,-1,-1,-1,-1,-1,-1,-1],"loss_changes":[1.2501679E1,8.227229E0,2.5930433E0,5.0166435E0,4.849086E0,1.7341194E0,3.9098537E0,4.108388E0,1.7274241E0,7.16836E-1,5.391308E0,7.299919E-1,2.5346627E0,2.2094243E0,1.9942641E0,0E0,0E0,0E0,0E0,0E0,0E0,0E0,0E0,0E0,0E0,0E0,0E0,0E0,0E0,0E0,0E0],"parents":[2147483647,0,0,1,1,2,2,3,3,4,4,5,5,6,6,7,7,8,8,9,9,10,10,11,11,12,12,13,13,14,14],"right_children":[2,4,6,8,10,12,14,16,18,20,22,24,26,28,30,-1,-1,-1,-1,-1,-1,-1,-1,-1,-1,-1,-1,-1,-1,-1,-1],"split_conditions":[5.7E1,1.2815E0,2.285E0,1.2739E0,-8E1,1E0,2.4974E0,9.7E1,-4E1,1.677E0,6.887E-1,2E0,1.6015E0,1.4267E0,4.154E-1,8.657026E-3,-8.73645E-3,-1.4450194E-3,6.533274E-2,-2.8438171E-2,-9.964449E-3,1.4314865E-2,-6.2518115E-3,-2.459874E-2,-1.1411471E-3,-2.3131778E-2,4.088813E-2,6.2897325E-2,-2.1256085E-3,2.2974432E-2,-2.3016766E-2],"split_indices":[2,8,7,8,2,23,4,1,2,9,11,8,4,14,13,0,0,0,0,0,0,0,0,0,0,0,0,0,0,0,0],"split_type":[0,0,0,0,0,0,0,0,0,0,0,0,0,0,0,0,0,0,0,0,0,0,0,0,0,0,0,0,0,0,0],"sum_hessian":[6.530256E2,5.6515063E2,8.7874916E1,3.505351E2,2.1461554E2,7.120828E1,1.6666636E1,3.4541837E2,5.1167374E0,2.9424164E1,1.8519138E2,6.694241E1,4.2658687E0,4.302235E0,1.23644E1,3.0808926E2,3.7329094E1,1.1500949E0,3.9666424E0,2.0483349E1,8.940816E0,3.973733E1,1.4545406E2,6.3340324E1,3.602088E0,2.3498356E0,1.9160328E0,2.2025473E0,2.0996878E0,2.1216245E0,1.0242775E1],"tree_param":{"num_deleted":"0","num_feature":"24","num_nodes":"31","size_leaf_vector":"1"}},{"base_weights":[-3.2176755E-3,-4.1543496E-1,3.778643E-1,4.37669E-2,-4.8311228E-1,2.237917E-1,7.9292375E-1,-5.136168E-1,1.8471873E-1,-8.070744E-1,-4.2098254E-1,-3.3999664E-1,2.5816128E-1,6.6983503E-1,9.0565765E-1,4.8372704E-3,-3.901473E-2,1.3806912E-2,-3.4957804E-2,-1.33332005E-2,-4.0747248E-2,-2.2373294E-2,-3.614335E-3,-2.8566757E-2,2.1611348E-2,1.15937665E-2,4.992188E-2,3.996139E-2,1.1122187E-2,4.6496343E-2,1.1386577E-3],"categories":[],"categories_nodes":[],"categories_segments":[],"categories_sizes":[],"default_left":[0,0,0,0,0,0,0,0,0,0,0,0,0,0,0,0,0,0,0,0,0,0,0,0,0,0,0,0,0,0,0],"id":5,"left_children":[1,3,5,7,9,11,13,15,17,19,21,23,25,27,29,-1,-1,-1,-1,-1,-1,-1,-1,-1,-1,-1,-1,-1,-1,-1,-1],"loss_changes":[1.3800798E2,1.3136612E1,2.9016212E1,4.4257803E0,7.065178E0,6.5659714E0,1.1028061E0,1.9296126E0,3.8077712E0,2.9850006E-2,2.837654E0,3.755779E0,5.9112587E0,3.453699E0,1.2957153E0,0E0,0E0,0E0,0E0,0E0,0E0,0E0,0E0,0E0,0E0,0E0,0E0,0E0,0E0,0E0,0E0],"parents":[2147483647,0,0,1,1,2,2,3,3,4,4,5,5,6,6,7,7,8,8,9,9,10,10,11,11,12,12,13,13,14,14],"right_children":[2,4,6,8,10,12,14,16,18,20,22,24,26,28,30,-1,-1,-1,-1,-1,-1,-1,-1,-1,-1,-1,-1,-1,-1,-1,-1],"split_conditions":[2E0,2.5E-1,5.7E1,-3.8E1,-7.7E1,4.079E-1,8.2E1,8.166E-1,2.5323E0,5E-1,2.3212E0,3.7E1,1E0,7.6E1,1.6667E0,4.8372704E-3,-3.901473E-2,1.3806912E-2,-3.4957804E-2,-1.33332005E-2,-4.0747248E-2,-2.2373294E-2,-3.614335E-3,-2.8566757E-2,2.1611348E-2,1.15937665E-2,4.992188E-2,3.996139E-2,1.1122187E-2,4.6496343E-2,1.1386577E-3],"split_indices":[2,17,2,2,2,4,2,10,10,22,7,2,22,2,19,0,0,0,0,0,0,0,0,0,0,0,0,0,0,0,0],"split_type":[0,0,0,0,0,0,0,0,0,0,0,0,0,0,0,0,0,0,0,0,0,0,0,0,0,0,0,0,0,0,0],"sum_hessian":[8.765368E2,4.21024E2,4.5551282E2,5.412565E1,3.6689835E2,3.3332117E2,1.2219165E2,1.0391057E1,4.3734592E1,5.711166E1,3.0978668E2,1.8641365E1,3.1467978E2,6.173162E1,6.0460033E1,3.3533208E0,7.0377364E0,4.0258247E1,3.476344E0,1.3205464E0,5.579111E1,2.8765604E2,2.2130646E1,1.4544382E1,4.0969834E0,3.0515738E2,9.522393E0,4.7273075E1,1.4458544E1,5.8790688E1,1.6693466E0],"tree_param":{"num_deleted":"0","num_feature":"24","num_nodes":"31","size_leaf_vector":"1"}},{"base_weights":[-6.373591E-3,-1.4321612E-1,3.4077877E-1,1.8421307E-1,-3.7524784E-1,6.1988014E-1,-3.8630154E-2,-2.2169866E-2,5.4765004E-1,-2.4688077E-1,-5.5197406E-1,4.1088372E-1,9.9736726E-1,-2.209963E-1,5.8316696E-1,-1.2290254E-2,1.3622651E-2,2.0618269E-3,3.3476766E-2,-2.493453E-2,-1.74699E-3,1.5028178E-3,-2.8351698E-2,-1.8796865E-2,2.4104305E-2,4.0630605E-2,6.536012E-2,-3.8154707E-3,-3.3462346E-2,4.7347024E-2,-1.7676206E-2],"categories":[],"categories_nodes":[],"categories_segments":[],"categories_sizes":[],"default_left":[0,0,0,0,0,0,0,0,0,0,0,0,0,0,0,0,0,0,0,0,0,0,0,0,0,0,0,0,0,0,0],"id":6,"left_children":[1,3,5,7,9,11,13,15,17,19,21,23,25,27,29,-1,-1,-1,-1,-1,-1,-1,-1,-1,-1,-1,-1,-1,-1,-1,-1],"loss_changes":[3.536597E1,4.0635086E1,2.2313705E1,1.6672756E1,6.960434E0,9.162842E0,1.0352072E1,9.464691E0,4.9404926E0,9.74983E0,1.1636467E0,4.651805E0,1.3727951E0,4.517105E0,7.395012E0,0E0,0E0,0E0,0E0,0E0,0E0,0E0,0E0,0E0,0E0,0E0,0E0,0E0,0E0,0E0,0E0],"parents":[2147483647,0,0,1,1,2,2,3,3,4,4,5,5,6,6,7,7,8,8,9,9,10,10,11,11,12,12,13,13,14,14],"right_children":[2,4,6,8,10,12,14,16,18,20,22,24,26,28,30,-1,-1,-1,-1,-1,-1,-1,-1,-1,-1,-1,-1,-1,-1,-1,-1],"split_conditions":[8.2E1,3E1,1.03E2,1.2095E0,7.5E1,1.31E2,1.79E2,2.3E1,4.851E-1,2.4E1,1.943E-1,5.729E-1,1.76E2,1.8E2,1.93E2,-1.2290254E-2,1.3622651E-2,2.0618269E-3,3.3476766E-2,-2.493453E-2,-1.74699E-3,1.5028178E-3,-2.8351698E-2,-1.8796865E-2,2.4104305E-2,4.0630605E-2,6.536012E-2,-3.8154707E-3,-3.3462346E-2,4.7347024E-2,-1.7676206E-2],"split_indices":[0,1,1,5,1,0,0,0,6,0,11,9,0,1,1,0,0,0,0,0,0,0,0,0,0,0,0,0,0,0,0],"split_type":[0,0,0,0,0,0,0,0,0,0,0,0,0,0,0,0,0,0,0,0,0,0,0,0,0,0,0,0,0,0,0],"sum_hessian":[7.424378E2,5.329456E2,2.0949214E2,2.2112021E2,3.1182544E2,1.20336334E2,8.91558E1,1.4163164E2,7.948857E1,1.8201427E2,1.2981116E2,7.8798096E1,4.1538235E1,6.943568E1,1.9720125E1,8.060991E1,6.102173E1,1.567981E1,6.380876E1,8.256489E1,9.944939E1,3.2490091E0,1.2656215E2,6.183837E0,7.261426E1,2.8290993E1,1.3247243E1,5.3376865E1,1.6058813E1,1.4196015E1,5.524109E0],"tree_param":{"num_deleted":"0","num_feature":"24","num_nodes":"31","size_leaf_vector":"1"}},{"base_weights":[8.6700096E-4,4.8817366E-2,-3.1897688E-1,-2.9469925E-1,7.881897E-2,-1.6268301E-1,-4.3061808E-1,1.9027655E-1,-3.9137802E-1,-2.9227024E-1,1.01726554E-1,-3.8661397E-1,6.325808E-1,-5.110822E-1,9.249007E-2,-1.6631756E-2,2.5584837E-2,-2.2497151E-2,-3.9288853E-4,-1.8661758E-2,4.109577E-2,2.181135E-3,1.3095334E-2,-2.2191577E-2,7.558281E-3,4.2220846E-2,-1.7989213E-2,-8.367666E-3,-2.7053295E-2,3.363694E-2,-1.3464943E-2],"categories":[],"categories_nodes":[],"categories_segments":[],"categories_sizes":[],"default_left":[0,0,0,0,0,0,0,0,0,0,0,0,0,0,0,0,0,0,0,0,0,0,0,0,0,0,0,0,0,0,0],"id":7,"left_children":[1,3,5,7,9,11,13,15,17,19,21,23,25,27,29,-1,-1,-1,-1,-1,-1,-1,-1,-1,-1,-1,-1,-1,-1,-1,-1],"loss_changes":[1.0026026E1,5.882075E0,1.4170933E0,2.225301E0,4.4808426E0,6.8550115E0,2.1143484E0,1.564812E0,8.628974E-1,3.0763826E0,4.585451E0,9.774265E-1,2.098036E0,3.4968853E-1,1.7333032E0,0E0,0E0,0E0,0E0,0E0,0E0,0E0,0E0,0E0,0E0,0E0,0E0,0E0,0E0,0E0,0E0],"parents":[2147483647,0,0,1,1,2,2,3,3,4,4,5,5,6,6,7,7,8,8,9,9,10,10,11,11,12,12,13,13,14,14],"right_children":[2,4,6,8,10,12,14,16,18,20,22,24,26,28,30,-1,-1,-1,-1,-1,-1,-1,-1,-1,-1,-1,-1,-1,-1,-1,-1],"split_conditions":[5.9E1,-7.9E1,8E1,1.0003E0,4E0,7.6E1,2.4137E0,1.32265E0,1.6371E0,1.3333E0,8E-1,1E0,2.5997E0,5E-1,2.6638E0,-1.6631756E-2,2.5584837E-2,-2.2497151E-2,-3.9288853E-4,-1.8661758E-2,4.109577E-2,2.181135E-3,1.3095334E-2,-2.2191577E-2,7.558281E-3,4.2220846E-2,-1.7989213E-2,-8.367666E-3,-2.7053295E-2,3.363694E-2,-1.3464943E-2],"split_indices":[2,2,2,8,0,2,7,13,11,19,22,23,4,22,7,0,0,0,0,0,0,0,0,0,0,0,0,0,0,0,0],"split_type":[0,0,0,0,0,0,0,0,0,0,0,0,0,0,0,0,0,0,0,0,0,0,0,0,0,0,0,0,0,0,0],"sum_hessian":[6.5171533E2,5.6748627E2,8.422905E1,4.487278E1,5.2261346E2,3.611978E1,4.810927E1,7.2975397E0,3.7575237E1,2.9701889E1,4.929116E2,2.8584728E1,7.5350537E0,4.17156E1,6.393672E0,2.7647445E0,4.5327954E0,3.244723E1,5.128007E0,2.8309713E1,1.3921759E0,3.6263974E2,1.3027185E2,2.5993792E1,2.5909371E0,6.332391E0,1.2026631E0,3.8749688E0,3.784063E1,2.1254032E0,4.2682686E0],"tree_param":{"num_deleted":"0","num_feature":"24","num_nodes":"31","size_leaf_vector":"1"}},{"base_weights":[-7.5129764E-3,-1.6583791E-1,2.743625E-1,-1.7421694E-2,-5.357033E-1,5.3503335E-1,-1.2861297E-1,-1.918579E-1,2.2085913E-1,-5.645394E-1,1.8315111E-1,4.0134767E-1,8.1615174E-1,-4.118673E-1,2.329638E-1,4.7573675E-3,-1.6162205E-2,2.1204887E-2,9.118258E-4,-2.31083E-2,-3.515245E-2,-1.46333575E-2,3.9110143E-2,3.2179262E-2,7.823845E-3,4.297134E-2,1.0622106E-2,-4.6543307E-3,-3.0193377E-2,2.6837125E-2,-1.169177E-2],"categories":[],"categories_nodes":[],"categories_segments":[],"categories_sizes":[],"default_left":[0,0,0,0,0,0,0,0,0,0,0,0,0,0,0,0,0,0,0,0,0,0,0,0,0,0,0,0,0,0,0],"id":8,"left_children":[1,3,5,7,9,11,13,15,17,19,21,23,25,27,29,-1,-1,-1,-1,-1,-1,-1,-1,-1,-1,-1,-1,-1,-1,-1,-1],"loss_changes":[3.8476936E1,3.0294844E1,3.2643314E1,1.6460323E1,3.37965E0,6.7562943E0,1.2653491E1,8.650363E0,6.8863935E0,1.8332481E0,2.1816244E0,7.593405E0,1.3792381E0,4.1739016E0,7.8534822E0,0E0,0E0,0E0,0E0,0E0,0E0,0E0,0E0,0E0,0E0,0E0,0E0,0E0,0E0,0E0,0E0],"parents":[2147483647,0,0,1,1,2,2,3,3,4,4,5,5,6,6,7,7,8,8,9,9,10,10,11,11,12,12,13,13,14,14],"right_children":[2,4,6,8,10,12,14,16,18,20,22,24,26,28,30,-1,-1,-1,-1,-1,-1,-1,-1,-1,-1,-1,-1,-1,-1,-1,-1],"split_conditions":[7E1,5.8E1,9.8E1,3.1E1,6.667E-1,1.22E2,1.51E2,1E1,2E1,1.02E2,1.4033E0,4.1E1,1.8035E0,1.3E2,1.73E2,4.7573675E-3,-1.6162205E-2,2.1204887E-2,9.118258E-4,-2.31083E-2,-3.515245E-2,-1.46333575E-2,3.9110143E-2,3.2179262E-2,7.823845E-3,4.297134E-2,1.0622106E-2,-4.6543307E-3,-3.0193377E-2,2.6837125E-2,-1.169177E-2],"split_indices":[1,0,0,1,15,1,1,0,0,0,11,0,6,0,0,0,0,0,0,0,0,0,0,0,0,0,0,0,0,0,0],"split_type":[0,0,0,0,0,0,0,0,0,0,0,0,0,0,0,0,0,0,0,0,0,0,0,0,0,0,0,0,0,0,0],"sum_hessian":[8.601523E2,5.5104877E2,3.0910358E2,3.939965E2,1.5705223E2,1.874931E2,1.21610466E2,2.2758507E2,1.6641144E2,1.5120161E2,5.8506207E0,1.2871193E2,5.8781174E1,6.811276E1,5.3497704E1,7.155446E1,1.5603061E2,8.253374E1,8.387769E1,8.943576E1,6.176585E1,3.5457394E0,2.304881E0,6.3885326E1,6.48266E1,5.4454216E1,4.326958E0,2.616142E1,4.1951347E1,3.2316967E1,2.1180737E1],"tree_param":{"num_deleted":"0","num_feature":"24","num_nodes":"31","size_leaf_vector":"1"}},{"base_weights":[-2.4097137E-2,3.9625776E-1,-3.9205936E-1,9.5329106E-1,2.9219297E-1,-1.7405905E-1,-5.327266E-1,1.1757035E0,6.045187E-1,-7.092778E-2,3.7246943E-1,-4.1199195E-1,-2.7889788E-2,-4.435202E-1,-6.261177E-1,6.087287E-2,8.42636E-3,4.141685E-2,-7.7371798E-3,-6.5905037E-3,5.0694317E-2,9.01326E-3,2.9534463E-2,-2.7624324E-2,4.7088857E-3,-2.2679914E-2,5.7876045E-3,-2.4649713E-2,-2.538848E-3,5.9648836E-4,-3.2072198E-2],"categories":[],"categories_nodes":[],"categories_segments":[],"categories_sizes":[],"default_left":[0,0,0,0,0,0,0,0,0,0,0,0,0,0,0,0,0,0,0,0,0,0,0,0,0,0,0,0,0,0,0],"id":9,"left_children":[1,3,5,7,9,11,13,15,17,19,21,23,25,27,29,-1,-1,-1,-1,-1,-1,-1,-1,-1,-1,-1,-1,-1,-1,-1,-1],"loss_changes":[1.1321834E2,1.952855E1,1.1875393E1,3.4272766E0,8.460936E0,5.3635445E0,1.6945114E0,1.1201172E0,4.0078526E0,3.6490138E0,9.839081E0,4.2293644E0,5.9723516E0,2.3941975E0,1.1148376E0,0E0,0E0,0E0,0E0,0E0,0E0,0E0,0E0,0E0,0E0,0E0,0E0,0E0,0E0,0E0,0E0],"parents":[2147483647,0,0,1,1,2,2,3,3,4,4,5,5,6,6,7,7,8,8,9,9,10,10,11,11,12,12,13,13,14,14],"right_children":[2,4,6,8,10,12,14,16,18,20,22,24,26,28,30,-1,-1,-1,-1,-1,-1,-1,-1,-1,-1,-1,-1,-1,-1,-1,-1],"split_conditions":[1E0,-7.7E1,2.5E1,7.406E-1,1.0008E0,8.953E-1,5.1E1,2.1751E0,1.5113E0,9E-1,1.2095E0,1.4973E0,1E1,1.7545E0,1.869E-1,6.087287E-2,8.42636E-3,4.141685E-2,-7.7371798E-3,-6.5905037E-3,5.0694317E-2,9.01326E-3,2.9534463E-2,-2.7624324E-2,4.7088857E-3,-2.2679914E-2,5.7876045E-3,-2.4649713E-2,-2.538848E-3,5.9648836E-4,-3.2072198E-2],"split_indices":[2,2,2,3,13,5,2,11,12,22,5,12,0,5,11,0,0,0,0,0,0,0,0,0,0,0,0,0,0,0,0],"split_type":[0,0,0,0,0,0,0,0,0,0,0,0,0,0,0,0,0,0,0,0,0,0,0,0,0,0,0,0,0,0,0],"sum_hessian":[7.2997253E2,3.4069287E2,3.8927966E2,5.234458E1,2.883483E2,1.535506E2,2.3572906E2,3.0514488E1,2.1830093E1,5.222616E1,2.3612215E2,5.7741287E1,9.58093E1,1.2350613E2,1.1222293E2,2.9099354E1,1.415135E0,1.6789764E1,5.040329E0,5.0282673E1,1.9434854E0,1.2651552E2,1.0960662E2,4.5124767E1,1.2616521E1,2.3627407E1,7.21819E1,1.094619E2,1.4044228E1,2.6376147E0,1.0958532E2],"tree_param":{"num_deleted":"0","num_feature":"24","num_nodes":"31","size_leaf_vector":"1"}},{"base_weights":[-1.9472048E-2,2.706653E-2,-3.373387E-1,-3.752772E-1,6.1996527E-2,-3.6591932E-1,2.5420437E-2,-4.544461E-1,-8.78116E-3,2.3243757E-1,-1.0295352E-2,-5.3264254E-1,-2.3417039E-1,-8.083856E-3,-2.5248155E-2,2.705794E-2,-1.3042115E-2,1.8352943E-3,1.9783692E-2,-3.7173242E-3,8.8172695E-3,-1.0986689E-2,-3.1276967E-2,-1.6424088E-2,1.5691234E-2],"categories":[],"categories_nodes":[],"categories_segments":[],"categories_sizes":[],"default_left":[0,0,0,0,0,0,0,0,0,0,0,0,0,0,0,0,0,0,0,0,0,0,0,0,0],"id":10,"left_children":[1,3,5,7,9,11,-1,13,15,17,19,21,23,-1,-1,-1,-1,-1,-1,-1,-1,-1,-1,-1,-1],"loss_changes":[9.616364E0,7.9978027E0,2.1926785E0,1.3152833E0,6.4460216E0,1.6519156E0,0E0,4.710803E-1,1.4021472E0,4.9631195E0,4.4143662E0,8.775549E-1,2.5303342E0,0E0,0E0,0E0,0E0,0E0,0E0,0E0,0E0,0E0,0E0,0E0,0E0],"parents":[2147483647,0,0,1,1,2,2,3,3,4,4,5,5,7,7,8,8,9,9,10,10,11,11,12,12],"right_children":[2,4,6,8,10,12,-1,14,16,18,20,22,24,-1,-1,-1,-1,-1,-1,-1,-1,-1,-1,-1,-1],"split_conditions":[5.9E1,-7.3E1,8.5E-1,1.5934E0,8.337E-1,2.3E1,2.5420437E-2,1.0002E0,1.23E2,2.3E1,8E-1,6.396E-1,1.6421E0,-8.083856E-3,-2.5248155E-2,2.705794E-2,-1.3042115E-2,1.8352943E-3,1.9783692E-2,-3.7173242E-3,8.8172695E-3,-1.0986689E-2,-3.1276967E-2,-1.6424088E-2,1.5691234E-2],"split_indices":[2,2,22,11,14,0,0,5,0,1,22,13,6,0,0,0,0,0,0,0,0,0,0,0,0],"split_type":[0,0,0,0,0,0,0,0,0,0,0,0,0,0,0,0,0,0,0,0,0,0,0,0,0],"sum_hessian":[6.484418E2,5.664266E2,8.2015175E1,4.4468555E1,5.2195807E2,7.9883E1,2.1321712E0,3.637172E1,8.096839E0,1.5479228E2,3.6716577E2,3.391809E1,4.5964912E1,5.9704866E0,3.0401232E1,2.1842873E0,5.9125514E0,7.094688E1,8.38454E1,2.738038E2,9.336198E1,8.534901E0,2.538319E1,3.9557533E1,6.4073787E0],"tree_param":{"num_deleted":"0","num_feature":"24","num_nodes":"25","size_leaf_vector":"1"}},{"base_weights":[1.2300909E-2,-3.8771498E-1,3.5592136E-1,-5.7936704E-1,-2.590926E-1,2.105645E-1,7.5837183E-1,5.2512586E-2,-6.089584E-1,1.2213177E-1,-3.356958E-1,-4.0914652E-1,2.371021E-1,-2.937078E-3,7.7650744E-1,4.1439548E-2,-2.0597458E-2,-3.22552E-2,-9.220715E-3,1.5395629E-2,-2.5309557E-2,-1.8198742E-2,2.0797653E-2,-3.25882E-2,1.9408701E-2,9.457831E-3,2.8057296E-2,-2.0030653E-2,2.6734618E-2,3.9210778E-2,-9.144276E-4],"categories":[],"categories_nodes":[],"categories_segments":[],"categories_sizes":[],"default_left":[0,0,0,0,0,0,0,0,0,0,0,0,0,0,0,0,0,0,0,0,0,0,0,0,0,0,0,0,0,0,0],"id":11,"left_children":[1,3,5,7,9,11,13,15,17,19,21,23,25,27,29,-1,-1,-1,-1,-1,-1,-1,-1,-1,-1,-1,-1,-1,-1,-1,-1],"loss_changes":[1.17393265E2,9.578518E0,2.671442E1,2.9804306E0,6.99051E0,5.670143E0,1.679985E0,3.216753E0,2.1937523E0,4.8893385E0,4.369028E0,3.0159118E0,4.952505E0,1.0316811E0,7.4147797E-1,0E0,0E0,0E0,0E0,0E0,0E0,0E0,0E0,0E0,0E0,0E0,0E0,0E0,0E0,0E0,0E0],"parents":[2147483647,0,0,1,1,2,2,3,3,4,4,5,5,6,6,7,7,8,8,9,9,10,10,11,11,12,12,13,13,14,14],"right_children":[2,4,6,8,10,12,14,16,18,20,22,24,26,28,30,-1,-1,-1,-1,-1,-1,-1,-1,-1,-1,-1,-1,-1,-1,-1,-1],"split_conditions":[2E0,-3.9E1,5.7E1,5.6E1,2.5E-1,2.087E-1,1.943E-1,4.706E-1,2.6769E0,1.4804E0,1.8873E0,3.7E1,1.6553E0,4.6E1,4E0,4.1439548E-2,-2.0597458E-2,-3.22552E-2,-9.220715E-3,1.5395629E-2,-2.5309557E-2,-1.8198742E-2,2.0797653E-2,-3.25882E-2,1.9408701E-2,9.457831E-3,2.8057296E-2,-2.0030653E-2,2.6734618E-2,3.9210778E-2,-9.144276E-4],"split_indices":[2,2,2,0,17,4,11,14,13,9,6,2,9,0,20,0,0,0,0,0,0,0,0,0,0,0,0,0,0,0,0],"split_type":[0,0,0,0,0,0,0,0,0,0,0,0,0,0,0,0,0,0,0,0,0,0,0,0,0,0,0,0,0,0,0],"sum_hessian":[8.520532E2,3.9365857E2,4.5839468E2,1.5668614E2,2.3697241E2,3.3788187E2,1.20512794E2,6.9748178E0,1.4971132E2,3.955052E1,1.9742189E2,1.3282769E1,3.2459912E2,2.823515E0,1.1768928E2,2.317332E0,4.6574855E0,1.3748627E2,1.2225064E1,3.0918552E1,8.631969E0,1.9076074E2,6.6611543E0,1.0323867E1,2.9589021E0,2.8414133E2,4.0457783E1,1.769498E0,1.0540171E0,1.16572044E2,1.1172338E0],"tree_param":{"num_deleted":"0","num_feature":"24","num_nodes":"31","size_leaf_vector":"1"}},{"base_weights":[-1.6498666E-2,-1.09006144E-1,3.9098167E-1,2.2902466E-1,-2.6906493E-1,6.382952E-1,6.6159435E-2,8.7618135E-2,5.816882E-1,4.0061194E-1,-3.0507788E-1,7.375488E-1,6.3271895E-2,-9.190216E-2,5.6154794E-1,-4.5490125E-3,1.6309237E-2,4.5976683E-2,1.0806221E-2,1.1389363E-2,5.5934496E-2,-2.197644E-2,-9.6700955E-3,1.2334666E-2,4.372059E-2,1.9037206E-2,-2.6057063E-2,-2.040956E-4,-3.0322045E-2,1.6403649E-3,3.418978E-2],"categories":[],"categories_nodes":[],"categories_segments":[],"categories_sizes":[],"default_left":[0,0,0,0,0,0,0,0,0,0,0,0,0,0,0,0,0,0,0,0,0,0,0,0,0,0,0,0,0,0,0],"id":12,"left_children":[1,3,5,7,9,11,13,15,17,19,21,23,25,27,29,-1,-1,-1,-1,-1,-1,-1,-1,-1,-1,-1,-1,-1,-1,-1,-1],"loss_changes":[2.78505E1,3.2632683E1,1.0939951E1,9.623105E0,9.986317E0,4.3764267E0,4.766139E0,5.9796553E0,6.6364803E0,2.3891609E0,5.751362E0,4.217964E0,2.5179143E0,2.0989444E0,9.280338E-1,0E0,0E0,0E0,0E0,0E0,0E0,0E0,0E0,0E0,0E0,0E0,0E0,0E0,0E0,0E0,0E0],"parents":[2147483647,0,0,1,1,2,2,3,3,4,4,5,5,6,6,7,7,8,8,9,9,10,10,11,11,12,12,13,13,14,14],"right_children":[2,4,6,8,10,12,14,16,18,20,22,24,26,28,30,-1,-1,-1,-1,-1,-1,-1,-1,-1,-1,-1,-1,-1,-1,-1,-1],"split_conditions":[1.7365E0,2.6E1,7.1E1,1.2095E0,3.723E-1,1.7165E0,6.667E-1,1.502E0,1.4569E0,3.263E-1,1.0133E0,1.0008E0,1.248E0,1.3333E0,1.9764E0,-4.5490125E-3,1.6309237E-2,4.5976683E-2,1.0806221E-2,1.1389363E-2,5.5934496E-2,-2.197644E-2,-9.6700955E-3,1.2334666E-2,4.372059E-2,1.9037206E-2,-2.6057063E-2,-2.040956E-4,-3.0322045E-2,1.6403649E-3,3.418978E-2],"split_indices":[8,1,1,5,4,12,17,3,5,4,12,13,7,18,5,0,0,0,0,0,0,0,0,0,0,0,0,0,0,0,0],"split_type":[0,0,0,0,0,0,0,0,0,0,0,0,0,0,0,0,0,0,0,0,0,0,0,0,0,0,0,0,0,0,0],"sum_hessian":[7.367078E2,6.009995E2,1.3570833E2,1.9298994E2,4.0800955E2,7.649865E1,5.9209675E1,1.3864592E2,5.434402E1,2.0304996E1,3.8770456E2,6.4997E1,1.1501653E1,4.5505047E1,1.3704627E1,7.9642044E1,5.900388E1,2.7455194E1,2.6888824E1,1.742776E1,2.8772385E0,1.7458244E2,2.1312213E2,1.4782485E1,5.0214516E1,7.678787E0,3.8228652E0,3.9731674E1,5.7733746E0,2.8117456E0,1.0892881E1],"tree_param":{"num_deleted":"0","num_feature":"24","num_nodes":"31","size_leaf_vector":"1"}},{"base_weights":[-1.6036406E-3,5.0718043E-2,-3.28127E-1,1.105627E-1,-1.3262181E-1,-3.842859E-1,-3.3969443E-2,8.069841E-1,9.091385E-2,-2.2725981E-1,1.4861695E-1,-2.2979294E-1,-5.104293E-1,-4.6686918E-1,5.599893E-1,-7.998834E-3,4.9616195E-2,8.747309E-4,1.2012855E-2,-2.637284E-2,-7.994427E-3,1.8781489E-2,-1.8647738E-2,-2.145472E-2,2.6782367E-2,-2.6657125E-2,2.9584006E-3,-2.8565899E-2,9.45474E-3,4.6233688E-2,-2.0079006E-2],"categories":[],"categories_nodes":[],"categories_segments":[],"categories_sizes":[],"default_left":[0,0,0,0,0,0,0,0,0,0,0,0,0,0,0,0,0,0,0,0,0,0,0,0,0,0,0,0,0,0,0],"id":13,"left_children":[1,3,5,7,9,11,13,15,17,19,21,23,25,27,29,-1,-1,-1,-1,-1,-1,-1,-1,-1,-1,-1,-1,-1,-1,-1,-1],"loss_changes":[1.1176991E1,6.201723E0,1.4795485E0,5.751541E0,3.7393258E0,1.3593769E0,4.267824E0,2.22933E0,4.547483E0,2.03046E0,4.3621445E0,5.7031107E0,5.606117E-1,7.628989E-1,2.83424E0,0E0,0E0,0E0,0E0,0E0,0E0,0E0,0E0,0E0,0E0,0E0,0E0,0E0,0E0,0E0,0E0],"parents":[2147483647,0,0,1,1,2,2,3,3,4,4,5,5,6,6,7,7,8,8,9,9,10,10,11,11,12,12,13,13,14,14],"right_children":[2,4,6,8,10,12,14,16,18,20,22,24,26,28,30,-1,-1,-1,-1,-1,-1,-1,-1,-1,-1,-1,-1,-1,-1,-1,-1],"split_conditions":[5.7E1,1.6067E0,2.2981E0,3.521E-1,2.3972E0,8E1,2.1E1,-7.4E1,1.4075E0,-7.1E1,3.1839E0,7.6E1,2.2414E0,1.2621E0,4E-1,-7.998834E-3,4.9616195E-2,8.747309E-4,1.2012855E-2,-2.637284E-2,-7.994427E-3,1.8781489E-2,-1.8647738E-2,-2.145472E-2,2.6782367E-2,-2.6657125E-2,2.9584006E-3,-2.8565899E-2,9.45474E-3,4.6233688E-2,-2.0079006E-2],"split_indices":[2,5,7,6,8,2,0,2,12,2,8,2,7,5,15,0,0,0,0,0,0,0,0,0,0,0,0,0,0,0,0],"split_type":[0,0,0,0,0,0,0,0,0,0,0,0,0,0,0,0,0,0,0,0,0,0,0,0,0,0,0,0,0,0,0],"sum_hessian":[6.5225366E2,5.6289996E2,8.93537E1,4.246766E2,1.3822334E2,7.477222E1,1.4581484E1,1.0553534E1,4.1412308E2,1.0356517E2,3.4658176E1,3.487773E1,3.9894485E1,8.558034E0,6.0234504E0,1.7194754E0,8.834058E0,2.7838315E2,1.3573991E2,1.7730669E1,8.58345E1,2.4342833E1,1.0315346E1,2.8021143E1,6.8565874E0,3.842621E1,1.4682758E0,7.4938345E0,1.0641991E0,4.3949814E0,1.628469E0],"tree_param":{"num_deleted":"0","num_feature":"24","num_nodes":"31","size_leaf_vector":"1"}},{"base_weights":[-1.0144224E-2,-1.656971E-1,2.932636E-1,-2.1559367E-2,-4.983006E-1,5.4386365E-1,-9.113266E-2,4.9276277E-2,-5.9727106E-2,-5.360525E-1,1.14229575E-1,8.3396655E-1,4.4820124E-1,-2.866354E-1,3.766977E-1,-1.6474027E-2,2.4149562E-3,-2.8929615E-2,-1.1132376E-3,-3.1514112E-2,2.2321468E-2,2.4103478E-2,4.767658E-2,1.7292922E-2,3.845204E-2,-1.8299282E-2,1.780621E-2,3.707309E-2,-3.7742269E-3],"categories":[],"categories_nodes":[],"categories_segments":[],"categories_sizes":[],"default_left":[0,0,0,0,0,0,0,0,0,0,0,0,0,0,0,0,0,0,0,0,0,0,0,0,0,0,0,0,0],"id":14,"left_children":[1,3,5,7,9,11,13,-1,15,17,19,21,23,25,27,-1,-1,-1,-1,-1,-1,-1,-1,-1,-1,-1,-1,-1,-1],"loss_changes":[4.0847206E1,2.741647E1,2.830735E1,1.5441103E1,4.05999E0,4.5583E0,1.0774679E1,0E0,1.1279035E1,3.5510597E0,2.9682004E0,1.3457241E0,4.193451E0,4.354402E0,5.7966237E0,0E0,0E0,0E0,0E0,0E0,0E0,0E0,0E0,0E0,0E0,0E0,0E0,0E0,0E0],"parents":[2147483647,0,0,1,1,2,2,3,3,4,4,5,5,6,6,8,8,9,9,10,10,11,11,12,12,13,13,14,14],"right_children":[2,4,6,8,10,12,14,-1,16,18,20,22,24,26,28,-1,-1,-1,-1,-1,-1,-1,-1,-1,-1,-1,-1,-1,-1],"split_conditions":[7.4E1,5.8E1,9.7E1,2E0,4E-1,2.1E1,1.75E2,4.9276277E-2,1.4E1,2.6769E0,4.2E1,6E-1,1.37E2,2.4402E0,1.71E2,-1.6474027E-2,2.4149562E-3,-2.8929615E-2,-1.1132376E-3,-3.1514112E-2,2.2321468E-2,2.4103478E-2,4.767658E-2,1.7292922E-2,3.845204E-2,-1.8299282E-2,1.780621E-2,3.707309E-2,-3.7742269E-3],"split_indices":[1,0,0,0,15,0,1,0,1,13,1,22,1,11,0,0,0,0,0,0,0,0,0,0,0,0,0,0,0],"split_type":[0,0,0,0,0,0,0,0,0,0,0,0,0,0,0,0,0,0,0,0,0,0,0,0,0,0,0,0,0],"sum_hessian":[8.634513E2,5.711069E2,2.9234445E2,3.9918155E2,1.7192531E2,1.7672017E2,1.1562429E2,1.36699E1,3.8551166E2,1.6206184E2,9.863462E0,4.190936E1,1.348108E2,8.181975E1,3.380454E1,1.0965099E2,2.7586066E2,1.4955325E2,1.2508594E1,2.766347E0,7.0971155E0,1.1904515E1,3.0004843E1,1.03783485E2,3.1027323E1,7.3212135E1,8.607614E0,1.8356815E1,1.5447724E1],"tree_param":{"num_deleted":"0","num_feature":"24","num_nodes":"29","size_leaf_vector":"1"}},{"base_weights":[1.0458011E-2,3.883273E-1,-3.7055948E-1,9.5772314E-1,2.8544694E-1,-1.1461214E-1,-5.030472E-1,2.260518E-1,1.0306697E0,-3.8065933E-2,3.471228E-1,-1.5699999E-1,5.019297E-1,-4.222267E-1,-6.223473E-1,4.1622862E-2,-1.8792769E-2,2.7691886E-2,5.546486E-2,-7.937702E-3,2.3070905E-2,1.032596E-2,2.5885526E-2,8.151222E-5,-1.6948557E-2,5.7919305E-2,3.6020742E-3,-2.3516076E-2,-3.6965762E-3,1.1057711E-2,-3.2064553E-2],"categories":[],"categories_nodes":[],"categories_segments":[],"categories_sizes":[],"default_left":[0,0,0,0,0,0,0,0,0,0,0,0,0,0,0,0,0,0,0,0,0,0,0,0,0,0,0,0,0,0,0],"id":15,"left_children":[1,3,5,7,9,11,13,15,17,19,21,23,25,27,29,-1,-1,-1,-1,-1,-1,-1,-1,-1,-1,-1,-1,-1,-1,-1,-1],"loss_changes":[1.05398575E2,2.1256767E1,1.230341E1,2.7463264E0,6.2528114E0,3.3619556E0,2.050312E0,2.627575E0,1.2781906E0,3.1459806E0,6.1950397E0,3.4156606E0,2.2643964E0,2.4129658E0,1.6562462E0,0E0,0E0,0E0,0E0,0E0,0E0,0E0,0E0,0E0,0E0,0E0,0E0,0E0,0E0,0E0,0E0],"parents":[2147483647,0,0,1,1,2,2,3,3,4,4,5,5,6,6,7,7,8,8,9,9,10,10,11,11,12,12,13,13,14,14],"right_children":[2,4,6,8,10,12,14,16,18,20,22,24,26,28,30,-1,-1,-1,-1,-1,-1,-1,-1,-1,-1,-1,-1,-1,-1,-1,-1],"split_conditions":[2E0,-7.9E1,2.3E1,7.953E-1,9.79E-1,2.25E0,5.7E1,1.32265E0,1.2389E0,1.586E0,1.2095E0,1.1557E0,8E0,1.7545E0,1.869E-1,4.1622862E-2,-1.8792769E-2,2.7691886E-2,5.546486E-2,-7.937702E-3,2.3070905E-2,1.032596E-2,2.5885526E-2,8.151222E-5,-1.6948557E-2,5.7919305E-2,3.6020742E-3,-2.3516076E-2,-3.6965762E-3,1.1057711E-2,-3.2064553E-2],"split_indices":[2,2,2,5,13,3,2,13,8,4,5,3,2,5,11,0,0,0,0,0,0,0,0,0,0,0,0,0,0,0,0],"split_type":[0,0,0,0,0,0,0,0,0,0,0,0,0,0,0,0,0,0,0,0,0,0,0,0,0,0,0,0,0,0,0],"sum_hessian":[7.3006323E2,3.665363E2,3.6352692E2,5.4820534E1,3.1171576E2,1.24628204E2,2.3889873E2,5.3416243E0,4.947891E1,4.9972763E1,2.6174298E2,1.1730849E2,7.319718E0,1.4512328E2,9.3775444E1,2.470066E0,2.8715584E0,8.14257E0,4.1336338E1,4.0797264E1,9.175498E0,1.4469315E2,1.1704985E2,6.320321E1,5.4105274E1,2.2259626E0,5.0937552E0,1.2720733E2,1.7915949E1,1.8253316E0,9.195011E1],"tree_param":{"num_deleted":"0","num_feature":"24","num_nodes":"31","size_leaf_vector":"1"}},{"base_weights":[1.4636256E-3,3.3534035E-2,-4.571372E-1,-1.3986628E-1,1.0363798E-1,-5.444707E-1,-1.2672476E-1,1.9428167E-1,-2.5063524E-1,-2.4230725E-1,1.5092963E-1,-4.053563E-2,-5.9272075E-1,4.919743E-1,-4.012062E-1,2.5330195E-2,-6.668874E-3,-1.3930476E-2,2.0239031E-2,-2.0327256E-3,-2.8809322E-2,2.927578E-2,5.058404E-3,1.0178931E-2,-1.7048918E-2,-3.0698804E-2,-4.081861E-3,5.1401507E-2,-1.7290529E-2,-2.6433755E-2,-8.2842767E-4],"categories":[],"categories_nodes":[],"categories_segments":[],"categories_sizes":[],"default_left":[0,0,0,0,0,0,0,0,0,0,0,0,0,0,0,0,0,0,0,0,0,0,0,0,0,0,0,0,0,0,0],"id":16,"left_children":[1,3,5,7,9,11,13,15,17,19,21,23,25,27,29,-1,-1,-1,-1,-1,-1,-1,-1,-1,-1,-1,-1,-1,-1,-1,-1],"loss_changes":[9.427835E0,7.2969604E0,1.1400032E0,6.4482403E0,7.02542E0,7.743559E-1,1.9061964E0,4.5303273E0,2.5016108E0,3.4613123E0,8.081207E0,3.5857186E-1,2.746067E-1,1.9459659E0,3.5998833E-1,0E0,0E0,0E0,0E0,0E0,0E0,0E0,0E0,0E0,0E0,0E0,0E0,0E0,0E0,0E0,0E0],"parents":[2147483647,0,0,1,1,2,2,3,3,4,4,5,5,6,6,7,7,8,8,9,9,10,10,11,11,12,12,13,13,14,14],"right_children":[2,4,6,8,10,12,14,16,18,20,22,24,26,28,30,-1,-1,-1,-1,-1,-1,-1,-1,-1,-1,-1,-1,-1,-1,-1,-1],"split_conditions":[8.2E1,1.0124E0,2.2278E0,9.037E-1,6.565E-1,5E-1,1.1681E0,7E0,1.0495E0,1.7783E0,8.011E-1,1.4394E0,1.6667E0,9.985E-1,8E-1,2.5330195E-2,-6.668874E-3,-1.3930476E-2,2.0239031E-2,-2.0327256E-3,-2.8809322E-2,2.927578E-2,5.058404E-3,1.0178931E-2,-1.7048918E-2,-3.0698804E-2,-4.081861E-3,5.1401507E-2,-1.7290529E-2,-2.6433755E-2,-8.2842767E-4],"split_indices":[2,7,7,13,12,22,11,2,4,7,10,14,19,12,22,0,0,0,0,0,0,0,0,0,0,0,0,0,0,0,0],"split_type":[0,0,0,0,0,0,0,0,0,0,0,0,0,0,0,0,0,0,0,0,0,0,0,0,0,0,0,0,0,0,0],"sum_hessian":[6.389793E2,5.980817E2,4.089757E1,1.7189896E2,4.261828E2,3.1835157E1,9.062413E0,4.2609203E1,1.2928975E2,5.0757893E1,3.754249E2,2.9425511E0,2.8892607E1,2.5414476E0,6.5209656E0,2.153555E1,2.1073654E1,1.24548706E2,4.741041E0,3.2344547E1,1.8413347E1,3.7464775E1,3.379601E2,1.8013399E0,1.1412113E0,2.7545694E1,1.3469115E0,1.4113289E0,1.1301187E0,4.616562E0,1.9044037E0],"tree_param":{"num_deleted":"0","num_feature":"24","num_nodes":"31","size_leaf_vector":"1"}},{"base_weights":[-9.402669E-3,-3.8044092E-1,3.267718E-1,-5.445392E-1,-2.7574417E-1,2.0136252E-1,6.761861E-1,3.979887E-1,-5.6494373E-1,-2.2571413E-1,-6.5663016E-1,1.7200826E-1,4.8492976E-2,-1.3847569E-1,6.946364E-1,3.1223634E-2,4.0257825E-3,-2.8955175E-2,2.0056013E-2,-1.4495206E-2,6.158824E-3,-3.893938E-2,5.7387757E-3,-2.5081934E-4,1.4756969E-2,-2.6098434E-2,1.426054E-2,2.7911155E-2,4.029525E-2],"categories":[],"categories_nodes":[],"categories_segments":[],"categories_sizes":[],"default_left":[0,0,0,0,0,0,0,0,0,0,0,0,0,0,0,0,0,0,0,0,0,0,0,0,0,0,0,0,0],"id":17,"left_children":[1,3,5,7,9,11,13,15,17,19,21,23,-1,25,27,-1,-1,-1,-1,-1,-1,-1,-1,-1,-1,-1,-1,-1,-1],"loss_changes":[1.062658E2,6.807293E0,1.9450645E1,3.2386131E0,4.6014786E0,7.285494E0,1.8642998E0,2.3066688E-1,2.3361511E0,5.0038233E0,2.7669954E0,6.963827E0,0E0,7.076278E-1,1.2985992E0,0E0,0E0,0E0,0E0,0E0,0E0,0E0,0E0,0E0,0E0,0E0,0E0,0E0,0E0],"parents":[2147483647,0,0,1,1,2,2,3,3,4,4,5,5,6,6,7,7,8,8,9,9,10,10,11,11,13,13,14,14],"right_children":[2,4,6,8,10,12,14,16,18,20,22,24,-1,26,28,-1,-1,-1,-1,-1,-1,-1,-1,-1,-1,-1,-1,-1,-1],"split_conditions":[2E0,-3.9E1,5.7E1,2E0,2.3598E0,1E0,1.943E-1,4.4E1,4E0,2.0019E0,8.8E1,2.1E1,4.8492976E-2,2.9E1,8E1,3.1223634E-2,4.0257825E-3,-2.8955175E-2,2.0056013E-2,-1.4495206E-2,6.158824E-3,-3.893938E-2,5.7387757E-3,-2.5081934E-4,1.4756969E-2,-2.6098434E-2,1.426054E-2,2.7911155E-2,4.029525E-2],"split_indices":[2,2,2,1,13,22,11,0,13,10,0,2,0,0,2,0,0,0,0,0,0,0,0,0,0,0,0,0,0],"split_type":[0,0,0,0,0,0,0,0,0,0,0,0,0,0,0,0,0,0,0,0,0,0,0,0,0,0,0,0,0],"sum_hessian":[8.4994543E2,4.0396008E2,4.4598538E2,1.557077E2,2.4825237E2,3.2935272E2,1.1663265E2,2.9073246E0,1.5280038E2,2.2083755E2,2.7414803E1,3.184141E2,1.0938635E1,2.438909E0,1.1419374E2,1.1324378E0,1.7748866E0,1.509879E2,1.812492E0,1.8666367E2,3.4173893E1,2.3658712E1,3.7560904E0,1.3101463E2,1.8739946E2,1.1584172E0,1.2804918E0,5.4003414E1,6.019033E1],"tree_param":{"num_deleted":"0","num_feature":"24","num_nodes":"29","size_leaf_vector":"1"}},{"base_weights":[-6.1308164E-3,-1.0117462E-1,3.95781E-1,1.6802385E-1,-2.3099722E-1,4.8442402E-1,-5.369849E-1,6.862337E-2,6.3182825E-1,1.4843954E-1,-2.8870243E-1,-7.013113E-3,5.6296223E-1,-6.929423E-3,-5.624065E-1,-2.6935118E-3,1.9714039E-2,5.5439245E-2,1.473468E-2,2.8765984E-3,4.2670608E-2,-9.907383E-3,-2.463987E-2,3.7406508E-2,-1.026814E-2,1.3546824E-2,3.635787E-2,-8.702748E-3,-2.9570794E-2],"categories":[],"categories_nodes":[],"categories_segments":[],"categories_sizes":[],"default_left":[0,0,0,0,0,0,0,0,0,0,0,0,0,0,0,0,0,0,0,0,0,0,0,0,0,0,0,0,0],"id":18,"left_children":[1,3,5,7,9,11,13,15,17,19,21,23,25,-1,27,-1,-1,-1,-1,-1,-1,-1,-1,-1,-1,-1,-1,-1,-1],"loss_changes":[2.8542482E1,2.1156012E1,1.2076115E1,9.046733E0,8.977823E0,5.0612736E0,5.2467585E-2,6.5431957E0,5.2492895E0,3.4454856E0,6.454973E0,3.0058942E0,5.2206535E0,0E0,2.9740095E-2,0E0,0E0,0E0,0E0,0E0,0E0,0E0,0E0,0E0,0E0,0E0,0E0,0E0,0E0],"parents":[2147483647,0,0,1,1,2,2,3,3,4,4,5,5,6,6,7,7,8,8,9,9,10,10,11,11,12,12,14,14],"right_children":[2,4,6,8,10,12,14,16,18,20,22,24,26,-1,28,-1,-1,-1,-1,-1,-1,-1,-1,-1,-1,-1,-1,-1,-1],"split_conditions":[1.7365E0,2.6E1,1.76E2,1.7492E0,7.027E-1,4.423E-1,1.78E2,1.2207E0,1.0666E0,6.181E-1,9.3E1,1.1872E0,9.41E-1,-6.929423E-3,1.2164E0,-2.6935118E-3,1.9714039E-2,5.5439245E-2,1.473468E-2,2.8765984E-3,4.2670608E-2,-9.907383E-3,-2.463987E-2,3.7406508E-2,-1.026814E-2,1.3546824E-2,3.635787E-2,-8.702748E-3,-2.9570794E-2],"split_indices":[8,1,1,12,4,9,1,8,3,4,1,14,14,0,14,0,0,0,0,0,0,0,0,0,0,0,0,0,0],"split_type":[0,0,0,0,0,0,0,0,0,0,0,0,0,0,0,0,0,0,0,0,0,0,0,0,0,0,0,0,0],"sum_hessian":[7.4515216E2,6.032454E2,1.4190675E2,1.9617181E2,4.070736E2,1.3003032E2,1.187644E1,1.6249464E2,3.367717E1,5.3528458E1,3.5354517E2,1.8042664E1,1.11987656E2,1.0993574E0,1.0777082E1,1.18686264E2,4.3808376E1,1.2998654E1,2.0678514E1,4.8372356E1,5.1560993E0,2.4625519E2,1.0728998E2,3.1767159E0,1.4865948E1,4.1258427E1,7.0729225E1,1.2356253E0,9.541457E0],"tree_param":{"num_deleted":"0","num_feature":"24","num_nodes":"29","size_leaf_vector":"1"}},{"base_weights":[2.3860595E-4,3.2104608E-2,-4.5150566E-1,1.0892671E-1,-9.567993E-2,-5.5095595E-1,-6.124506E-2,-3.3831306E-2,2.0265351E-1,-4.7093213E-1,-4.147817E-2,-1.2229056E-1,-5.8841705E-1,-2.7865142E-1,3.5369404E-2,-6.475719E-3,2.8751632E-2,1.4319134E-2,-1.6629657E-2,-4.4346615E-3,-2.6352063E-2,1.6082891E-3,-1.7863583E-2,9.427737E-3,-1.5274489E-2,-3.0439634E-2,-3.8205006E-3,-2.6662737E-2,1.2950859E-2],"categories":[],"categories_nodes":[],"categories_segments":[],"categories_sizes":[],"default_left":[0,0,0,0,0,0,0,0,0,0,0,0,0,0,0,0,0,0,0,0,0,0,0,0,0,0,0,0,0],"id":19,"left_children":[1,3,5,7,9,11,13,15,17,19,21,23,25,27,-1,-1,-1,-1,-1,-1,-1,-1,-1,-1,-1,-1,-1,-1,-1],"loss_changes":[9.366774E0,5.9770155E0,1.6302938E0,5.0921903E0,4.632866E0,4.7470856E-1,1.8401089E0,8.899881E0,1.0383789E1,5.7034826E-1,4.68522E0,2.852889E-1,2.773533E-1,1.2855047E0,0E0,0E0,0E0,0E0,0E0,0E0,0E0,0E0,0E0,0E0,0E0,0E0,0E0,0E0,0E0],"parents":[2147483647,0,0,1,1,2,2,3,3,4,4,5,5,6,6,7,7,8,8,9,9,10,10,11,11,12,12,13,13],"right_children":[2,4,6,8,10,12,14,16,18,20,22,24,26,28,-1,-1,-1,-1,-1,-1,-1,-1,-1,-1,-1,-1,-1,-1,-1],"split_conditions":[8.2E1,1.2815E0,2.2278E0,7E-1,-8E1,5E-1,1.2389E0,2.0785E0,2.2434E0,1.822E-1,1.6958E0,8.455E-1,1.6667E0,8E-1,3.5369404E-2,-6.475719E-3,2.8751632E-2,1.4319134E-2,-1.6629657E-2,-4.4346615E-3,-2.6352063E-2,1.6082891E-3,-1.7863583E-2,9.427737E-3,-1.5274489E-2,-3.0439634E-2,-3.8205006E-3,-2.6662737E-2,1.2950859E-2],"split_indices":[2,8,7,22,2,22,8,13,10,4,7,8,19,22,0,0,0,0,0,0,0,0,0,0,0,0,0,0,0],"split_type":[0,0,0,0,0,0,0,0,0,0,0,0,0,0,0,0,0,0,0,0,0,0,0,0,0,0,0,0,0],"sum_hessian":[6.486765E2,6.068017E2,4.187481E1,3.7906262E2,2.2773907E2,3.3042744E1,8.832066E0,1.504884E2,2.2857423E2,2.7772776E1,1.999663E2,2.9982595E0,3.0044485E1,7.3816514E0,1.450414E0,1.3073125E2,1.975715E1,1.9805695E2,3.0517292E1,3.88529E0,2.3887486E1,1.6288028E2,3.708601E1,1.1009601E0,1.8972994E0,2.8712812E1,1.331673E0,5.015066E0,2.3665853E0],"tree_param":{"num_deleted":"0","num_feature":"24","num_nodes":"29","size_leaf_vector":"1"}},{"base_weights":[9.506399E-4,-2.6054674E-1,4.5770386E-1,-5.0803405E-1,-1.3849723E-1,3.2685477E-1,6.6363186E-1,-7.033946E-1,-4.1150126E-1,4.3374303E-1,-1.6688854E-1,5.909192E-1,2.3077421E-1,-3.416388E-2,6.803404E-1,-2.0113528E-2,-3.659657E-2,-2.2319471E-2,6.963029E-3,-2.0492343E-2,4.467788E-2,4.3582325E-3,-1.1942769E-2,4.0499803E-2,1.2914076E-2,-5.815539E-3,1.5783628E-2,-2.8685903E-2,2.8074834E-2,2.9867906E-2,4.103519E-2],"categories":[],"categories_nodes":[],"categories_segments":[],"categories_sizes":[],"default_left":[0,0,0,0,0,0,0,0,0,0,0,0,0,0,0,0,0,0,0,0,0,0,0,0,0,0,0,0,0,0,0],"id":20,"left_children":[1,3,5,7,9,11,13,15,17,19,21,23,25,27,29,-1,-1,-1,-1,-1,-1,-1,-1,-1,-1,-1,-1,-1,-1,-1,-1],"loss_changes":[1.0330061E2,1.6542732E1,8.26767E0,3.1292E0,6.0791173E0,4.798605E0,1.438324E0,2.0861626E-1,2.439762E0,7.253002E0,6.474262E0,3.525608E0,4.287557E0,1.5403453E0,8.909302E-1,0E0,0E0,0E0,0E0,0E0,0E0,0E0,0E0,0E0,0E0,0E0,0E0,0E0,0E0,0E0,0E0],"parents":[2147483647,0,0,1,1,2,2,3,3,4,4,5,5,6,6,7,7,8,8,9,9,10,10,11,11,12,12,13,13,14,14],"right_children":[2,4,6,8,10,12,14,16,18,20,22,24,26,28,30,-1,-1,-1,-1,-1,-1,-1,-1,-1,-1,-1,-1,-1,-1,-1,-1],"split_conditions":[2.1E1,-3.5E1,5.9E1,-7.7E1,3.953E-1,1.1E1,1.943E-1,8.445E-1,2.0935E0,-1.3E1,3.4E-1,1.3769E0,8.425E-1,4.6E1,9.5E1,-2.0113528E-2,-3.659657E-2,-2.2319471E-2,6.963029E-3,-2.0492343E-2,4.467788E-2,4.3582325E-3,-1.1942769E-2,4.0499803E-2,1.2914076E-2,-5.815539E-3,1.5783628E-2,-2.8685903E-2,2.8074834E-2,2.9867906E-2,4.103519E-2],"split_indices":[2,2,2,2,14,0,11,5,12,2,17,13,14,0,2,0,0,0,0,0,0,0,0,0,0,0,0,0,0,0,0],"split_type":[0,0,0,0,0,0,0,0,0,0,0,0,0,0,0,0,0,0,0,0,0,0,0,0,0,0,0,0,0,0,0],"sum_hessian":[8.6287775E2,5.4899835E2,3.138794E2,1.8027701E2,3.6872137E2,1.9350882E2,1.2037059E2,5.7540836E1,1.22736176E2,1.6754242E1,3.5196713E2,5.0250854E1,1.4325795E2,2.790411E0,1.1758018E2,6.2877975E0,5.1253036E1,1.1560279E2,7.1333804E0,5.9488916E0,1.080535E1,7.7647896E1,2.743192E2,2.9431833E1,2.0819021E1,2.8081991E1,1.15175964E2,1.4834903E0,1.3069205E0,7.7197266E1,4.038291E1],"tree_param":{"num_deleted":"0","num_feature":"24","num_nodes":"31","size_leaf_vector":"1"}},{"base_weights":[6.529019E-4,3.7627554E-1,-3.7529483E-1,6.265441E-1,1.6591936E-1,-1.3730499E-1,-4.8939902E-1,8.879472E-1,4.9500442E-1,1.3110803E-2,4.004749E-1,-6.265104E-2,-4.9631885E-1,-2.498068E-1,-5.328978E-1,4.642604E-2,-1.2674819E-2,8.645925E-3,2.9797409E-2,-6.795483E-3,1.7727435E-2,4.1165598E-2,1.3495083E-2,4.3894168E-2,-5.8444487E-3,1.4871779E-3,-3.1088484E-2,2.8007159E-3,-2.132518E-2,3.1054285E-4,-2.8063271E-2],"categories":[],"categories_nodes":[],"categories_segments":[],"categories_sizes":[],"default_left":[0,0,0,0,0,0,0,0,0,0,0,0,0,0,0,0,0,0,0,0,0,0,0,0,0,0,0,0,0,0,0],"id":21,"left_children":[1,3,5,7,9,11,13,15,17,19,21,23,25,27,29,-1,-1,-1,-1,-1,-1,-1,-1,-1,-1,-1,-1,-1,-1,-1,-1],"loss_changes":[1.04156334E2,1.9319424E1,9.943161E0,5.341545E0,7.228319E0,3.2079751E0,2.4596138E0,2.7835846E0,3.606844E0,6.318682E0,4.171483E0,5.2647324E0,1.3819351E0,2.1912577E0,3.2099915E0,0E0,0E0,0E0,0E0,0E0,0E0,0E0,0E0,0E0,0E0,0E0,0E0,0E0,0E0,0E0,0E0],"parents":[2147483647,0,0,1,1,2,2,3,3,4,4,5,5,6,6,7,7,8,8,9,9,10,10,11,11,12,12,13,13,14,14],"right_children":[2,4,6,8,10,12,14,16,18,20,22,24,26,28,30,-1,-1,-1,-1,-1,-1,-1,-1,-1,-1,-1,-1,-1,-1,-1,-1],"split_conditions":[2E0,-3.5E1,2.1E1,-7.9E1,1.2815E0,1.6275E0,9.844E-1,1E0,-6.3E1,1.801E0,2.8E1,3E0,5.496E-1,3.8E1,4.038E-1,4.642604E-2,-1.2674819E-2,8.645925E-3,2.9797409E-2,-6.795483E-3,1.7727435E-2,4.1165598E-2,1.3495083E-2,4.3894168E-2,-5.8444487E-3,1.4871779E-3,-3.1088484E-2,2.8007159E-3,-2.132518E-2,3.1054285E-4,-2.8063271E-2],"split_indices":[2,2,2,2,8,9,4,23,2,4,0,0,14,2,11,0,0,0,0,0,0,0,0,0,0,0,0,0,0,0,0],"split_type":[0,0,0,0,0,0,0,0,0,0,0,0,0,0,0,0,0,0,0,0,0,0,0,0,0,0,0,0,0,0,0],"sum_hessian":[7.3557544E2,3.6794638E2,3.6762906E2,1.6712866E2,2.008177E2,1.1985269E2,2.4777635E2,5.4022232E1,1.1310644E2,1.2223789E2,7.857981E1,1.0019292E2,1.9659779E1,3.9108505E1,2.0866785E2,5.234802E1,1.6742129E0,2.7636951E1,8.546948E1,8.551628E1,3.672161E1,1.7288588E1,6.1291225E1,4.6348414E0,9.5558075E1,3.9324493E0,1.5727329E1,1.4571541E1,2.4536963E1,1.0470175E1,1.9819768E2],"tree_param":{"num_deleted":"0","num_feature":"24","num_nodes":"31","size_leaf_vector":"1"}},{"base_weights":[-2.0063678E-2,7.4713808E-3,-4.292561E-1,7.185681E-2,-1.4418954E-1,-5.2877563E-1,7.7287555E-2,-3.413016E-1,1.0496153E-1,1.3423592E-1,-2.2852798E-1,-7.00399E-2,-5.6512994E-1,3.9123982E-2,-2.8331402E-1,-2.1461884E-2,5.4351475E-2,4.6898376E-2,4.433863E-3,2.4349986E-2,-4.0504513E-3,-1.5774598E-2,4.4676973E-3,1.1376482E-2,-1.7629026E-2,-3.0168062E-2,-3.8564063E-3,-2.419864E-2,8.400976E-3],"categories":[],"categories_nodes":[],"categories_segments":[],"categories_sizes":[],"default_left":[0,0,0,0,0,0,0,0,0,0,0,0,0,0,0,0,0,0,0,0,0,0,0,0,0,0,0,0,0],"id":22,"left_children":[1,3,5,7,9,11,13,15,17,19,21,23,25,-1,27,-1,-1,-1,-1,-1,-1,-1,-1,-1,-1,-1,-1,-1,-1],"loss_changes":[7.2595315E0,5.912214E0,2.088666E0,5.848054E0,4.268114E0,5.2875614E-1,2.1397915E0,4.455553E0,5.263967E0,3.2728558E0,3.867189E0,3.8658413E-1,5.399504E-1,0E0,5.99795E-1,0E0,0E0,0E0,0E0,0E0,0E0,0E0,0E0,0E0,0E0,0E0,0E0,0E0,0E0],"parents":[2147483647,0,0,1,1,2,2,3,3,4,4,5,5,6,6,7,7,8,8,9,9,10,10,11,11,12,12,14,14],"right_children":[2,4,6,8,10,12,14,16,18,20,22,24,26,-1,28,-1,-1,-1,-1,-1,-1,-1,-1,-1,-1,-1,-1,-1,-1],"split_conditions":[8E1,1.4103E0,2.2414E0,5E0,9.652E-1,5E-1,1.1681E0,1.3834E0,3.521E-1,-2.1E1,2.1417E0,1.4394E0,1.7939E0,3.9123982E-2,9.935E-1,-2.1461884E-2,5.4351475E-2,4.6898376E-2,4.433863E-3,2.4349986E-2,-4.0504513E-3,-1.5774598E-2,4.4676973E-3,1.1376482E-2,-1.7629026E-2,-3.0168062E-2,-3.8564063E-3,-2.419864E-2,8.400976E-3],"split_indices":[2,8,7,0,13,22,11,5,6,2,13,14,8,0,8,0,0,0,0,0,0,0,0,0,0,0,0,0,0],"split_type":[0,0,0,0,0,0,0,0,0,0,0,0,0,0,0,0,0,0,0,0,0,0,0,0,0,0,0,0,0],"sum_hessian":[6.430256E2,6.0340356E2,3.9622025E1,4.2394858E2,1.7945499E2,3.3079144E1,6.542878E0,3.0758759E1,3.9318982E2,4.1583675E1,1.3787132E2,2.6438878E0,3.0435257E1,1.8178886E0,4.72499E0,2.9633818E1,1.1249413E0,6.4537735E0,3.8673605E2,1.5279556E1,2.630412E1,1.08261406E2,2.9609911E1,1.3825246E0,1.2613631E0,2.800489E1,2.4303668E0,3.2207544E0,1.5042353E0],"tree_param":{"num_deleted":"0","num_feature":"24","num_nodes":"29","size_leaf_vector":"1"}},{"base_weights":[1.2614137E-3,-2.5607452E-1,4.3783984E-1,-4.4153202E-1,-6.6206716E-2,3.0404654E-1,6.4694643E-1,-7.178534E-1,-3.6733997E-1,7.07042E-1,-8.388402E-2,-4.489858E-1,3.3732077E-1,-1.5232621E-1,6.6379774E-1,-3.7583847E-2,-1.7144859E-2,-2.1095907E-3,-2.0683613E-2,9.813819E-4,4.617125E-2,-8.048142E-3,5.529182E-3,6.677111E-3,-3.348829E-2,2.8336003E-2,1.117986E-2,-2.5758523E-2,1.3489899E-2,3.862747E-2,2.862452E-2],"categories":[],"categories_nodes":[],"categories_segments":[],"categories_sizes":[],"default_left":[0,0,0,0,0,0,0,0,0,0,0,0,0,0,0,0,0,0,0,0,0,0,0,0,0,0,0,0,0,0,0],"id":23,"left_children":[1,3,5,7,9,11,13,15,17,19,21,23,25,27,29,-1,-1,-1,-1,-1,-1,-1,-1,-1,-1,-1,-1,-1,-1,-1,-1],"loss_changes":[9.692177E1,1.9083076E1,8.753933E0,5.3617096E0,3.741362E0,5.087208E0,1.7704811E0,4.6556282E-1,3.2721882E0,8.9317393E-1,3.9786868E0,1.2166891E0,4.8096657E0,6.555474E-1,7.649002E-1,0E0,0E0,0E0,0E0,0E0,0E0,0E0,0E0,0E0,0E0,0E0,0E0,0E0,0E0,0E0,0E0],"parents":[2147483647,0,0,1,1,2,2,3,3,4,4,5,5,6,6,7,7,8,8,9,9,10,10,11,11,12,12,13,13,14,14],"right_children":[2,4,6,8,10,12,14,16,18,20,22,24,26,28,30,-1,-1,-1,-1,-1,-1,-1,-1,-1,-1,-1,-1,-1,-1,-1,-1],"split_conditions":[2.1E1,-1.7E1,5.7E1,-7.7E1,-1.6E1,4.176E-1,1.943E-1,1.3006E0,3.4E-1,6E-1,5.7E1,1.248E-1,5.1E1,1.2762E0,2.1E1,-3.7583847E-2,-1.7144859E-2,-2.1095907E-3,-2.0683613E-2,9.813819E-4,4.617125E-2,-8.048142E-3,5.529182E-3,6.677111E-3,-3.348829E-2,2.8336003E-2,1.117986E-2,-2.5758523E-2,1.3489899E-2,3.862747E-2,2.862452E-2],"split_indices":[2,2,2,2,2,4,11,6,17,22,1,6,1,12,0,0,0,0,0,0,0,0,0,0,0,0,0,0,0,0,0],"split_type":[0,0,0,0,0,0,0,0,0,0,0,0,0,0,0,0,0,0,0,0,0,0,0,0,0,0,0,0,0,0,0],"sum_hessian":[8.606997E2,5.417721E2,3.1892764E2,2.7339862E2,2.6837347E2,1.9598436E2,1.2294327E2,5.6033047E1,2.1736555E2,5.1265917E0,2.632469E2,7.7648125E0,1.8821956E2,2.3725343E0,1.2057073E2,5.0475163E1,5.557886E0,2.734885E1,1.9001671E2,1.4885172E0,3.6380744E0,1.886473E2,7.4599594E1,2.242668E0,5.522145E0,6.1062702E1,1.2715685E2,1.1573176E0,1.2152166E0,5.1623512E1,6.894722E1],"tree_param":{"num_deleted":"0","num_feature":"24","num_nodes":"31","size_leaf_vector":"1"}},{"base_weights":[-1.0047658E-2,4.655997E-1,-2.667701E-1,8.841226E-1,3.5374805E-1,-6.8370484E-2,-4.5446843E-1,9.2690176E-1,-2.3199858E-2,2.0806745E-1,4.7158304E-1,-3.2346666E-1,3.7426386E-2,-3.7393892E-1,-5.8700365E-1,4.9571045E-2,2.3480954E-2,-8.262269E-3,1.7239058E-2,1.3060375E-2,3.147395E-2,8.84674E-3,-2.2587145E-2,-8.13986E-4,2.8394544E-2,-6.3692043E-3,-2.1105511E-2,6.5629818E-3,-3.027567E-2],"categories":[],"categories_nodes":[],"categories_segments":[],"categories_sizes":[],"default_left":[0,0,0,0,0,0,0,0,0,0,0,0,0,0,0,0,0,0,0,0,0,0,0,0,0,0,0,0,0],"id":24,"left_children":[1,3,5,7,9,11,13,15,-1,17,19,21,23,25,27,-1,-1,-1,-1,-1,-1,-1,-1,-1,-1,-1,-1,-1,-1],"loss_changes":[9.044532E1,1.1841969E1,1.7882019E1,3.549549E0,3.4476852E0,6.3550324E0,2.4167595E0,1.0910301E0,0E0,4.862336E0,3.6025047E0,4.5091257E0,4.7675815E0,1.8037834E0,1.2973118E0,0E0,0E0,0E0,0E0,0E0,0E0,0E0,0E0,0E0,0E0,0E0,0E0,0E0,0E0],"parents":[2147483647,0,0,1,1,2,2,3,3,4,4,5,5,6,6,7,7,9,9,10,10,11,11,12,12,13,13,14,14],"right_children":[2,4,6,8,10,12,14,16,-1,18,20,22,24,26,28,-1,-1,-1,-1,-1,-1,-1,-1,-1,-1,-1,-1,-1,-1],"split_conditions":[-1.7E1,-7.9E1,2.1E1,1E0,1.2095E0,8.033E-1,5.7E1,1.1374E0,-2.3199858E-2,1.0501E0,9.412E-1,4.982E-1,1.6548E0,7.528E-1,1.869E-1,4.9571045E-2,2.3480954E-2,-8.262269E-3,1.7239058E-2,1.3060375E-2,3.147395E-2,8.84674E-3,-2.2587145E-2,-8.13986E-4,2.8394544E-2,-6.3692043E-3,-2.1105511E-2,6.5629818E-3,-3.027567E-2],"split_indices":[2,2,2,23,5,5,2,6,0,3,11,8,3,6,11,0,0,0,0,0,0,0,0,0,0,0,0,0,0],"split_type":[0,0,0,0,0,0,0,0,0,0,0,0,0,0,0,0,0,0,0,0,0,0,0,0,0,0,0,0,0],"sum_hessian":[7.38674E2,2.586471E2,4.8002692E2,5.3090466E1,2.0555663E2,2.3402434E2,2.4600258E2,5.176043E1,1.3300381E0,9.31545E1,1.1240212E2,6.8001785E1,1.6602255E2,1.5540105E2,9.060153E1,4.4336777E1,7.4236503E0,2.4914324E1,6.824017E1,4.93303E1,6.3071827E1,1.3797774E1,5.4204014E1,1.5163936E2,1.4383195E1,2.5995062E1,1.2940599E2,2.1231263E0,8.847841E1],"tree_param":{"num_deleted":"0","num_feature":"24","num_nodes":"29","size_leaf_vector":"1"}},{"base_weights":[8.450246E-3,-1.8100753E-1,6.3182525E-2,4.1135657E-1,-2.2883397E-1,1.3518777E-1,-8.875842E-2,-2.1291105E-1,7.823682E-1,2.0703673E-1,-3.0042335E-1,-1.15937926E-1,2.2694209E-1,-4.0531138E-1,-4.3423653E-2,2.2883287E-2,-2.5080636E-2,7.42609E-2,-3.991189E-3,-7.5939606E-5,5.4717254E-2,-1.6649825E-2,1.55948E-2,-9.330717E-3,3.6781024E-2,1.44215E-2,-1.1992124E-2,-3.234161E-3,-2.9083213E-2,-1.2024662E-2,2.185135E-3],"categories":[],"categories_nodes":[],"categories_segments":[],"categories_sizes":[],"default_left":[0,0,0,0,0,0,0,0,0,0,0,0,0,0,0,0,0,0,0,0,0,0,0,0,0,0,0,0,0,0,0],"id":25,"left_children":[1,3,5,7,9,11,13,15,17,19,21,23,25,27,29,-1,-1,-1,-1,-1,-1,-1,-1,-1,-1,-1,-1,-1,-1,-1,-1],"loss_changes":[6.849374E0,4.288833E0,5.61759E0,2.811258E0,4.357189E0,8.045418E0,2.3552434E0,1.2058073E0,4.5883694E0,3.7045617E0,2.4700289E0,5.7821884E0,7.3947163E0,1.1994307E0,2.5130625E0,0E0,0E0,0E0,0E0,0E0,0E0,0E0,0E0,0E0,0E0,0E0,0E0,0E0,0E0,0E0,0E0],"parents":[2147483647,0,0,1,1,2,2,3,3,4,4,5,5,6,6,7,7,8,8,9,9,10,10,11,11,12,12,13,13,14,14],"right_children":[2,4,6,8,10,12,14,16,18,20,22,24,26,28,30,-1,-1,-1,-1,-1,-1,-1,-1,-1,-1,-1,-1,-1,-1,-1,-1],"split_conditions":[3.4E-1,2.019E-1,6.9E1,7.821E-1,5.946E-1,1.0035E0,2.2E1,2.092E-1,4.6E1,1.2776E0,2.6155E0,1.0119E0,2.2981E0,6E-1,1.1108E0,2.2883287E-2,-2.5080636E-2,7.42609E-2,-3.991189E-3,-7.5939606E-5,5.4717254E-2,-1.6649825E-2,1.55948E-2,-9.330717E-3,3.6781024E-2,1.44215E-2,-1.1992124E-2,-3.234161E-3,-2.9083213E-2,-1.2024662E-2,2.185135E-3],"split_indices":[17,5,1,14,3,7,0,8,1,4,10,4,7,22,14,0,0,0,0,0,0,0,0,0,0,0,0,0,0,0,0],"split_type":[0,0,0,0,0,0,0,0,0,0,0,0,0,0,0,0,0,0,0,0,0,0,0,0,0,0,0,0,0,0,0],"sum_hessian":[6.5843066E2,1.4706224E2,5.1136847E2,1.0418667E1,1.3664357E2,3.4702335E2,1.6434511E2,4.042631E0,6.376035E0,1.9009935E1,1.1763364E2,9.279253E1,2.5423082E2,1.9593288E1,1.4475182E2,1.0405221E0,3.0021093E0,3.1145115E0,3.2615237E0,1.6200428E1,2.8095074E0,1.1212516E2,5.508476E0,8.640229E1,6.3902364E0,2.249774E2,2.9253408E1,7.149913E0,1.2443376E1,4.3837116E1,1.009147E2],"tree_param":{"num_deleted":"0","num_feature":"24","num_nodes":"31","size_leaf_vector":"1"}},{"base_weights":[1.841936E-2,-2.4042408E-1,4.453713E-1,-4.207986E-1,-7.349667E-2,3.4000584E-1,6.262981E-1,-6.659118E-1,-3.555272E-1,4.5847273E-1,-1.013516E-1,5.8950514E-1,2.1493964E-1,6.5555155E-1,1.38542E-1,-1.4726721E-2,-3.6151342E-2,-1.8878156E-2,1.0193913E-2,4.6455707E-2,1.5962182E-3,-1.144123E-2,8.900092E-4,3.29738E-2,-1.4907262E-2,-5.1826197E-3,1.6234009E-2,9.118086E-3,3.326259E-2,-2.3801005E-2,3.4911558E-2],"categories":[],"categories_nodes":[],"categories_segments":[],"categories_sizes":[],"default_left":[0,0,0,0,0,0,0,0,0,0,0,0,0,0,0,0,0,0,0,0,0,0,0,0,0,0,0,0,0,0,0],"id":26,"left_children":[1,3,5,7,9,11,13,15,17,19,21,23,25,27,29,-1,-1,-1,-1,-1,-1,-1,-1,-1,-1,-1,-1,-1,-1,-1,-1],"loss_changes":[9.2285385E1,1.5623697E1,5.7951965E0,3.7579308E0,4.0656776E0,6.156557E0,1.5472679E0,8.764801E-1,2.5340424E0,2.716006E0,3.9312778E0,4.336849E0,4.7781024E0,3.7459183E-1,3.0028422E0,0E0,0E0,0E0,0E0,0E0,0E0,0E0,0E0,0E0,0E0,0E0,0E0,0E0,0E0,0E0,0E0],"parents":[2147483647,0,0,1,1,2,2,3,3,4,4,5,5,6,6,7,7,8,8,9,9,10,10,11,11,12,12,13,13,14,14],"right_children":[2,4,6,8,10,12,14,16,18,20,22,24,26,28,30,-1,-1,-1,-1,-1,-1,-1,-1,-1,-1,-1,-1,-1,-1,-1,-1],"split_conditions":[2.1E1,-1.7E1,5.9E1,-7.7E1,3.953E-1,5.3E1,1E0,6E-1,2.6569E0,1.5E1,2E0,1.5891E0,7.079E-1,2.017E-1,1.4984E0,-1.4726721E-2,-3.6151342E-2,-1.8878156E-2,1.0193913E-2,4.6455707E-2,1.5962182E-3,-1.144123E-2,8.900092E-4,3.29738E-2,-1.4907262E-2,-5.1826197E-3,1.6234009E-2,9.118086E-3,3.326259E-2,-2.3801005E-2,3.4911558E-2],"split_indices":[2,2,2,2,14,1,23,22,4,1,2,5,8,14,14,0,0,0,0,0,0,0,0,0,0,0,0,0,0,0,0],"split_type":[0,0,0,0,0,0,0,0,0,0,0,0,0,0,0,0,0,0,0,0,0,0,0,0,0,0,0,0,0,0,0],"sum_hessian":[8.3308936E2,5.1892395E2,3.1416544E2,2.4868494E2,2.70239E2,2.003613E2,1.1380414E2,5.0361324E1,1.9832362E2,1.2676956E1,2.5756204E2,6.5660034E1,1.3470125E2,1.0704032E2,6.763813E0,7.5334826E0,4.2827843E1,1.9112013E2,7.20348E0,5.466814E0,7.2101426E0,1.239912E2,1.3357085E2,6.1100704E1,4.559332E0,3.4525215E1,1.0017604E2,2.5479488E0,1.0449238E2,3.295123E0,3.4686902E0],"tree_param":{"num_deleted":"0","num_feature":"24","num_nodes":"31","size_leaf_vector":"1"}},{"base_weights":[1.431268E-4,2.5997072E-1,-3.5256907E-1,8.49799E-1,1.6904454E-1,1.5698578E-2,-4.080993E-1,3.0349585E-1,8.896708E-1,5.7853945E-3,3.6108136E-1,2.3507759E-1,-4.491638E-1,4.7979158E-1,-4.2605972E-1,2.7832502E-2,-2.0455416E-2,4.567725E-2,2.3028783E-3,-5.839421E-3,1.7161377E-2,-2.1139966E-4,2.1640997E-2,-1.6258998E-2,2.3414513E-2,-3.0656848E-2,-5.1006004E-3,5.413248E-2,-1.4159572E-2,-1.75699E-2,-3.0536612E-2],"categories":[],"categories_nodes":[],"categories_segments":[],"categories_sizes":[],"default_left":[0,0,0,0,0,0,0,0,0,0,0,0,0,0,0,0,0,0,0,0,0,0,0,0,0,0,0,0,0,0,0],"id":27,"left_children":[1,3,5,7,9,11,13,15,17,19,21,23,25,27,29,-1,-1,-1,-1,-1,-1,-1,-1,-1,-1,-1,-1,-1,-1,-1,-1],"loss_changes":[6.893769E1,2.3086466E1,6.5316277E0,9.847641E-1,1.1803185E1,4.4675474E0,4.626648E0,1.2084017E0,1.0287933E0,8.500051E0,4.5357494E0,4.034842E0,7.376294E-1,3.0519743E0,3.5404205E0,0E0,0E0,0E0,0E0,0E0,0E0,0E0,0E0,0E0,0E0,0E0,0E0,0E0,0E0,0E0,0E0],"parents":[2147483647,0,0,1,1,2,2,3,3,4,4,5,5,6,6,7,7,8,8,9,9,10,10,11,11,12,12,13,13,14,14],"right_children":[2,4,6,8,10,12,14,16,18,20,22,24,26,28,30,-1,-1,-1,-1,-1,-1,-1,-1,-1,-1,-1,-1,-1,-1,-1,-1],"split_conditions":[8E0,-8E1,8.014E-1,6.439E-1,1.2164E0,1.0455E0,1.869E-1,4.993E-1,1E0,1.6548E0,1.02E0,4.988E-1,7.3E1,5.968E-1,5.7E1,2.7832502E-2,-2.0455416E-2,4.567725E-2,2.3028783E-3,-5.839421E-3,1.7161377E-2,-2.1139966E-4,2.1640997E-2,-1.6258998E-2,2.3414513E-2,-3.0656848E-2,-5.1006004E-3,5.413248E-2,-1.4159572E-2,-1.75699E-2,-3.0536612E-2],"split_indices":[2,2,4,5,5,9,11,5,23,3,19,10,0,5,2,0,0,0,0,0,0,0,0,0,0,0,0,0,0,0,0],"split_type":[0,0,0,0,0,0,0,0,0,0,0,0,0,0,0,0,0,0,0,0,0,0,0,0,0,0,0,0,0,0,0],"sum_hessian":[7.502304E2,4.321485E2,3.180819E2,5.660594E1,3.7554257E2,4.1772247E1,2.7630966E2,4.4361334E0,5.2169807E1,2.0353687E2,1.720057E2,2.8715204E1,1.3057044E1,4.9685946E0,2.7134106E2,3.4347734E0,1.0013598E0,5.0653427E1,1.5163801E0,1.49783E2,5.375387E1,2.8388077E1,1.4361763E2,8.32392E0,2.0391285E1,8.347844E0,4.7092004E0,2.5415015E0,2.4270933E0,1.952897E2,7.605135E1],"tree_param":{"num_deleted":"0","num_feature":"24","num_nodes":"31","size_leaf_vector":"1"}},{"base_weights":[-7.361164E-3,3.1196127E-2,-2.6742253E-1,9.823089E-2,-1.0237794E-1,-3.0950837E-2,-3.4717593E-1,-3.3094537E-1,1.3282847E-1,2.5383148E-1,-1.8128115E-1,-3.662458E-1,3.6468253E-1,-3.8322982E-1,2.6840147E-1,3.1129822E-2,-2.065346E-2,-8.165232E-4,1.1892617E-2,2.8457249E-2,-1.2630295E-3,3.3054065E-2,-1.03146015E-2,4.4245482E-3,-2.353368E-2,3.624974E-2,-2.2932839E-2,-2.2618024E-2,-3.8375284E-3,-1.6454844E-2,3.0323217E-2],"categories":[],"categories_nodes":[],"categories_segments":[],"categories_sizes":[],"default_left":[0,0,0,0,0,0,0,0,0,0,0,0,0,0,0,0,0,0,0,0,0,0,0,0,0,0,0,0,0,0,0],"id":28,"left_children":[1,3,5,7,9,11,13,15,17,19,21,23,25,27,29,-1,-1,-1,-1,-1,-1,-1,-1,-1,-1,-1,-1,-1,-1,-1,-1],"loss_changes":[6.397588E0,4.9868383E0,1.5428433E0,5.546692E0,5.27985E0,3.0352106E0,1.4678669E0,2.4445417E0,5.387405E0,3.0227273E0,3.360489E0,6.2757945E-1,3.457869E0,1.2049923E0,1.0057392E0,0E0,0E0,0E0,0E0,0E0,0E0,0E0,0E0,0E0,0E0,0E0,0E0,0E0,0E0,0E0,0E0],"parents":[2147483647,0,0,1,1,2,2,3,3,4,4,5,5,6,6,7,7,8,8,9,9,10,10,11,11,12,12,13,13,14,14],"right_children":[2,4,6,8,10,12,14,16,18,20,22,24,26,28,30,-1,-1,-1,-1,-1,-1,-1,-1,-1,-1,-1,-1,-1,-1,-1,-1],"split_conditions":[5.7E1,1.3467E0,7.079E-1,4.797E-1,8.809E-1,5.8E-1,2E0,8E0,7E-1,8.146E-1,1.497E-1,6.4E1,4E-1,2.2278E0,1.63E-1,3.1129822E-2,-2.065346E-2,-8.165232E-4,1.1892617E-2,2.8457249E-2,-1.2630295E-3,3.3054065E-2,-1.03146015E-2,4.4245482E-3,-2.353368E-2,3.624974E-2,-2.2932839E-2,-2.2618024E-2,-3.8375284E-3,-1.6454844E-2,3.0323217E-2],"split_indices":[2,8,8,8,13,5,8,1,22,4,9,2,15,7,12,0,0,0,0,0,0,0,0,0,0,0,0,0,0,0,0],"split_type":[0,0,0,0,0,0,0,0,0,0,0,0,0,0,0,0,0,0,0,0,0,0,0,0,0,0,0,0,0,0,0],"sum_hessian":[6.361874E2,5.5481006E2,8.137736E1,3.695928E2,1.8521725E2,2.0873821E1,6.050354E1,2.6932678E1,3.4266013E2,3.318522E1,1.5203203E2,1.1338687E1,9.535134E0,5.7512524E1,2.991018E0,1.6137851E0,2.5318892E1,1.4193007E2,2.0073006E2,1.5093531E1,1.8091688E1,3.6505437E0,1.4838148E2,2.1460779E0,9.192609E0,6.7156544E0,2.8194795E0,4.6539013E1,1.0973509E1,1.0903809E0,1.9006371E0],"tree_param":{"num_deleted":"0","num_feature":"24","num_nodes":"31","size_leaf_vector":"1"}},{"base_weights":[-4.374062E-4,-2.4478859E-1,4.100837E-1,-5.408066E-1,-1.2469178E-1,2.660559E-1,6.432242E-1,-3.484152E-2,-4.5984513E-1,1.10327505E-1,-1.8857005E-1,5.19552E-1,1.7348944E-1,6.6078836E-1,3.0664176E-2,-3.5800207E-3,-2.5495514E-2,-3.5930555E-2,1.09716905E-2,-2.092133E-3,-1.5899824E-2,3.0490462E-2,-2.4492694E-2,1.9860675E-3,1.7626898E-2,3.342117E-2,-3.3575017E-3,2.9031893E-2,-3.0693743E-2],"categories":[],"categories_nodes":[],"categories_segments":[],"categories_sizes":[],"default_left":[0,0,0,0,0,0,0,0,0,0,0,0,0,0,0,0,0,0,0,0,0,0,0,0,0,0,0,0,0],"id":29,"left_children":[1,3,5,7,9,11,13,-1,15,17,19,21,23,25,27,-1,-1,-1,-1,-1,-1,-1,-1,-1,-1,-1,-1,-1,-1],"loss_changes":[8.467631E1,1.8744762E1,1.0405178E1,1.6049805E0,5.6916566E0,4.518427E0,1.2662163E0,0E0,1.9712334E0,7.5159526E0,5.6340656E0,5.0392075E0,3.4676776E0,6.9065094E-1,1.9096283E0,0E0,0E0,0E0,0E0,0E0,0E0,0E0,0E0,0E0,0E0,0E0,0E0,0E0,0E0],"parents":[2147483647,0,0,1,1,2,2,3,3,4,4,5,5,6,6,8,8,9,9,10,10,11,11,12,12,13,13,14,14],"right_children":[2,4,6,8,10,12,14,-1,16,18,20,22,24,26,28,-1,-1,-1,-1,-1,-1,-1,-1,-1,-1,-1,-1,-1,-1],"split_conditions":[2.1E1,-3.9E1,5.9E1,-8E1,3.4E-1,4.9E1,8.5E-1,-3.484152E-2,5.146E-1,3.944E-1,1.0193E0,1.5891E0,9.2E1,4E0,2.0012E0,-3.5800207E-3,-2.5495514E-2,-3.5930555E-2,1.09716905E-2,-2.092133E-3,-1.5899824E-2,3.0490462E-2,-2.4492694E-2,1.9860675E-3,1.7626898E-2,3.342117E-2,-3.3575017E-3,2.9031893E-2,-3.0693743E-2],"split_indices":[2,2,2,2,17,1,22,0,14,5,5,5,1,20,4,0,0,0,0,0,0,0,0,0,0,0,0,0,0],"split_type":[0,0,0,0,0,0,0,0,0,0,0,0,0,0,0,0,0,0,0,0,0,0,0,0,0,0,0,0,0],"sum_hessian":[8.421344E2,5.281636E2,3.1397083E2,1.5142467E2,3.767389E2,1.9539954E2,1.1857129E2,4.9132576E1,1.0229209E2,8.035857E1,2.963803E2,5.1032574E1,1.4436696E2,1.1518968E2,3.3816051E0,1.1961704E1,9.033038E1,8.69694E0,7.166163E1,1.3952628E2,1.5685403E2,4.7207348E1,3.8252285E0,8.333144E1,6.103552E1,1.1407496E2,1.1147201E0,1.8781531E0,1.5034521E0],"tree_param":{"num_deleted":"0","num_feature":"24","num_nodes":"29","size_leaf_vector":"1"}},{"base_weights":[-1.64868E-2,-1.3554104E-1,2.4652947E-1,1.6779358E-2,-4.2970514E-1,4.2089924E-1,-1.1846387E-1,-1.5904693E-1,2.1566544E-1,3.5775714E-2,-4.8329645E-1,2.529977E-1,7.13174E-1,-2.6088378E-1,3.08495E-1,-1.8481981E-2,6.524867E-3,-9.440488E-3,1.5489829E-2,2.5578687E-2,-2.1674877E-2,-2.5302906E-2,2.0251796E-2,1.7267099E-2,-1.1752895E-2,1.4354736E-2,3.8936928E-2,-5.6766323E-3,-3.1166498E-2,3.37382E-2,-1.68068E-2],"categories":[],"categories_nodes":[],"categories_segments":[],"categories_sizes":[],"default_left":[0,0,0,0,0,0,0,0,0,0,0,0,0,0,0,0,0,0,0,0,0,0,0,0,0,0,0,0,0,0,0],"id":30,"left_children":[1,3,5,7,9,11,13,15,17,19,21,23,25,27,29,-1,-1,-1,-1,-1,-1,-1,-1,-1,-1,-1,-1,-1,-1,-1,-1],"loss_changes":[2.2989853E1,2.2649418E1,1.461144E1,1.1710359E1,4.3187313E0,7.4283943E0,4.6257215E0,1.0889521E1,6.039768E0,4.4046116E0,3.3329544E0,4.589336E0,1.3414497E0,2.9516864E0,4.7494884E0,0E0,0E0,0E0,0E0,0E0,0E0,0E0,0E0,0E0,0E0,0E0,0E0,0E0,0E0,0E0,0E0],"parents":[2147483647,0,0,1,1,2,2,3,3,4,4,5,5,6,6,7,7,8,8,9,9,10,10,11,11,12,12,13,13,14,14],"right_children":[2,4,6,8,10,12,14,16,18,20,22,24,26,28,30,-1,-1,-1,-1,-1,-1,-1,-1,-1,-1,-1,-1,-1,-1,-1,-1],"split_conditions":[7.9E1,5.7E1,1.24E2,1.0138E0,7.992E-1,1.32E2,1.79E2,2.5E1,1.02E0,8.918E-1,2.2389E0,8.8E1,7.79E-1,1.79E2,1.93E2,-1.8481981E-2,6.524867E-3,-9.440488E-3,1.5489829E-2,2.5578687E-2,-2.1674877E-2,-2.5302906E-2,2.0251796E-2,1.7267099E-2,-1.1752895E-2,1.4354736E-2,3.8936928E-2,-5.6766323E-3,-3.1166498E-2,3.37382E-2,-1.68068E-2],"split_indices":[0,1,1,5,4,0,0,0,19,9,5,1,13,1,1,0,0,0,0,0,0,0,0,0,0,0,0,0,0,0,0],"split_type":[0,0,0,0,0,0,0,0,0,0,0,0,0,0,0,0,0,0,0,0,0,0,0,0,0,0,0,0,0,0,0],"sum_hessian":[7.3212335E2,5.0432532E2,2.2779803E2,3.328935E2,1.7143181E2,1.5404994E2,7.3748085E1,1.767962E2,1.5609729E2,1.7733694E1,1.536981E2,9.902766E1,5.502229E1,5.5593E1,1.8155087E1,1.0219248E2,7.460373E1,2.927948E1,1.2681782E2,8.760871E0,8.972822E0,1.5027788E2,3.4202297E0,8.351779E1,1.5509866E1,8.054958E0,4.696733E1,4.0458134E1,1.5134864E1,1.1547333E1,6.6077547E0],"tree_param":{"num_deleted":"0","num_feature":"24","num_nodes":"31","size_leaf_vector":"1"}},{"base_weights":[2.7089324E-2,9.984189E-2,-1.08814344E-1,-1.7808402E-1,1.7539613E-1,-4.1856432E-1,-6.0348332E-2,-2.3306131E-1,8.203323E-1,3.5444546E-1,8.410889E-2,-4.715403E-1,6.2940675E-3,-3.0882725E-1,-1.1651057E-2,1.1718449E-2,-1.666348E-2,5.56255E-2,-1.96609E-3,-9.601476E-3,2.2246925E-2,7.358079E-3,-2.0923657E-2,-8.435351E-3,-2.6813691E-2,3.6692467E-2,-2.2111854E-2,-2.667637E-2,-1.389895E-3,7.810624E-3,-6.136382E-3],"categories":[],"categories_nodes":[],"categories_segments":[],"categories_sizes":[],"default_left":[0,0,0,0,0,0,0,0,0,0,0,0,0,0,0,0,0,0,0,0,0,0,0,0,0,0,0,0,0,0,0],"id":31,"left_children":[1,3,5,7,9,11,13,15,17,19,21,23,25,27,29,-1,-1,-1,-1,-1,-1,-1,-1,-1,-1,-1,-1,-1,-1,-1,-1],"loss_changes":[6.4961905E0,9.013169E0,3.4152722E0,5.236888E0,5.475461E0,6.9707537E-1,2.408476E0,4.195598E0,1.3043251E0,5.6945915E0,7.1724005E0,4.4731474E-1,1.7623093E0,2.0454226E0,3.146333E0,0E0,0E0,0E0,0E0,0E0,0E0,0E0,0E0,0E0,0E0,0E0,0E0,0E0,0E0,0E0,0E0],"parents":[2147483647,0,0,1,1,2,2,3,3,4,4,5,5,6,6,7,7,8,8,9,9,10,10,11,11,12,12,13,13,14,14],"right_children":[2,4,6,8,10,12,14,16,18,20,22,24,26,28,30,-1,-1,-1,-1,-1,-1,-1,-1,-1,-1,-1,-1,-1,-1,-1,-1],"split_conditions":[6.9E1,9.997E-1,2.1E1,1.1383E0,7.864E-1,3.6667E0,9.01E-1,3.083E-1,1.2024E0,5E0,2.2014E0,1.2164E0,1.6369E0,8.6E1,1.02E2,1.1718449E-2,-1.666348E-2,5.56255E-2,-1.96609E-3,-9.601476E-3,2.2246925E-2,7.358079E-3,-2.0923657E-2,-8.435351E-3,-2.6813691E-2,3.6692467E-2,-2.2111854E-2,-2.667637E-2,-1.389895E-3,7.810624E-3,-6.136382E-3],"split_indices":[1,7,0,4,5,18,14,7,12,0,7,14,3,0,1,0,0,0,0,0,0,0,0,0,0,0,0,0,0,0,0],"split_type":[0,0,0,0,0,0,0,0,0,0,0,0,0,0,0,0,0,0,0,0,0,0,0,0,0,0,0,0,0,0,0],"sum_hessian":[6.5492224E2,4.267421E2,2.2818016E2,9.092348E1,3.358186E2,2.9839214E1,1.9834094E2,8.6904686E1,4.018794E0,1.1242577E2,2.2339284E2,2.643334E1,3.4058738E0,3.1626131E1,1.6671481E2,1.5105403E1,7.1799286E1,2.7798476E0,1.2389463E0,1.5812744E1,9.661303E1,1.9911905E2,2.4273788E1,5.290369E0,2.1142971E1,1.0563189E0,2.349555E0,1.7075085E1,1.4551047E1,6.622559E1,1.0048921E2],"tree_param":{"num_deleted":"0","num_feature":"24","num_nodes":"31","size_leaf_vector":"1"}},{"base_weights":[-3.8390295E-3,-2.3450875E-1,3.9915112E-1,-4.0503097E-1,-7.3497705E-2,2.7614143E-1,5.976151E-1,-4.2679313E-1,1.7022994E-1,5.3699476E-1,-1.01418935E-1,2.3958625E-2,3.4006715E-1,5.2363694E-1,7.7502334E-1,-1.2488923E-2,-2.653179E-2,-3.0313939E-2,2.66148E-2,3.7198056E-2,-2.832079E-2,6.802339E-3,-9.28872E-3,-3.1478282E-2,9.858505E-3,1.9382589E-2,-7.12422E-3,2.3128023E-2,4.056823E-2,3.973895E-2,1.3464706E-2],"categories":[],"categories_nodes":[],"categories_segments":[],"categories_sizes":[],"default_left":[0,0,0,0,0,0,0,0,0,0,0,0,0,0,0,0,0,0,0,0,0,0,0,0,0,0,0,0,0,0,0],"id":32,"left_children":[1,3,5,7,9,11,13,15,17,19,21,23,25,27,29,-1,-1,-1,-1,-1,-1,-1,-1,-1,-1,-1,-1,-1,-1,-1,-1],"loss_changes":[7.899159E1,1.4807785E1,7.3868675E0,3.3555298E0,4.81328E0,3.1004877E0,1.1363792E0,4.517269E0,3.2111034E0,3.2460577E0,5.3899384E0,4.660154E0,3.5858803E0,1.1361866E0,1.106472E-1,0E0,0E0,0E0,0E0,0E0,0E0,0E0,0E0,0E0,0E0,0E0,0E0,0E0,0E0,0E0,0E0],"parents":[2147483647,0,0,1,1,2,2,3,3,4,4,5,5,6,6,7,7,8,8,9,9,10,10,11,11,12,12,13,13,14,14],"right_children":[2,4,6,8,10,12,14,16,18,20,22,24,26,28,30,-1,-1,-1,-1,-1,-1,-1,-1,-1,-1,-1,-1,-1,-1,-1,-1],"split_conditions":[2.1E1,-1.7E1,5.7E1,6.667E-1,3.953E-1,8.337E-1,9.9E1,1.9E1,9.767E-1,1.4E1,1.0791E0,3.8E-1,2.0006E0,1.2762E0,7.8E1,-1.2488923E-2,-2.653179E-2,-3.0313939E-2,2.66148E-2,3.7198056E-2,-2.832079E-2,6.802339E-3,-9.28872E-3,-3.1478282E-2,9.858505E-3,1.9382589E-2,-7.12422E-3,2.3128023E-2,4.056823E-2,3.973895E-2,1.3464706E-2],"split_indices":[2,2,2,15,14,14,2,1,7,2,13,15,13,12,0,0,0,0,0,0,0,0,0,0,0,0,0,0,0,0,0],"split_type":[0,0,0,0,0,0,0,0,0,0,0,0,0,0,0,0,0,0,0,0,0,0,0,0,0,0,0,0,0,0,0],"sum_hessian":[8.4775226E2,5.3941284E2,3.083394E2,2.6123294E2,2.7817993E2,1.918318E2,1.1650759E2,2.5195938E2,9.273555E0,1.1368885E1,2.6681104E2,3.907161E1,1.527602E2,8.501037E1,3.1497223E1,9.441714E1,1.5754225E2,2.7344944E0,6.53906E0,9.847548E0,1.5213385E0,6.9775635E1,1.9703542E2,7.6339955E0,3.1437614E1,1.3922757E2,1.3532627E1,7.227588E1,1.2734491E1,2.9763021E1,1.734201E0],"tree_param":{"num_deleted":"0","num_feature":"24","num_nodes":"31","size_leaf_vector":"1"}},{"base_weights":[-1.7134015E-2,2.2834843E-1,-3.6676237E-1,6.4497167E-1,1.3839625E-1,-1.0827873E-1,-4.3808886E-1,8.6815834E-1,4.7683457E-1,-2.897317E-1,1.6988096E-1,5.3988237E-2,-1.7468973E-1,-3.5754776E-1,-5.749137E-1,4.4754993E-2,6.7218863E-3,3.6774717E-2,1.7016506E-2,-2.3997976E-2,2.2087805E-2,1.3285526E-3,1.34263905E-2,-2.2933554E-2,-1.0487819E-3,-3.1321335E-3,-2.072548E-2,1.1668794E-2,-2.9745946E-2],"categories":[],"categories_nodes":[],"categories_segments":[],"categories_sizes":[],"default_left":[0,0,0,0,0,0,0,0,0,0,0,0,0,0,0,0,0,0,0,0,0,0,0,0,0,0,0,0,0],"id":33,"left_children":[1,3,5,7,9,11,13,15,17,19,21,-1,23,25,27,-1,-1,-1,-1,-1,-1,-1,-1,-1,-1,-1,-1,-1,-1],"loss_changes":[6.2981247E1,1.6068882E1,5.5329475E0,2.448782E0,4.8461742E0,5.458055E0,2.404976E0,5.0351334E-1,1.3642616E0,3.6556547E0,4.6881113E0,0E0,2.7889895E0,2.523344E0,1.5315781E0,0E0,0E0,0E0,0E0,0E0,0E0,0E0,0E0,0E0,0E0,0E0,0E0,0E0,0E0],"parents":[2147483647,0,0,1,1,2,2,3,3,4,4,5,5,6,6,7,7,8,8,9,9,10,10,12,12,13,13,14,14],"right_children":[2,4,6,8,10,12,14,16,18,20,22,-1,24,26,28,-1,-1,-1,-1,-1,-1,-1,-1,-1,-1,-1,-1,-1,-1],"split_conditions":[9E0,-6.8E1,2.1E1,-9.9E1,4.303E-1,2.155E-1,5.7E1,2.0289E0,1.07E2,6.6E1,1.0234E0,5.3988237E-2,9.968E-1,7.62E-1,1.869E-1,4.4754993E-2,6.7218863E-3,3.6774717E-2,1.7016506E-2,-2.3997976E-2,2.2087805E-2,1.3285526E-3,1.34263905E-2,-2.2933554E-2,-1.0487819E-3,-3.1321335E-3,-2.072548E-2,1.1668794E-2,-2.9745946E-2],"split_indices":[2,2,2,2,14,11,2,11,0,1,5,0,11,6,11,0,0,0,0,0,0,0,0,0,0,0,0,0,0],"split_type":[0,0,0,0,0,0,0,0,0,0,0,0,0,0,0,0,0,0,0,0,0,0,0,0,0,0,0,0,0],"sum_hessian":[7.3183514E2,4.3015787E2,3.0167728E2,7.5287155E1,3.5487073E2,6.578693E1,2.3589035E2,3.0559208E1,4.4727943E1,2.3747726E1,3.31123E2,2.674965E0,6.311196E1,1.507597E2,8.513066E1,2.9264688E1,1.2945182E0,1.3934901E1,3.0793043E1,1.9119455E1,4.62827E0,1.3551785E2,1.9560515E2,2.1467533E1,4.164443E1,2.4745588E1,1.2601411E2,1.798503E0,8.333215E1],"tree_param":{"num_deleted":"0","num_feature":"24","num_nodes":"29","size_leaf_vector":"1"}},{"base_weights":[9.326992E-3,6.304581E-2,-1.6535665E-1,1.093521E-1,-1.9248769E-1,-3.1960383E-1,-5.8302727E-2,1.4137058E-1,-2.1446618E-1,-3.503828E-1,1.9840615E-2,-9.432026E-2,-4.6704492E-1,-1.8089679E-1,2.3566182E-1,6.033868E-3,3.7346456E-2,-3.094082E-2,-9.367424E-4,-2.4279827E-2,-6.0475565E-4,1.3650921E-2,-1.2335722E-2,6.9135563E-3,-2.8653918E-2,-2.6548306E-2,1.6867869E-2,-1.4594226E-2,4.366392E-3,1.8903574E-2,-1.2029954E-2],"categories":[],"categories_nodes":[],"categories_segments":[],"categories_sizes":[],"default_left":[0,0,0,0,0,0,0,0,0,0,0,0,0,0,0,0,0,0,0,0,0,0,0,0,0,0,0,0,0,0,0],"id":34,"left_children":[1,3,5,7,9,11,13,15,17,19,21,23,25,27,29,-1,-1,-1,-1,-1,-1,-1,-1,-1,-1,-1,-1,-1,-1,-1,-1],"loss_changes":[6.0707574E0,5.8742466E0,2.4941301E0,4.3788214E0,2.5632637E0,2.019353E0,3.3239305E0,4.7001047E0,3.0066447E0,1.9968462E0,2.325823E0,2.9551537E0,2.0967283E0,1.9551508E0,1.9378536E0,0E0,0E0,0E0,0E0,0E0,0E0,0E0,0E0,0E0,0E0,0E0,0E0,0E0,0E0,0E0,0E0],"parents":[2147483647,0,0,1,1,2,2,3,3,4,4,5,5,6,6,7,7,8,8,9,9,10,10,11,11,12,12,13,13,14,14],"right_children":[2,4,6,8,10,12,14,16,18,20,22,24,26,28,30,-1,-1,-1,-1,-1,-1,-1,-1,-1,-1,-1,-1,-1,-1,-1,-1],"split_conditions":[1.6067E0,1.824E0,2E0,2.501E0,5.6E1,5.98E-1,1.7322E0,1.5836E0,1.7E1,1.5794E0,8.128E-1,1.6693E0,1.554E0,1.9488E0,1.79E2,6.033868E-3,3.7346456E-2,-3.094082E-2,-9.367424E-4,-2.4279827E-2,-6.0475565E-4,1.3650921E-2,-1.2335722E-2,6.9135563E-3,-2.8653918E-2,-2.6548306E-2,1.6867869E-2,-1.4594226E-2,4.366392E-3,1.8903574E-2,-1.2029954E-2],"split_indices":[5,11,5,7,0,3,11,5,1,6,10,10,6,10,0,0,0,0,0,0,0,0,0,0,0,0,0,0,0,0,0],"split_type":[0,0,0,0,0,0,0,0,0,0,0,0,0,0,0,0,0,0,0,0,0,0,0,0,0,0,0,0,0,0,0],"sum_hessian":[6.4482935E2,4.9365836E2,1.51171E2,4.1840878E2,7.524955E1,6.1120678E1,9.005033E1,3.8127277E2,3.7136036E1,4.278377E1,3.2465775E1,2.482653E1,3.6294144E1,6.3819763E1,2.6230566E1,3.6983405E2,1.1438731E1,1.1407785E1,2.572825E1,3.0255272E1,1.25285E1,1.6638264E1,1.582751E1,1.71876E1,7.638932E0,3.393727E1,2.3568728E0,4.5078625E1,1.8741137E1,2.0351353E1,5.879214E0],"tree_param":{"num_deleted":"0","num_feature":"24","num_nodes":"31","size_leaf_vector":"1"}},{"base_weights":[-2.2556E-3,-2.956476E-1,2.7332398E-1,1.5224717E-2,-3.5227564E-1,1.6373709E-1,5.56471E-1,8.886504E-2,-3.437874E-2,-6.4963126E-1,-3.022898E-1,2.3486269E-1,-2.4948105E-1,4.6982437E-1,7.333691E-1,6.655025E-4,3.9096344E-2,-3.4231525E-2,-1.1085793E-2,-6.172503E-3,-2.046273E-2,7.7168234E-3,2.7277082E-2,4.011074E-2,-1.7107641E-2,3.2025743E-2,1.6886914E-2,1.2513407E-2,3.7968744E-2],"categories":[],"categories_nodes":[],"categories_segments":[],"categories_sizes":[],"default_left":[0,0,0,0,0,0,0,0,0,0,0,0,0,0,0,0,0,0,0,0,0,0,0,0,0,0,0,0,0],"id":35,"left_children":[1,3,5,7,9,11,13,15,-1,17,19,21,23,25,27,-1,-1,-1,-1,-1,-1,-1,-1,-1,-1,-1,-1,-1,-1],"loss_changes":[6.956162E1,7.341053E0,1.3674854E1,3.433846E0,5.043545E0,9.500828E0,1.5465088E0,3.1248012E0,0E0,5.9498787E-1,5.7585926E0,6.7858515E0,4.9198484E0,1.7135067E0,2.9716492E-1,0E0,0E0,0E0,0E0,0E0,0E0,0E0,0E0,0E0,0E0,0E0,0E0,0E0,0E0],"parents":[2147483647,0,0,1,1,2,2,3,3,4,4,5,5,6,6,7,7,9,9,10,10,11,11,12,12,13,13,14,14],"right_children":[2,4,6,8,10,12,14,16,-1,18,20,22,24,26,28,-1,-1,-1,-1,-1,-1,-1,-1,-1,-1,-1,-1,-1,-1],"split_conditions":[4E0,3.4E-1,5.7E1,1.9458E0,-7.7E1,1.9861E0,9.5E1,2.1196E0,-3.437874E-2,4.5E0,1.0071E0,1.3212E0,3E0,7E1,4.121E-1,6.655025E-4,3.9096344E-2,-3.4231525E-2,-1.1085793E-2,-6.172503E-3,-2.046273E-2,7.7168234E-3,2.7277082E-2,4.011074E-2,-1.7107641E-2,3.2025743E-2,1.6886914E-2,1.2513407E-2,3.7968744E-2],"split_indices":[2,17,2,9,2,13,2,13,0,19,4,12,0,2,8,0,0,0,0,0,0,0,0,0,0,0,0,0,0],"split_type":[0,0,0,0,0,0,0,0,0,0,0,0,0,0,0,0,0,0,0,0,0,0,0,0,0,0,0,0,0],"sum_hessian":[8.58349E2,4.1570337E2,4.4264563E2,6.416829E1,3.5153506E2,3.2026944E2,1.223762E2,5.8873043E1,5.295244E0,4.8862926E1,3.0267215E2,2.736063E2,4.6663143E1,8.459605E1,3.7780155E1,5.4004845E1,4.8682E0,4.461403E1,4.2488985E0,1.1408383E2,1.8858832E2,2.1847546E2,5.5130833E1,3.1587858E0,4.3504356E1,3.5225754E1,4.9370296E1,2.4725177E0,3.5307636E1],"tree_param":{"num_deleted":"0","num_feature":"24","num_nodes":"29","size_leaf_vector":"1"}},{"base_weights":[-7.5789583E-3,2.7802086E-1,-3.2708523E-1,4.8315948E-1,1.1007164E-1,-1.9649261E-1,-5.0037915E-1,8.320262E-1,4.0553713E-1,5.6622416E-2,6.300571E-1,7.8475505E-1,-2.268076E-1,-1.7325768E-1,-5.278375E-1,5.6026704E-3,4.3008905E-2,1.7633602E-2,4.4663306E-2,8.922047E-3,-9.0191625E-3,-5.445737E-3,4.1202467E-2,1.0265363E-3,5.346852E-2,-1.5004898E-2,1.5970331E-3,-2.8292155E-2,1.8401612E-2,-8.322261E-3,-2.733154E-2],"categories":[],"categories_nodes":[],"categories_segments":[],"categories_sizes":[],"default_left":[0,0,0,0,0,0,0,0,0,0,0,0,0,0,0,0,0,0,0,0,0,0,0,0,0,0,0,0,0,0,0],"id":36,"left_children":[1,3,5,7,9,11,13,15,17,19,21,23,25,27,29,-1,-1,-1,-1,-1,-1,-1,-1,-1,-1,-1,-1,-1,-1,-1,-1],"loss_changes":[6.645077E1,1.3194878E1,7.6798515E0,4.342079E0,5.876505E0,6.0571666E0,1.2294159E0,5.218048E-1,3.3798885E0,5.633131E0,2.917994E0,1.3151362E0,3.6600199E0,2.9445088E0,8.271065E-1,0E0,0E0,0E0,0E0,0E0,0E0,0E0,0E0,0E0,0E0,0E0,0E0,0E0,0E0,0E0,0E0],"parents":[2147483647,0,0,1,1,2,2,3,3,4,4,5,5,6,6,7,7,8,8,9,9,10,10,11,11,12,12,13,13,14,14],"right_children":[2,4,6,8,10,12,14,16,18,20,22,24,26,28,30,-1,-1,-1,-1,-1,-1,-1,-1,-1,-1,-1,-1,-1,-1,-1,-1],"split_conditions":[2E0,-3.5E1,3.8E1,-9.9E1,1.7955E0,2.999E-1,5.2E1,5.542E-1,1.9038E0,1.3507E0,4.405E-1,6E-1,1.6031E0,4.4E1,4.975E-1,5.6026704E-3,4.3008905E-2,1.7633602E-2,4.4663306E-2,8.922047E-3,-9.0191625E-3,-5.445737E-3,4.1202467E-2,1.0265363E-3,5.346852E-2,-1.5004898E-2,1.5970331E-3,-2.8292155E-2,1.8401612E-2,-8.322261E-3,-2.733154E-2],"split_indices":[2,2,2,2,12,8,1,9,7,9,3,22,5,2,6,0,0,0,0,0,0,0,0,0,0,0,0,0,0,0,0],"split_type":[0,0,0,0,0,0,0,0,0,0,0,0,0,0,0,0,0,0,0,0,0,0,0,0,0,0,0,0,0,0,0],"sum_hessian":[7.2622363E2,3.8352695E2,3.426967E2,1.718036E2,2.1172334E2,1.9664261E2,1.4605406E2,2.9499933E1,1.4230367E2,1.9299437E2,1.8728968E1,5.1472626E0,1.9149535E2,1.1876367E1,1.341777E2,1.2974893E0,2.8202444E1,1.2994228E2,1.2361392E1,1.2763723E2,6.535715E1,3.9855266E0,1.4743441E1,1.687709E0,3.4595535E0,1.4910234E2,4.2393005E1,6.8574505E0,5.018916E0,7.1198907E0,1.2705781E2],"tree_param":{"num_deleted":"0","num_feature":"24","num_nodes":"31","size_leaf_vector":"1"}},{"base_weights":[7.69392E-3,4.354494E-2,-2.8554547E-1,1.0463295E-1,-1.4338985E-1,-4.0082416E-1,1.1202967E-2,1.3472806E-1,-1.775097E-1,-4.113343E-1,-7.226692E-2,-4.260222E-1,1.1987529E-2,-4.1357687E-1,6.9614154E-1,4.1281683E-3,2.0691963E-2,-1.2182502E-2,3.7588075E-2,-2.2768116E-2,1.4344123E-2,-1.684017E-2,1.4873229E-3,-2.4946421E-2,-1.155224E-2,-2.8479272E-2,3.708553E-2,5.0785165E-2,-1.9405214E-2],"categories":[],"categories_nodes":[],"categories_segments":[],"categories_sizes":[],"default_left":[0,0,0,0,0,0,0,0,0,0,0,0,0,0,0,0,0,0,0,0,0,0,0,0,0,0,0,0,0],"id":37,"left_children":[1,3,5,7,9,11,13,15,17,19,21,23,-1,25,27,-1,-1,-1,-1,-1,-1,-1,-1,-1,-1,-1,-1,-1,-1],"loss_changes":[6.836158E0,6.6295767E0,2.4279351E0,3.7357926E0,2.697096E0,9.261379E-1,6.3377404E0,5.725412E0,2.7993803E0,1.046751E0,3.094189E0,5.8804893E-1,0E0,2.8486896E0,3.2811217E0,0E0,0E0,0E0,0E0,0E0,0E0,0E0,0E0,0E0,0E0,0E0,0E0,0E0,0E0],"parents":[2147483647,0,0,1,1,2,2,3,3,4,4,5,5,6,6,7,7,8,8,9,9,10,10,11,11,13,13,14,14],"right_children":[2,4,6,8,10,12,14,16,18,20,22,24,-1,26,28,-1,-1,-1,-1,-1,-1,-1,-1,-1,-1,-1,-1,-1,-1],"split_conditions":[5.9E1,1.6067E0,2.1247E0,1.8314E0,-7.1E1,3.5E0,2.1E1,1.5478E0,1.3333E0,2.1751E0,1.8188E0,5.6E1,1.1987529E-2,1.1474E0,4E-1,4.1281683E-3,2.0691963E-2,-1.2182502E-2,3.7588075E-2,-2.2768116E-2,1.4344123E-2,-1.684017E-2,1.4873229E-3,-2.4946421E-2,-1.155224E-2,-2.8479272E-2,3.708553E-2,5.0785165E-2,-1.9405214E-2],"split_indices":[2,5,7,6,2,18,0,6,19,11,5,0,0,8,15,0,0,0,0,0,0,0,0,0,0,0,0,0,0],"split_type":[0,0,0,0,0,0,0,0,0,0,0,0,0,0,0,0,0,0,0,0,0,0,0,0,0,0,0,0,0],"sum_hessian":[6.4807904E2,5.782362E2,6.984281E1,4.3614847E2,1.4208772E2,5.00493E1,1.9793512E1,3.9458234E2,4.1566147E1,2.8801014E1,1.1328671E2,4.8477306E1,1.5719949E0,1.2461452E1,7.3320613E0,3.3354077E2,6.1041546E1,3.9493057E1,2.0730898E0,2.7419804E1,1.3812118E0,3.0887943E1,8.2398766E1,3.4149258E1,1.4328048E1,1.1425536E1,1.0359151E0,5.711822E0,1.6202395E0],"tree_param":{"num_deleted":"0","num_feature":"24","num_nodes":"29","size_leaf_vector":"1"}},{"base_weights":[2.6683086E-3,-2.2256725E-1,3.8156053E-1,-3.8921055E-1,-6.590897E-2,2.8085274E-1,5.463182E-1,-4.8767563E-2,-4.3181425E-1,8.875587E-2,-1.4939305E-1,-3.8574082E-1,3.1011888E-1,-9.460773E-3,5.6154156E-1,1.4150574E-2,-3.0145695E-2,-2.2525249E-2,2.3978227E-3,-1.57776E-3,2.9366016E-2,2.7352098E-2,-9.526345E-3,-3.131625E-2,5.0614863E-3,1.8851927E-2,-1.7383759E-3,-2.9957866E-2,2.8128225E-2,2.5271744E-2,3.617251E-2],"categories":[],"categories_nodes":[],"categories_segments":[],"categories_sizes":[],"default_left":[0,0,0,0,0,0,0,0,0,0,0,0,0,0,0,0,0,0,0,0,0,0,0,0,0,0,0,0,0,0,0],"id":38,"left_children":[1,3,5,7,9,11,13,15,17,19,21,23,25,27,29,-1,-1,-1,-1,-1,-1,-1,-1,-1,-1,-1,-1,-1,-1,-1,-1],"loss_changes":[7.0390015E1,1.3479292E1,4.948929E0,3.6116905E0,3.4717233E0,3.8830652E0,9.8339844E-1,5.499579E0,2.0166245E0,5.6882563E0,5.0981307E0,1.066159E0,4.290985E0,1.7084291E0,6.566353E-1,0E0,0E0,0E0,0E0,0E0,0E0,0E0,0E0,0E0,0E0,0E0,0E0,0E0,0E0,0E0,0E0],"parents":[2147483647,0,0,1,1,2,2,3,3,4,4,5,5,6,6,7,7,8,8,9,9,10,10,11,11,12,12,13,13,14,14],"right_children":[2,4,6,8,10,12,14,16,18,20,22,24,26,28,30,-1,-1,-1,-1,-1,-1,-1,-1,-1,-1,-1,-1,-1,-1,-1,-1],"split_conditions":[2.1E1,-1.7E1,5.7E1,3.4E-1,1.1993E0,4.771E-1,1.943E-1,1.3507E0,9E-1,1.2039E0,3.953E-1,3.7E1,2.1894E0,1.1307E0,1.0938E0,1.4150574E-2,-3.0145695E-2,-2.2525249E-2,2.3978227E-3,-1.57776E-3,2.9366016E-2,2.7352098E-2,-9.526345E-3,-3.131625E-2,5.0614863E-3,1.8851927E-2,-1.7383759E-3,-2.9957866E-2,2.8128225E-2,2.5271744E-2,3.617251E-2],"split_indices":[2,2,2,17,4,7,11,9,22,6,14,2,7,8,9,0,0,0,0,0,0,0,0,0,0,0,0,0,0,0,0],"split_type":[0,0,0,0,0,0,0,0,0,0,0,0,0,0,0,0,0,0,0,0,0,0,0,0,0,0,0,0,0,0,0],"sum_hessian":[8.228235E2,5.1631085E2,3.065126E2,2.4946312E2,2.6684775E2,1.9191159E2,1.14601E2,2.798465E1,2.2147847E2,9.352244E1,1.7332532E2,7.559049E0,1.8435254E2,3.0654542E0,1.11535545E2,1.7810446E1,1.0174203E1,2.1323244E2,8.246029E0,7.609604E1,1.7426405E1,8.98035E0,1.6434497E2,4.867922E0,2.6911273E0,1.5431665E2,3.0035894E1,1.4860573E0,1.579397E0,8.5892624E1,2.5642918E1],"tree_param":{"num_deleted":"0","num_feature":"24","num_nodes":"31","size_leaf_vector":"1"}},{"base_weights":[-8.376241E-3,2.5413582E-1,-3.0020362E-1,7.2944844E-1,1.7115748E-1,-1.5676074E-1,-5.063514E-1,3.8476314E-2,7.995788E-1,-1.3118534E-1,2.3572353E-1,-1.725824E-1,4.558527E-2,1.3979888E-1,-5.277862E-1,1.7526409E-2,-2.5880227E-2,4.1399777E-2,-8.7222755E-3,-2.1175547E-2,4.4723074E-3,2.7447963E-2,8.9251185E-3,-2.0548706E-3,-1.3489661E-2,3.542107E-2,-2.248903E-2,-9.526976E-3,-2.8222406E-2],"categories":[],"categories_nodes":[],"categories_segments":[],"categories_sizes":[],"default_left":[0,0,0,0,0,0,0,0,0,0,0,0,0,0,0,0,0,0,0,0,0,0,0,0,0,0,0,0,0],"id":39,"left_children":[1,3,5,7,9,11,13,15,17,19,21,23,-1,25,27,-1,-1,-1,-1,-1,-1,-1,-1,-1,-1,-1,-1,-1,-1],"loss_changes":[5.4433495E1,1.4629E1,9.870218E0,2.648592E0,6.273473E0,3.5359535E0,1.9797096E0,1.2478133E0,1.5324364E0,3.708747E0,4.631522E0,2.516943E0,0E0,2.0649424E0,1.541851E0,0E0,0E0,0E0,0E0,0E0,0E0,0E0,0E0,0E0,0E0,0E0,0E0,0E0,0E0],"parents":[2147483647,0,0,1,1,2,2,3,3,4,4,5,5,6,6,7,7,8,8,9,9,10,10,11,11,13,13,14,14],"right_children":[2,4,6,8,10,12,14,16,18,20,22,24,-1,26,28,-1,-1,-1,-1,-1,-1,-1,-1,-1,-1,-1,-1,-1,-1],"split_conditions":[1E0,-7.9E1,3.8E1,8.445E-1,1.0008E0,4E0,3.97E-1,1.1524E0,1E0,4.9E1,8.993E-1,1.0666E0,4.558527E-2,7.833E-1,4.927E-1,1.7526409E-2,-2.5880227E-2,4.1399777E-2,-8.7222755E-3,-2.1175547E-2,4.4723074E-3,2.7447963E-2,8.9251185E-3,-2.0548706E-3,-1.3489661E-2,3.542107E-2,-2.248903E-2,-9.526976E-3,-2.8222406E-2],"split_indices":[2,2,2,5,13,11,11,7,23,1,9,3,0,5,8,0,0,0,0,0,0,0,0,0,0,0,0,0,0],"split_type":[0,0,0,0,0,0,0,0,0,0,0,0,0,0,0,0,0,0,0,0,0,0,0,0,0,0,0,0,0],"sum_hessian":[7.0854816E2,3.7307727E2,3.354709E2,5.429222E1,3.1878503E2,1.9885968E2,1.3661119E2,5.1453495E0,4.914687E1,5.5915977E1,2.6286905E2,1.9678421E2,2.075469E0,4.2090015E0,1.3240219E2,3.5326204E0,1.6127294E0,4.789935E1,1.247521E0,2.3654896E1,3.226108E1,3.9275642E1,2.2359341E2,8.425105E1,1.1253316E2,2.0399716E0,2.1690302E0,1.3589749E1,1.1881245E2],"tree_param":{"num_deleted":"0","num_feature":"24","num_nodes":"29","size_leaf_vector":"1"}},{"base_weights":[1.6190758E-4,3.5508547E-2,-1.5650105E-1,-1.05735764E-1,9.928292E-2,7.74541E-2,-3.108889E-1,-4.707719E-1,-9.499895E-3,1.6312395E-1,-8.771713E-2,-8.897467E-3,6.10809E-1,-3.9118877E-1,-6.443233E-4,-2.6919087E-2,1.3384162E-2,4.364246E-3,-1.3133064E-2,2.3489019E-2,4.9554682E-3,-1.7132822E-2,2.6858286E-3,1.0065294E-2,-1.4903173E-2,-2.1833172E-2,5.8510672E-2,9.243075E-3,-2.0867141E-2,2.5782788E-2,-1.6642032E-2],"categories":[],"categories_nodes":[],"categories_segments":[],"categories_sizes":[],"default_left":[0,0,0,0,0,0,0,0,0,0,0,0,0,0,0,0,0,0,0,0,0,0,0,0,0,0,0,0,0,0,0],"id":40,"left_children":[1,3,5,7,9,11,13,15,17,19,21,23,25,27,29,-1,-1,-1,-1,-1,-1,-1,-1,-1,-1,-1,-1,-1,-1,-1,-1],"loss_changes":[3.547285E0,4.7185264E0,4.2835264E0,5.724005E0,4.3192034E0,2.2014992E0,1.7745972E0,1.8416448E0,3.2098448E0,5.237402E0,3.3509707E0,2.6143675E0,4.4126425E0,9.297848E-1,2.8557978E0,0E0,0E0,0E0,0E0,0E0,0E0,0E0,0E0,0E0,0E0,0E0,0E0,0E0,0E0,0E0,0E0],"parents":[2147483647,0,0,1,1,2,2,3,3,4,4,5,5,6,6,7,7,8,8,9,9,10,10,11,11,12,12,13,13,14,14],"right_children":[2,4,6,8,10,12,14,16,18,20,22,24,26,28,30,-1,-1,-1,-1,-1,-1,-1,-1,-1,-1,-1,-1,-1,-1,-1,-1],"split_conditions":[1.8044E0,1.0119E0,9.062E-1,1.6E1,6.9E1,8.41E-1,2.5905E0,2.6039E0,1.9984E0,1.2788E0,1.002E0,5.809E-1,1.0754E0,4.579E-1,1.01E2,-2.6919087E-2,1.3384162E-2,4.364246E-3,-1.3133064E-2,2.3489019E-2,4.9554682E-3,-1.7132822E-2,2.6858286E-3,1.0065294E-2,-1.4903173E-2,-2.1833172E-2,5.8510672E-2,9.243075E-3,-2.0867141E-2,2.5782788E-2,-1.6642032E-2],"split_indices":[11,4,3,1,1,3,11,13,5,7,11,3,7,8,1,0,0,0,0,0,0,0,0,0,0,0,0,0,0,0,0],"split_type":[0,0,0,0,0,0,0,0,0,0,0,0,0,0,0,0,0,0,0,0,0,0,0,0,0,0,0,0,0,0,0],"sum_hessian":[6.385886E2,5.216632E2,1.16925446E2,1.620671E2,3.595961E2,4.6682446E1,7.0243004E1,3.3000336E1,1.2906676E2,2.6817126E2,9.142486E1,4.1023888E1,5.658557E0,5.5593067E1,1.4649932E1,3.0480597E1,2.519741E0,9.3844696E1,3.522206E1,4.5218277E1,2.2295299E2,3.211453E1,5.9310326E1,2.3931332E1,1.7092556E1,2.0463066E0,3.6122503E0,2.1508908E0,5.3442177E1,5.519404E0,9.1305275E0],"tree_param":{"num_deleted":"0","num_feature":"24","num_nodes":"31","size_leaf_vector":"1"}},{"base_weights":[-1.6644144E-2,-3.2166138E-1,2.3594488E-1,-1.9051222E-2,-3.708008E-1,1.3045393E-1,5.346882E-1,2.3368846E-1,-3.3403468E-1,-4.4222492E-1,-2.065392E-1,1.02306694E-1,4.4436123E-2,3.386217E-1,6.091214E-1,3.7442468E-2,1.4700055E-3,-2.4884714E-2,4.0767966E-3,-2.332442E-2,-3.4504884E-3,8.468741E-3,-1.8421246E-2,5.139346E-4,1.4170337E-2,3.162547E-2,4.861261E-3,3.1898137E-2,1.3202988E-2],"categories":[],"categories_nodes":[],"categories_segments":[],"categories_sizes":[],"default_left":[0,0,0,0,0,0,0,0,0,0,0,0,0,0,0,0,0,0,0,0,0,0,0,0,0,0,0,0,0],"id":41,"left_children":[1,3,5,7,9,11,13,15,17,19,21,23,-1,25,27,-1,-1,-1,-1,-1,-1,-1,-1,-1,-1,-1,-1,-1,-1],"loss_changes":[6.3403618E1,5.53598E0,1.4118275E1,4.3076315E0,3.6704369E0,7.0385203E0,1.5036163E0,3.142127E0,1.677213E0,1.9834824E0,6.089755E0,5.3838434E0,0E0,2.3854787E0,6.6425323E-1,0E0,0E0,0E0,0E0,0E0,0E0,0E0,0E0,0E0,0E0,0E0,0E0,0E0,0E0],"parents":[2147483647,0,0,1,1,2,2,3,3,4,4,5,5,6,6,7,7,8,8,9,9,10,10,11,11,13,13,14,14],"right_children":[2,4,6,8,10,12,14,16,18,20,22,24,-1,26,28,-1,-1,-1,-1,-1,-1,-1,-1,-1,-1,-1,-1,-1,-1],"split_conditions":[2E0,3.4E-1,5.7E1,7E-1,-1.7E1,1E0,7.177E-1,8.005E-1,1.4562E0,1.8902E0,1.1273E0,4.7E1,4.4436123E-2,1.8E1,3.1746E0,3.7442468E-2,1.4700055E-3,-2.4884714E-2,4.0767966E-3,-2.332442E-2,-3.4504884E-3,8.468741E-3,-1.8421246E-2,5.139346E-4,1.4170337E-2,3.162547E-2,4.861261E-3,3.1898137E-2,1.3202988E-2],"split_indices":[2,17,2,22,2,22,8,11,8,14,7,0,0,0,11,0,0,0,0,0,0,0,0,0,0,0,0,0,0],"split_type":[0,0,0,0,0,0,0,0,0,0,0,0,0,0,0,0,0,0,0,0,0,0,0,0,0,0,0,0,0],"sum_hessian":[8.209682E2,3.7176498E2,4.4920322E2,5.2129433E1,3.1963556E2,3.330387E2,1.16164505E2,2.9065582E1,2.3063848E1,2.2159122E2,9.804433E1,3.2221295E2,1.0825756E1,3.349191E1,8.26726E1,7.496289E0,2.1569294E1,1.6405455E1,6.6583953E0,2.0782983E2,1.3761375E1,2.9498875E1,6.8545456E1,2.1434692E2,1.0786602E2,1.4373144E1,1.9118763E1,7.551221E1,7.160392E0],"tree_param":{"num_deleted":"0","num_feature":"24","num_nodes":"29","size_leaf_vector":"1"}},{"base_weights":[1.886218E-2,2.4137925E-1,-3.3498013E-1,3.795479E-1,3.1076936E-2,-2.0447947E-1,-4.652019E-1,-3.0433528E-2,4.3338713E-1,-1.3681513E-1,1.8851963E-1,2.9009696E-2,-2.8437424E-1,-1.5210827E-1,-5.0158626E-1,2.9294183E-2,-1.5666857E-2,1.6763655E-2,3.0743271E-2,-1.0383769E-2,4.6091463E-2,-1.1233165E-2,1.9651623E-2,-6.0409135E-3,6.0111433E-2,-1.5237331E-2,3.9650615E-2,-2.7833534E-2,1.3829844E-2,-2.5861502E-2,1.060365E-2],"categories":[],"categories_nodes":[],"categories_segments":[],"categories_sizes":[],"default_left":[0,0,0,0,0,0,0,0,0,0,0,0,0,0,0,0,0,0,0,0,0,0,0,0,0,0,0,0,0,0,0],"id":42,"left_children":[1,3,5,7,9,11,13,15,17,19,21,23,25,27,29,-1,-1,-1,-1,-1,-1,-1,-1,-1,-1,-1,-1,-1,-1,-1,-1],"loss_changes":[5.64798E1,1.2783239E1,4.6116295E0,5.877037E0,4.6697087E0,2.6221023E0,1.494009E0,5.7231407E0,3.9761086E0,6.612792E0,7.784991E0,6.584037E0,2.5350952E0,2.891954E0,1.4835701E0,0E0,0E0,0E0,0E0,0E0,0E0,0E0,0E0,0E0,0E0,0E0,0E0,0E0,0E0,0E0,0E0],"parents":[2147483647,0,0,1,1,2,2,3,3,4,4,5,5,6,6,7,7,8,8,9,9,10,10,11,11,12,12,13,13,14,14],"right_children":[2,4,6,8,10,12,14,16,18,20,22,24,26,28,30,-1,-1,-1,-1,-1,-1,-1,-1,-1,-1,-1,-1,-1,-1,-1,-1],"split_conditions":[9E0,-1.7E1,3.8E1,9.169E-1,1.066E0,7.519E-1,5.01E-1,3.756E-1,1.6396E0,1.9665E0,1.0397E0,1.5753E0,3.7E1,9.639E-1,9E-1,2.9294183E-2,-1.5666857E-2,1.6763655E-2,3.0743271E-2,-1.0383769E-2,4.6091463E-2,-1.1233165E-2,1.9651623E-2,-6.0409135E-3,6.0111433E-2,-1.5237331E-2,3.9650615E-2,-2.7833534E-2,1.3829844E-2,-2.5861502E-2,1.060365E-2],"split_indices":[2,2,2,13,8,12,8,12,5,6,10,10,2,12,22,0,0,0,0,0,0,0,0,0,0,0,0,0,0,0,0],"split_type":[0,0,0,0,0,0,0,0,0,0,0,0,0,0,0,0,0,0,0,0,0,0,0,0,0,0,0,0,0,0,0],"sum_hessian":[7.153049E2,4.3933975E2,2.759651E2,2.6465598E2,1.7468379E2,1.3911871E2,1.3684639E2,3.0771126E1,2.3388486E2,8.4599976E1,9.008381E1,3.5629585E1,1.0348912E2,1.4786512E1,1.2205988E2,9.34396E0,2.1427168E1,1.5365865E2,8.0226204E1,8.004594E1,4.5540376E0,2.9793219E1,6.0290592E1,3.2390163E1,3.239422E0,1.02272385E2,1.2167366E0,7.4538946E0,7.3326178E0,1.19711E2,2.348885E0],"tree_param":{"num_deleted":"0","num_feature":"24","num_nodes":"31","size_leaf_vector":"1"}},{"base_weights":[1.5028083E-2,4.0853858E-2,-3.589491E-1,-4.4357672E-1,5.708478E-2,-4.763649E-1,-1.5112418E-1,-3.0634984E-2,4.3608103E-2,2.0024148E-1,-4.557778E-3,-4.969933E-1,-1.174296E-3,-2.5132341E-2,5.0791673E-2,1.5757892E-2,-5.8584674E-3,1.0101773E-2,-2.198654E-3,-4.969577E-3,-2.6215477E-2,1.9759247E-2,-1.3641856E-2],"categories":[],"categories_nodes":[],"categories_segments":[],"categories_sizes":[],"default_left":[0,0,0,0,0,0,0,0,0,0,0,0,0,0,0,0,0,0,0,0,0,0,0],"id":43,"left_children":[1,3,5,7,9,11,13,-1,-1,15,17,19,-1,-1,21,-1,-1,-1,-1,-1,-1,-1,-1],"loss_changes":[6.2438602E0,4.7759733E0,9.4713783E-1,4.918372E0,5.167643E0,2.3329973E-1,1.1996518E0,0E0,0E0,6.46579E0,3.3494806E0,2.1974087E-1,0E0,0E0,1.3800968E0,0E0,0E0,0E0,0E0,0E0,0E0,0E0,0E0],"parents":[2147483647,0,0,1,1,2,2,3,3,4,4,5,5,6,6,9,9,10,10,11,11,14,14],"right_children":[2,4,6,8,10,12,14,-1,-1,16,18,20,-1,-1,22,-1,-1,-1,-1,-1,-1,-1,-1],"split_conditions":[8E1,3E0,1.9871E0,4E-1,8.425E-1,1.6667E0,1.4E1,-3.0634984E-2,4.3608103E-2,7.7E1,6.953E-1,5E-1,-1.174296E-3,-2.5132341E-2,1.31E2,1.5757892E-2,-5.8584674E-3,1.0101773E-2,-2.198654E-3,-4.969577E-3,-2.6215477E-2,1.9759247E-2,-1.3641856E-2],"split_indices":[2,0,4,17,14,19,0,0,0,0,8,22,0,0,1,0,0,0,0,0,0,0,0],"split_type":[0,0,0,0,0,0,0,0,0,0,0,0,0,0,0,0,0,0,0,0,0,0,0],"sum_hessian":[6.4396106E2,6.0319684E2,4.0764256E1,1.8701448E1,5.8449536E2,2.5222204E1,1.554205E1,1.7044859E1,1.6565888E0,1.752506E2,4.0924478E2,2.4030233E1,1.1919724E0,5.126957E0,1.0415093E1,1.2867265E2,4.657793E1,6.4907845E1,3.4433694E2,1.8429967E0,2.2187237E1,4.9385614E0,5.476532E0],"tree_param":{"num_deleted":"0","num_feature":"24","num_nodes":"23","size_leaf_vector":"1"}},{"base_weights":[-8.806665E-3,-2.893289E-1,2.295798E-1,-4.4771814E-1,-1.6777073E-1,1.22304134E-1,5.1838636E-1,-4.9002963E-1,5.2584134E-2,-1.1567331E-1,-4.9982637E-1,-3.9565718E-1,1.4727043E-1,4.5400482E-1,6.9924486E-1,-2.6330361E-2,-9.451915E-3,-9.941129E-3,3.9232608E-2,-8.3594015E-3,1.0401817E-2,-2.846582E-2,3.3120528E-2,-2.9820029E-2,1.5906561E-2,6.455251E-3,4.1640725E-2,2.4124818E-2,-7.706072E-3,3.651513E-2,-3.6661748E-3],"categories":[],"categories_nodes":[],"categories_segments":[],"categories_sizes":[],"default_left":[0,0,0,0,0,0,0,0,0,0,0,0,0,0,0,0,0,0,0,0,0,0,0,0,0,0,0,0,0,0,0],"id":44,"left_children":[1,3,5,7,9,11,13,15,17,19,21,23,25,27,29,-1,-1,-1,-1,-1,-1,-1,-1,-1,-1,-1,-1,-1,-1,-1,-1],"loss_changes":[5.4048923E1,7.073509E0,1.3474247E1,3.4258842E0,3.6038837E0,4.195296E0,1.0569515E0,1.5319862E0,2.627365E0,3.1075273E0,2.6711822E0,2.3365488E0,3.7023382E0,1.6320152E0,7.5264835E-1,0E0,0E0,0E0,0E0,0E0,0E0,0E0,0E0,0E0,0E0,0E0,0E0,0E0,0E0,0E0,0E0],"parents":[2147483647,0,0,1,1,2,2,3,3,4,4,5,5,6,6,7,7,8,8,9,9,10,10,11,11,12,12,13,13,14,14],"right_children":[2,4,6,8,10,12,14,16,18,20,22,24,26,28,30,-1,-1,-1,-1,-1,-1,-1,-1,-1,-1,-1,-1,-1,-1,-1,-1],"split_conditions":[2E0,-3.5E1,5.7E1,2.6769E0,2.2196E0,3.987E-1,1.0938E0,1.7631E0,8E-1,2.0019E0,1.8873E0,3.7E1,1E0,1.0522E0,4E-1,-2.6330361E-2,-9.451915E-3,-9.941129E-3,3.9232608E-2,-8.3594015E-3,1.0401817E-2,-2.846582E-2,3.3120528E-2,-2.9820029E-2,1.5906561E-2,6.455251E-3,4.1640725E-2,2.4124818E-2,-7.706072E-3,3.651513E-2,-3.6661748E-3],"split_indices":[2,2,2,13,13,7,9,11,22,10,6,2,22,9,17,0,0,0,0,0,0,0,0,0,0,0,0,0,0,0,0],"split_type":[0,0,0,0,0,0,0,0,0,0,0,0,0,0,0,0,0,0,0,0,0,0,0,0,0,0,0,0,0,0,0],"sum_hessian":[8.062427E2,3.7028943E2,4.3595325E2,1.596212E2,2.1066823E2,3.1891678E2,1.17036476E2,1.4719331E2,1.2427881E1,1.8326367E2,2.740455E1,1.398249E1,3.049343E2,8.890027E1,2.8136206E1,1.3057571E2,1.6617609E1,9.793134E0,2.634747E0,1.5852046E2,2.4743206E1,2.633985E1,1.0647026E0,1.10416355E1,2.940854E0,2.9822043E2,6.7138643E0,8.511892E1,3.7813482E0,2.710142E1,1.0347874E0],"tree_param":{"num_deleted":"0","num_feature":"24","num_nodes":"31","size_leaf_vector":"1"}},{"base_weights":[-6.0241565E-4,1.7513795E-1,-4.1109627E-1,6.0785663E-1,1.1829417E-1,-3.2950756E-1,-5.507376E-1,1.9736959E-1,6.795921E-1,3.136004E-2,2.9510006E-1,-4.3457094E-1,-2.0311235E-1,1.7306335E-2,-5.732167E-1,-3.1243233E-2,2.6974892E-2,1.3468839E-2,3.674404E-2,-7.887873E-3,7.593792E-3,-9.892626E-3,1.7710423E-2,-2.2744823E-2,2.2837346E-2,2.4190126E-2,-1.2527806E-2,-6.2574022E-3,-2.901961E-2],"categories":[],"categories_nodes":[],"categories_segments":[],"categories_sizes":[],"default_left":[0,0,0,0,0,0,0,0,0,0,0,0,0,0,0,0,0,0,0,0,0,0,0,0,0,0,0,0,0],"id":45,"left_children":[1,3,5,7,9,11,13,15,17,19,21,23,25,-1,27,-1,-1,-1,-1,-1,-1,-1,-1,-1,-1,-1,-1,-1,-1],"loss_changes":[5.1398224E1,1.2199553E1,2.2519302E0,1.5645046E0,6.7876816E0,1.7350731E0,1.7564087E0,3.1475644E0,9.064541E-1,6.805973E0,4.313739E0,1.5502405E0,2.2135754E0,0E0,1.709652E-1,0E0,0E0,0E0,0E0,0E0,0E0,0E0,0E0,0E0,0E0,0E0,0E0,0E0,0E0],"parents":[2147483647,0,0,1,1,2,2,3,3,4,4,5,5,6,6,7,7,8,8,9,9,10,10,11,11,12,12,14,14],"right_children":[2,4,6,8,10,12,14,16,18,20,22,24,26,-1,28,-1,-1,-1,-1,-1,-1,-1,-1,-1,-1,-1,-1,-1,-1],"split_conditions":[2.1E1,-7.9E1,5.7E1,1.001E0,1.7921E0,6.6E1,1.869E-1,1.21E2,1.2389E0,1.0366E0,9E0,1.9036E0,5.012E-1,1.7306335E-2,2.975E-1,-3.1243233E-2,2.6974892E-2,1.3468839E-2,3.674404E-2,-7.887873E-3,7.593792E-3,-9.892626E-3,1.7710423E-2,-2.2744823E-2,2.2837346E-2,2.4190126E-2,-1.2527806E-2,-6.2574022E-3,-2.901961E-2],"split_indices":[2,2,2,5,13,1,11,0,8,5,0,8,8,0,3,0,0,0,0,0,0,0,0,0,0,0,0,0,0],"split_type":[0,0,0,0,0,0,0,0,0,0,0,0,0,0,0,0,0,0,0,0,0,0,0,0,0,0,0,0,0],"sum_hessian":[7.104774E2,4.978931E2,2.1258432E2,5.6685547E1,4.4120755E2,1.3630475E2,7.6279564E1,8.9906E0,4.7694946E1,2.9656577E2,1.4464178E2,7.3102036E1,6.3202717E1,1.5130825E0,7.476649E1,2.3989108E0,6.5916886E0,6.3622546E0,4.133269E1,1.15309364E2,1.812564E2,1.52352705E1,1.2940651E2,7.195091E1,1.1511247E0,3.4890544E0,5.971366E1,1.4691322E0,7.3297356E1],"tree_param":{"num_deleted":"0","num_feature":"24","num_nodes":"29","size_leaf_vector":"1"}},{"base_weights":[1.44044915E-2,8.695099E-2,-1.1234894E-1,7.340008E-2,6.345493E-2,-8.08442E-2,-4.8518178E-1,-2.2486207E-1,1.13415636E-1,1.926955E-1,-1.2321057E-1,-3.1003183E-2,2.4090832E-2,-1.4778018E-2,1.9193577E-2,