{"learner":{"attributes":{"scikit_learn":"{\"_estimator_type\": \"regressor\"}"},"feature_names":["home_fifa_ranking","away_fifa_ranking","ranking_gap","home_form5_pts","home_form5_scored","home_form5_conceded","home_form10_pts","home_form10_scored","home_form10_conceded","away_form5_pts","away_form5_scored","away_form5_conceded","away_form10_pts","away_form10_scored","away_form10_conceded","h2h_home_wins","h2h_draws","h2h_away_wins","h2h_home_goals_avg","h2h_away_goals_avg","h2h_matches","neutral_venue","competition_weight","is_knockout"],"feature_types":["float","int","float","float","float","float","float","float","float","float","float","float","float","float","float","float","float","float","float","float","int","int","float","int"],"gradient_booster":{"model":{"cats":{"enc":[],"feature_segments":[],"sorted_idx":[]},"gbtree_model_param":{"num_parallel_tree":"1","num_trees":"300"},"iteration_indptr":[0,1,2,3,4,5,6,7,8,9,10,11,12,13,14,15,16,17,18,19,20,21,22,23,24,25,26,27,28,29,30,31,32,33,34,35,36,37,38,39,40,41,42,43,44,45,46,47,48,49,50,51,52,53,54,55,56,57,58,59,60,61,62,63,64,65,66,67,68,69,70,71,72,73,74,75,76,77,78,79,80,81,82,83,84,85,86,87,88,89,90,91,92,93,94,95,96,97,98,99,100,101,102,103,104,105,106,107,108,109,110,111,112,113,114,115,116,117,118,119,120,121,122,123,124,125,126,127,128,129,130,131,132,133,134,135,136,137,138,139,140,141,142,143,144,145,146,147,148,149,150,151,152,153,154,155,156,157,158,159,160,161,162,163,164,165,166,167,168,169,170,171,172,173,174,175,176,177,178,179,180,181,182,183,184,185,186,187,188,189,190,191,192,193,194,195,196,197,198,199,200,201,202,203,204,205,206,207,208,209,210,211,212,213,214,215,216,217,218,219,220,221,222,223,224,225,226,227,228,229,230,231,232,233,234,235,236,237,238,239,240,241,242,243,244,245,246,247,248,249,250,251,252,253,254,255,256,257,258,259,260,261,262,263,264,265,266,267,268,269,270,271,272,273,274,275,276,277,278,279,280,281,282,283,284,285,286,287,288,289,290,291,292,293,294,295,296,297,298,299,300],"tree_info":[0,0,0,0,0,0,0,0,0,0,0,0,0,0,0,0,0,0,0,0,0,0,0,0,0,0,0,0,0,0,0,0,0,0,0,0,0,0,0,0,0,0,0,0,0,0,0,0,0,0,0,0,0,0,0,0,0,0,0,0,0,0,0,0,0,0,0,0,0,0,0,0,0,0,0,0,0,0,0,0,0,0,0,0,0,0,0,0,0,0,0,0,0,0,0,0,0,0,0,0,0,0,0,0,0,0,0,0,0,0,0,0,0,0,0,0,0,0,0,0,0,0,0,0,0,0,0,0,0,0,0,0,0,0,0,0,0,0,0,0,0,0,0,0,0,0,0,0,0,0,0,0,0,0,0,0,0,0,0,0,0,0,0,0,0,0,0,0,0,0,0,0,0,0,0,0,0,0,0,0,0,0,0,0,0,0,0,0,0,0,0,0,0,0,0,0,0,0,0,0,0,0,0,0,0,0,0,0,0,0,0,0,0,0,0,0,0,0,0,0,0,0,0,0,0,0,0,0,0,0,0,0,0,0,0,0,0,0,0,0,0,0,0,0,0,0,0,0,0,0,0,0,0,0,0,0,0,0,0,0,0,0,0,0,0,0,0,0,0,0,0,0,0,0,0,0,0,0,0,0,0,0,0,0,0,0,0,0,0,0,0,0,0,0,0,0,0,0,0,0],"trees":[{"base_weights":[-1.7549729E-3,-8.634532E-2,1.4108826E0,2.2125167E-1,-4.1739154E-1,3.0500934E-1,1.8717121E0,3.6900017E-1,-6.4920455E-1,-5.088206E-1,2.6710123E-1,-8.124712E-1,5.481488E-1,3.4372967E-1,2.2413266E0,4.3146564E-3,3.1940255E-2,-9.1757905E-3,-3.7391227E-2,-1.6217932E-2,-3.5574753E-2,2.7941117E-2,-1.3872847E-2,-5.3989947E-2,-2.224931E-2,2.9318458E-3,5.038878E-2,-3.2305192E-2,4.6841104E-2,1.478856E-1,7.157036E-2],"categories":[],"categories_nodes":[],"categories_segments":[],"categories_sizes":[],"default_left":[0,0,0,0,0,0,0,0,0,0,0,0,0,0,0,0,0,0,0,0,0,0,0,0,0,0,0,0,0,0,0],"id":0,"left_children":[1,3,5,7,9,11,13,15,17,19,21,23,25,27,29,-1,-1,-1,-1,-1,-1,-1,-1,-1,-1,-1,-1,-1,-1,-1,-1],"loss_changes":[2.4631717E2,1.9813205E2,5.877925E1,1.2997643E2,5.877928E1,1.0077289E1,4.5545746E1,6.577317E1,6.602085E0,3.0686676E1,1.7799816E1,1.8141079E-1,6.625987E0,1.06763525E1,3.3976135E1,0E0,0E0,0E0,0E0,0E0,0E0,0E0,0E0,0E0,0E0,0E0,0E0,0E0,0E0,0E0,0E0],"parents":[2147483647,0,0,1,1,2,2,3,3,4,4,5,5,6,6,7,7,8,8,9,9,10,10,11,11,12,12,13,13,14,14],"right_children":[2,4,6,8,10,12,14,16,18,20,22,24,26,28,30,-1,-1,-1,-1,-1,-1,-1,-1,-1,-1,-1,-1,-1,-1,-1,-1],"split_conditions":[2.5E0,4.9E1,1.353E0,2.1779E0,2.0112E0,1.0136E0,1.3893E0,1.1336E0,5E-1,9E1,1.916E0,6.025E-1,1.7E1,5.9E1,7.5E-1,4.3146564E-3,3.1940255E-2,-9.1757905E-3,-3.7391227E-2,-1.6217932E-2,-3.5574753E-2,2.7941117E-2,-1.3872847E-2,-5.3989947E-2,-2.224931E-2,2.9318458E-3,5.038878E-2,-3.2305192E-2,4.6841104E-2,1.478856E-1,7.157036E-2],"split_indices":[18,0,14,13,14,3,7,14,22,0,8,11,0,0,19,0,0,0,0,0,0,0,0,0,0,0,0,0,0,0,0],"split_type":[0,0,0,0,0,0,0,0,0,0,0,0,0,0,0,0,0,0,0,0,0,0,0,0,0,0,0,0,0,0,0],"sum_hessian":[2.0592896E3,1.9438297E3,1.1545986E2,1.0077728E3,9.360569E2,3.4450146E1,8.100971E1,8.620306E2,1.4574228E2,8.259851E2,1.10071815E2,5.7377214E0,2.8712425E1,1.6155016E1,6.48547E1,4.2159482E2,4.4043573E2,2.5970259E1,1.1977202E2,4.3378278E2,3.922023E2,7.165817E1,3.8413647E1,2.199409E0,3.5383122E0,1.445022E1,1.4262206E1,6.0194893E0,1.0135527E1,3.3007355E1,3.1847343E1],"tree_param":{"num_deleted":"0","num_feature":"24","num_nodes":"31","size_leaf_vector":"1"}},{"base_weights":[1.424649E-2,-2.8212434E-1,5.439827E-1,3.2728922E-1,-4.9193266E-1,1.2806803E0,1.0306643E-1,1.1222845E0,1.7271891E-1,-3.6453974E-1,-1.0130363E0,2.5092986E0,1.0756551E0,-2.2798796E-1,8.508135E-1,2.0142226E-2,1.1208173E-1,4.03204E-3,6.7388214E-2,-2.9393116E-2,-4.816312E-3,-5.150729E-2,2.0599913E-2,6.486394E-2,1.620591E-1,4.9592536E-2,1.505379E-1,4.545161E-5,-3.7918013E-2,5.9906628E-2,-1.6957393E-2],"categories":[],"categories_nodes":[],"categories_segments":[],"categories_sizes":[],"default_left":[0,0,0,0,0,0,0,0,0,0,0,0,0,0,0,0,0,0,0,0,0,0,0,0,0,0,0,0,0,0,0],"id":1,"left_children":[1,3,5,7,9,11,13,15,17,19,21,23,25,27,29,-1,-1,-1,-1,-1,-1,-1,-1,-1,-1,-1,-1,-1,-1,-1,-1],"loss_changes":[3.2311893E2,1.6890793E2,2.396996E2,4.1414814E1,6.48322E1,6.691559E1,1.1480405E2,4.3337387E1,3.06913E1,4.731048E1,5.1149597E0,3.0188324E1,3.570575E1,3.9054985E1,5.921395E1,0E0,0E0,0E0,0E0,0E0,0E0,0E0,0E0,0E0,0E0,0E0,0E0,0E0,0E0,0E0,0E0],"parents":[2147483647,0,0,1,1,2,2,3,3,4,4,5,5,6,6,7,7,8,8,9,9,10,10,11,11,12,12,13,13,14,14],"right_children":[2,4,6,8,10,12,14,16,18,20,22,24,26,28,30,-1,-1,-1,-1,-1,-1,-1,-1,-1,-1,-1,-1,-1,-1,-1,-1],"split_conditions":[7.1E1,1.4E1,5.1E1,1.3262E0,9E1,1.1E1,1.53E2,9E-1,1E0,3.2E1,2.4211E0,8.6E1,1.8E2,1.3E2,1.76E2,2.0142226E-2,1.1208173E-1,4.03204E-3,6.7388214E-2,-2.9393116E-2,-4.816312E-3,-5.150729E-2,2.0599913E-2,6.486394E-2,1.620591E-1,4.9592536E-2,1.505379E-1,4.545161E-5,-3.7918013E-2,5.9906628E-2,-1.6957393E-2],"split_indices":[1,0,0,7,0,0,1,22,22,1,11,1,1,0,0,0,0,0,0,0,0,0,0,0,0,0,0,0,0,0,0],"split_type":[0,0,0,0,0,0,0,0,0,0,0,0,0,0,0,0,0,0,0,0,0,0,0,0,0,0,0,0,0,0,0],"sum_hessian":[2.0561262E3,1.3187784E3,7.373479E2,3.3760474E2,9.8117365E2,2.7536096E2,4.619869E2,5.3936203E1,2.8366855E2,7.897941E2,1.9137952E2,3.7772064E1,2.375889E2,3.206977E2,1.4128925E2,3.3661095E1,2.0275106E1,2.6404617E2,1.962238E1,4.3031186E2,3.5948227E2,1.8938281E2,1.9966986E0,1.5265116E1,2.2506948E1,2.291764E2,8.412487E0,2.2471425E2,9.598344E1,1.0936233E2,3.1926908E1],"tree_param":{"num_deleted":"0","num_feature":"24","num_nodes":"31","size_leaf_vector":"1"}},{"base_weights":[1.1891946E-2,-4.920497E-1,6.863813E-1,-6.865834E-1,-1.5884705E-1,3.475431E-1,1.3418224E0,-1.0600331E0,-6.0835534E-1,-2.2739585E-1,1.4202468E0,7.296043E-1,1.9976276E-1,1.0650084E0,1.8728013E0,-2.1464573E-2,-5.7095744E-2,-2.7507318E-2,-4.8298962E-2,-4.045798E-3,-2.8370295E-2,1.5948455E-1,4.4397026E-2,1.8630725E-1,3.303282E-2,6.8749012E-3,8.0116466E-2,4.4795454E-2,1.06303774E-1,1.4922558E-1,7.500889E-2],"categories":[],"categories_nodes":[],"categories_segments":[],"categories_sizes":[],"default_left":[0,0,0,0,0,0,0,0,0,0,0,0,0,0,0,0,0,0,0,0,0,0,0,0,0,0,0,0,0,0,0],"id":2,"left_children":[1,3,5,7,9,11,13,15,17,19,21,23,25,27,29,-1,-1,-1,-1,-1,-1,-1,-1,-1,-1,-1,-1,-1,-1,-1,-1],"loss_changes":[6.929935E2,7.553125E1,1.9316351E2,2.0871002E1,4.702621E1,3.2380936E1,4.1625305E1,6.0279694E0,1.2193466E1,2.0591654E1,1.4205051E1,3.0657661E1,3.6177883E1,3.3512253E1,3.710434E1,0E0,0E0,0E0,0E0,0E0,0E0,0E0,0E0,0E0,0E0,0E0,0E0,0E0,0E0,0E0,0E0],"parents":[2147483647,0,0,1,1,2,2,3,3,4,4,5,5,6,6,7,7,8,8,9,9,10,10,11,11,12,12,13,13,14,14],"right_children":[2,4,6,8,10,12,14,16,18,20,22,24,26,28,30,-1,-1,-1,-1,-1,-1,-1,-1,-1,-1,-1,-1,-1,-1,-1,-1],"split_conditions":[1.5E1,-9E0,5.7E1,-7.9E1,1E0,4.7E1,2.1558E0,1.001E0,1.9497E0,8E-1,1.2937E0,1.347E-1,1.84E2,1.21E2,1.3939E0,-2.1464573E-2,-5.7095744E-2,-2.7507318E-2,-4.8298962E-2,-4.045798E-3,-2.8370295E-2,1.5948455E-1,4.4397026E-2,1.8630725E-1,3.303282E-2,6.8749012E-3,8.0116466E-2,4.4795454E-2,1.06303774E-1,1.4922558E-1,7.500889E-2],"split_indices":[2,2,2,2,22,1,4,5,9,22,12,9,1,2,6,0,0,0,0,0,0,0,0,0,0,0,0,0,0,0,0],"split_type":[0,0,0,0,0,0,0,0,0,0,0,0,0,0,0,0,0,0,0,0,0,0,0,0,0,0,0,0,0,0,0],"sum_hessian":[2.0368029E3,1.1659438E3,8.7085913E2,7.35485E2,4.3045883E2,5.750898E2,2.9576935E2,1.25208206E2,6.1027673E2,4.1337033E2,1.7088497E1,1.593026E2,4.1578717E2,1.9639102E2,9.937833E1,1.5103961E1,1.1010425E2,5.2703217E2,8.32446E1,2.8977167E2,1.2359869E2,2.7974052E0,1.4291092E1,2.389957E0,1.5691264E2,3.991649E2,1.6622263E1,1.7098582E2,2.5405203E1,2.3188057E1,7.619027E1],"tree_param":{"num_deleted":"0","num_feature":"24","num_nodes":"31","size_leaf_vector":"1"}},{"base_weights":[-1.2978604E-2,-4.5287377E-1,7.07214E-1,-7.987237E-1,-2.8510392E-1,3.8519463E-1,1.2692692E0,-9.720672E-1,-6.660417E-1,-3.217191E-1,7.7369696E-1,3.2061824E-1,1.6613746E0,1.7684445E0,8.760818E-1,-3.189951E-2,-5.122233E-2,-1.2755233E-2,-3.6561724E-2,-1.8634839E-2,1.0120998E-2,-9.765972E-4,9.247747E-2,1.3720398E-2,7.702206E-2,4.06088E-2,1.4759229E-1,8.3161555E-2,2.7295035E-1,3.8895737E-2,1.1669959E-1],"categories":[],"categories_nodes":[],"categories_segments":[],"categories_sizes":[],"default_left":[0,0,0,0,0,0,0,0,0,0,0,0,0,0,0,0,0,0,0,0,0,0,0,0,0,0,0,0,0,0,0],"id":3,"left_children":[1,3,5,7,9,11,13,15,17,19,21,23,25,27,29,-1,-1,-1,-1,-1,-1,-1,-1,-1,-1,-1,-1,-1,-1,-1,-1],"loss_changes":[6.5691785E2,7.446298E1,1.4182141E2,9.010468E0,3.3912865E1,4.0781273E1,5.457617E1,2.4941864E0,6.2707367E0,2.2520264E1,2.505659E1,2.6544437E1,2.3800674E1,3.946399E1,2.136164E1,0E0,0E0,0E0,0E0,0E0,0E0,0E0,0E0,0E0,0E0,0E0,0E0,0E0,0E0,0E0,0E0],"parents":[2147483647,0,0,1,1,2,2,3,3,4,4,5,5,6,6,7,7,8,8,9,9,10,10,11,11,12,12,13,13,14,14],"right_children":[2,4,6,8,10,12,14,16,18,20,22,24,26,28,30,-1,-1,-1,-1,-1,-1,-1,-1,-1,-1,-1,-1,-1,-1,-1,-1],"split_conditions":[2.1E1,-3.5E1,5.9E1,-6.8E1,1E0,1.42E2,2.3E1,6E-1,1.02E0,6.667E-1,1.6944E0,9E-1,1.5007E0,3.4827E0,1.42E2,-3.189951E-2,-5.122233E-2,-1.2755233E-2,-3.6561724E-2,-1.8634839E-2,1.0120998E-2,-9.765972E-4,9.247747E-2,1.3720398E-2,7.702206E-2,4.06088E-2,1.4759229E-1,8.3161555E-2,2.7295035E-1,3.8895737E-2,1.1669959E-1],"split_indices":[2,2,2,2,22,0,0,22,19,15,7,22,4,11,2,0,0,0,0,0,0,0,0,0,0,0,0,0,0,0,0],"split_type":[0,0,0,0,0,0,0,0,0,0,0,0,0,0,0,0,0,0,0,0,0,0,0,0,0,0,0,0,0,0,0],"sum_hessian":[2.0715327E3,1.2862561E3,7.8527673E2,4.1891702E2,8.6733905E2,5.0031543E2,2.8496133E2,1.7888495E2,2.4003206E2,8.390204E2,2.831866E1,4.7740912E2,2.290629E1,1.2401678E2,1.6094455E2,2.6032085E1,1.5285286E2,3.3538456E1,2.064936E2,7.6491394E2,7.410641E1,1.6865515E1,1.1453144E1,4.611639E2,1.6245222E1,1.4797869E1,8.108421E0,1.2198967E2,2.0271053E0,1.52228E2,8.716553E0],"tree_param":{"num_deleted":"0","num_feature":"24","num_nodes":"31","size_leaf_vector":"1"}},{"base_weights":[1.5141063E-2,-4.1197848E-1,7.084898E-1,-5.77145E-1,2.5568623E-3,5.6894654E-1,1.9466821E0,-7.24417E-1,-4.1595325E-1,5.137862E-1,-1.8993571E-1,3.8937163E-1,9.41498E-1,1.3067446E0,2.6762145E0,-4.643359E-2,-3.168685E-2,-1.702728E-2,-3.7961468E-2,1.058993E-2,7.0702575E-2,-2.7242167E-2,-4.480799E-3,1.6471036E-2,9.456747E-2,3.4873035E-2,6.931152E-2,4.5748215E-2,1.2562637E-1,-2.6483107E-2,1.5012108E-1],"categories":[],"categories_nodes":[],"categories_segments":[],"categories_sizes":[],"default_left":[0,0,0,0,0,0,0,0,0,0,0,0,0,0,0,0,0,0,0,0,0,0,0,0,0,0,0,0,0,0,0],"id":4,"left_children":[1,3,5,7,9,11,13,15,17,19,21,23,25,27,29,-1,-1,-1,-1,-1,-1,-1,-1,-1,-1,-1,-1,-1,-1,-1,-1],"loss_changes":[6.121145E2,8.757538E1,1.3502872E2,2.1411316E1,3.6057865E1,4.7100952E1,3.356659E1,8.239136E0,1.1106064E1,2.694865E1,9.428862E0,4.2639908E1,2.4001953E1,1.8603142E1,3.9388824E1,0E0,0E0,0E0,0E0,0E0,0E0,0E0,0E0,0E0,0E0,0E0,0E0,0E0,0E0,0E0,0E0],"parents":[2147483647,0,0,1,1,2,2,3,3,4,4,5,5,6,6,7,7,8,8,9,9,10,10,11,11,12,12,13,13,14,14],"right_children":[2,4,6,8,10,12,14,16,18,20,22,24,26,28,30,-1,-1,-1,-1,-1,-1,-1,-1,-1,-1,-1,-1,-1,-1,-1,-1],"split_conditions":[2.1E1,1E0,9.9E1,-3.2E1,1.02E0,5.7E1,1.7142E0,-7.6E1,2.1779E0,3.333E-1,7.5E-1,1.84E2,2.1558E0,1.42E2,2.999E-1,-4.643359E-2,-3.168685E-2,-1.702728E-2,-3.7961468E-2,1.058993E-2,7.0702575E-2,-2.7242167E-2,-4.480799E-3,1.6471036E-2,9.456747E-2,3.4873035E-2,6.931152E-2,4.5748215E-2,1.2562637E-1,-2.6483107E-2,1.5012108E-1],"split_indices":[2,2,2,2,19,2,7,2,13,17,9,1,4,2,8,0,0,0,0,0,0,0,0,0,0,0,0,0,0,0,0],"split_type":[0,0,0,0,0,0,0,0,0,0,0,0,0,0,0,0,0,0,0,0,0,0,0,0,0,0,0,0,0,0,0],"sum_hessian":[2.0649717E3,1.2780609E3,7.869106E2,9.1364014E2,3.644208E2,7.085204E2,7.839019E1,4.7560855E2,4.380316E2,9.922528E1,2.6519553E2,4.7945953E2,2.2906087E2,4.324626E1,3.5143925E1,1.433883E2,3.3222025E2,3.6077252E2,7.725906E1,7.522638E1,2.39989E1,5.7465393E1,2.0773015E2,4.6222916E2,1.7230394E1,1.4956084E2,7.950003E1,3.3968204E1,9.278061E0,3.18813E0,3.1955793E1],"tree_param":{"num_deleted":"0","num_feature":"24","num_nodes":"31","size_leaf_vector":"1"}},{"base_weights":[1.4731576E-2,-3.959505E-1,6.6121244E-1,-5.857772E-1,-6.6165216E-2,3.591577E-1,1.1429496E0,-8.866731E-1,-5.1279217E-1,-1.7118074E-1,4.898109E-1,1.1383916E0,2.5192425E-1,9.772703E-1,2.0809352E0,-4.962181E-2,-3.1354006E-2,-4.2532723E-2,-2.280386E-2,-2.8164277E-2,-4.20694E-3,1.75738E-2,1.475998E-1,1.09348714E-1,2.3937948E-2,9.680341E-3,8.064211E-2,4.475169E-2,1.23175696E-1,8.422702E-2,1.6540079E-1],"categories":[],"categories_nodes":[],"categories_segments":[],"categories_sizes":[],"default_left":[0,0,0,0,0,0,0,0,0,0,0,0,0,0,0,0,0,0,0,0,0,0,0,0,0,0,0,0,0,0,0],"id":5,"left_children":[1,3,5,7,9,11,13,15,17,19,21,23,25,27,29,-1,-1,-1,-1,-1,-1,-1,-1,-1,-1,-1,-1,-1,-1,-1,-1],"loss_changes":[5.4970166E2,7.922514E1,1.1662579E2,1.7190277E1,2.715657E1,4.1142887E1,4.606485E1,3.6462555E0,1.2048035E1,1.3288978E1,2.4142483E1,4.02409E1,3.437951E1,3.0175537E1,1.6596329E1,0E0,0E0,0E0,0E0,0E0,0E0,0E0,0E0,0E0,0E0,0E0,0E0,0E0,0E0,0E0,0E0],"parents":[2147483647,0,0,1,1,2,2,3,3,4,4,5,5,6,6,7,7,8,8,9,9,10,10,11,11,12,12,13,13,14,14],"right_children":[2,4,6,8,10,12,14,16,18,20,22,24,26,28,30,-1,-1,-1,-1,-1,-1,-1,-1,-1,-1,-1,-1,-1,-1,-1,-1],"split_conditions":[2.1E1,-6E0,5.8E1,-7.6E1,4E-1,4E1,1.21E2,8.427E-1,6.898E-1,7.12E-1,9E-1,1.5829E0,1.84E2,5E0,2.3333E0,-4.962181E-2,-3.1354006E-2,-4.2532723E-2,-2.280386E-2,-2.8164277E-2,-4.20694E-3,1.75738E-2,1.475998E-1,1.09348714E-1,2.3937948E-2,9.680341E-3,8.064211E-2,4.475169E-2,1.23175696E-1,8.422702E-2,1.6540079E-1],"split_indices":[2,2,2,2,15,1,2,6,8,9,22,7,1,18,18,0,0,0,0,0,0,0,0,0,0,0,0,0,0,0,0],"split_type":[0,0,0,0,0,0,0,0,0,0,0,0,0,0,0,0,0,0,0,0,0,0,0,0,0,0,0,0,0,0,0],"sum_hessian":[2.0684678E3,1.2651554E3,8.0331244E2,8.024712E2,4.6268423E2,4.9480777E2,3.0850464E2,1.5447353E2,6.479976E2,3.897571E2,7.292714E1,5.86923E1,4.3611548E2,2.639281E2,4.457655E1,1.0775078E2,4.6722748E1,9.112852E1,5.5686914E2,6.980945E1,3.1994763E2,7.012973E1,2.7974052E0,2.1770096E1,3.6922203E1,4.192905E2,1.6824974E1,2.5160835E2,1.2319732E1,3.5485996E1,9.090553E0],"tree_param":{"num_deleted":"0","num_feature":"24","num_nodes":"31","size_leaf_vector":"1"}},{"base_weights":[-1.47602735E-2,-2.583551E-1,4.1735002E-1,2.9771277E-1,-3.8620663E-1,1.1637776E0,1.26307E-1,2.405612E0,2.3203446E-1,-2.9862115E-1,-7.660935E-1,1.988467E0,9.4869447E-1,-2.6224269E-2,8.2291174E-1,4.110985E-2,1.3270573E-1,-3.400026E-4,3.710225E-2,-2.3912456E-2,-3.8042385E-3,-3.9336193E-2,1.766552E-2,5.287617E-2,1.240562E-1,4.181413E-2,1.08470194E-1,1.4618525E-2,-1.5783848E-2,6.348805E-2,-1.4861489E-2],"categories":[],"categories_nodes":[],"categories_segments":[],"categories_sizes":[],"default_left":[0,0,0,0,0,0,0,0,0,0,0,0,0,0,0,0,0,0,0,0,0,0,0,0,0,0,0,0,0,0,0],"id":6,"left_children":[1,3,5,7,9,11,13,15,17,19,21,23,25,27,29,-1,-1,-1,-1,-1,-1,-1,-1,-1,-1,-1,-1,-1,-1,-1,-1],"loss_changes":[2.1537225E2,9.313699E1,1.6010022E2,3.3382957E1,3.5182312E1,3.4796844E1,5.6530853E1,6.90712E-1,2.9100319E1,3.4601227E1,4.868126E0,1.6578049E1,2.0956757E1,4.0416283E1,4.821071E1,0E0,0E0,0E0,0E0,0E0,0E0,0E0,0E0,0E0,0E0,0E0,0E0,0E0,0E0,0E0,0E0],"parents":[2147483647,0,0,1,1,2,2,3,3,4,4,5,5,6,6,7,7,8,8,9,9,10,10,11,11,12,12,13,13,14,14],"right_children":[2,4,6,8,10,12,14,16,18,20,22,24,26,28,30,-1,-1,-1,-1,-1,-1,-1,-1,-1,-1,-1,-1,-1,-1,-1,-1],"split_conditions":[7.1E1,1.1E1,3.5E1,8.445E-1,9E1,1E1,1.73E2,1.2E1,1.2247E0,3.4E1,2.4211E0,8.2E1,1.47E2,8E1,1.76E2,4.110985E-2,1.3270573E-1,-3.400026E-4,3.710225E-2,-2.3912456E-2,-3.8042385E-3,-3.9336193E-2,1.766552E-2,5.287617E-2,1.240562E-1,4.181413E-2,1.08470194E-1,1.4618525E-2,-1.5783848E-2,6.348805E-2,-1.4861489E-2],"split_indices":[1,0,0,7,0,0,1,1,14,1,11,1,1,0,0,0,0,0,0,0,0,0,0,0,0,0,0,0,0,0,0],"split_type":[0,0,0,0,0,0,0,0,0,0,0,0,0,0,0,0,0,0,0,0,0,0,0,0,0,0,0,0,0,0,0],"sum_hessian":[2.0440767E3,1.3074347E3,7.3664197E2,2.441628E2,1.063272E3,2.0580997E2,5.30832E2,6.3012567E0,2.3786154E2,8.6550903E2,1.9776286E2,4.0867455E1,1.649425E2,4.3626752E2,9.456446E1,1.4392447E0,4.862012E0,1.6267064E2,7.519091E1,4.7829092E2,3.8721814E2,1.9447592E2,3.286951E0,1.5231668E1,2.5635786E1,1.5257716E2,1.2365342E1,2.076744E2,2.2859311E2,6.750261E1,2.7061855E1],"tree_param":{"num_deleted":"0","num_feature":"24","num_nodes":"31","size_leaf_vector":"1"}},{"base_weights":[3.1890091E-4,-3.7166533E-1,6.015367E-1,-4.9264085E-1,-2.2607673E-2,2.8945076E-1,1.1289057E0,-7.957369E-1,-4.3434662E-1,-9.712969E-2,1.290248E0,-2.1259412E-1,3.8715506E-1,1.9153417E0,9.4865155E-1,-4.546023E-2,-2.6749486E-2,1.0147416E-1,-2.2076502E-2,5.669246E-2,-7.265055E-3,1.4079668E-1,4.0846977E-2,-2.37503E-2,1.5715575E-2,3.8020972E-2,1.3286981E-2,5.1928945E-2,1.21418275E-1,4.0029123E-2,9.144472E-2],"categories":[],"categories_nodes":[],"categories_segments":[],"categories_sizes":[],"default_left":[0,0,0,0,0,0,0,0,0,0,0,0,0,0,0,0,0,0,0,0,0,0,0,0,0,0,0,0,0,0,0],"id":7,"left_children":[1,3,5,7,9,11,13,15,17,19,21,23,25,27,29,-1,-1,-1,-1,-1,-1,-1,-1,-1,-1,-1,-1,-1,-1,-1,-1],"loss_changes":[4.618641E2,5.3863144E1,1.2959082E2,1.6393753E1,3.2353924E1,2.4473267E1,3.973523E1,3.999443E0,1.4998123E1,1.8704155E1,1.0527407E1,1.1438939E1,1.8678082E1,2.1621124E1,2.9874619E1,0E0,0E0,0E0,0E0,0E0,0E0,0E0,0E0,0E0,0E0,0E0,0E0,0E0,0E0,0E0,0E0],"parents":[2147483647,0,0,1,1,2,2,3,3,4,4,5,5,6,6,7,7,8,8,9,9,10,10,11,11,12,12,13,13,14,14],"right_children":[2,4,6,8,10,12,14,16,18,20,22,24,26,28,30,-1,-1,-1,-1,-1,-1,-1,-1,-1,-1,-1,-1,-1,-1,-1,-1],"split_conditions":[2.1E1,2E0,5.9E1,-7.6E1,1E0,6.007E-1,1.1E1,1.0375E0,3E0,1E1,7E0,1.1387E0,4.8E1,5E0,1.21E2,-4.546023E-2,-2.6749486E-2,1.0147416E-1,-2.2076502E-2,5.669246E-2,-7.265055E-3,1.4079668E-1,4.0846977E-2,-2.37503E-2,1.5715575E-2,3.8020972E-2,1.3286981E-2,5.1928945E-2,1.21418275E-1,4.0029123E-2,9.144472E-2],"split_indices":[2,2,2,2,22,8,0,7,0,1,2,14,1,0,2,0,0,0,0,0,0,0,0,0,0,0,0,0,0,0,0],"split_type":[0,0,0,0,0,0,0,0,0,0,0,0,0,0,0,0,0,0,0,0,0,0,0,0,0,0,0,0,0,0,0],"sum_hessian":[2.0631802E3,1.2748125E3,7.8836755E2,9.464002E2,3.2841232E2,4.9624753E2,2.9212006E2,1.5061899E2,7.957812E2,3.1164816E2,1.676416E1,8.065142E1,4.155961E2,5.2675343E1,2.3944472E2,1.0321614E2,4.7402843E1,1.4949901E0,7.942862E2,1.0887583E1,3.007606E2,2.7974052E0,1.3966755E1,5.3904274E1,2.6747147E1,1.0071317E2,3.1488293E2,2.0560928E1,3.2114414E1,2.0660104E2,3.2843666E1],"tree_param":{"num_deleted":"0","num_feature":"24","num_nodes":"31","size_leaf_vector":"1"}},{"base_weights":[2.2393532E-2,-1.9034554E-1,4.1971573E-1,2.560079E-1,-3.423505E-1,1.1966913E0,1.7185448E-1,2.145809E0,2.0492795E-1,-2.4245699E-1,-7.1310526E-1,2.281247E0,9.230013E-1,2.1582756E-2,8.8493806E-1,2.9138897E-2,1.6577303E-1,6.3034385E-3,4.3847736E-2,-2.1053191E-2,-1.7646683E-4,-3.6762547E-2,7.3851123E-3,1.6790454E-1,8.0007456E-2,3.6885004E-2,8.417357E-2,1.1099002E-2,-1.7239176E-2,6.184509E-2,-3.9653257E-3],"categories":[],"categories_nodes":[],"categories_segments":[],"categories_sizes":[],"default_left":[0,0,0,0,0,0,0,0,0,0,0,0,0,0,0,0,0,0,0,0,0,0,0,0,0,0,0,0,0,0,0],"id":8,"left_children":[1,3,5,7,9,11,13,15,17,19,21,23,25,27,29,-1,-1,-1,-1,-1,-1,-1,-1,-1,-1,-1,-1,-1,-1,-1,-1],"loss_changes":[1.74843E2,9.149635E1,1.3870557E2,3.2653496E1,3.706433E1,4.9627487E1,5.870524E1,1.4369644E1,1.7638075E1,3.386249E1,4.166855E0,1.9885468E1,1.8605408E1,3.338395E1,3.2461876E1,0E0,0E0,0E0,0E0,0E0,0E0,0E0,0E0,0E0,0E0,0E0,0E0,0E0,0E0,0E0,0E0],"parents":[2147483647,0,0,1,1,2,2,3,3,4,4,5,5,6,6,7,7,8,8,9,9,10,10,11,11,12,12,13,13,14,14],"right_children":[2,4,6,8,10,12,14,16,18,20,22,24,26,28,30,-1,-1,-1,-1,-1,-1,-1,-1,-1,-1,-1,-1,-1,-1,-1,-1],"split_conditions":[7.3E1,1.4E1,3.2E1,3.756E-1,9E1,1E1,1.73E2,1.4E1,1E0,3.5E1,4E-1,2.5E-1,1.341E0,1.07E2,1.76E2,2.9138897E-2,1.6577303E-1,6.3034385E-3,4.3847736E-2,-2.1053191E-2,-1.7646683E-4,-3.6762547E-2,7.3851123E-3,1.6790454E-1,8.0007456E-2,3.6885004E-2,8.417357E-2,1.1099002E-2,-1.7239176E-2,6.184509E-2,-3.9653257E-3],"split_indices":[1,0,0,6,0,0,1,1,22,1,15,19,9,0,0,0,0,0,0,0,0,0,0,0,0,0,0,0,0,0,0],"split_type":[0,0,0,0,0,0,0,0,0,0,0,0,0,0,0,0,0,0,0,0,0,0,0,0,0,0,0,0,0,0,0],"sum_hessian":[2.0665674E3,1.3462583E3,7.20309E2,3.4182516E2,1.00443317E3,1.7328406E2,5.47025E2,7.9168596E0,3.3390833E2,7.9254846E2,2.1188469E2,3.343913E1,1.3984492E2,4.5266324E2,9.436175E1,4.0298853E0,3.8869743E0,2.9990363E2,3.400469E1,4.530874E2,3.3946106E2,2.0671254E2,5.172159E0,1.1432874E1,2.2006254E1,1.1402974E2,2.5815186E1,2.928645E2,1.5979874E2,6.892158E1,2.5440172E1],"tree_param":{"num_deleted":"0","num_feature":"24","num_nodes":"31","size_leaf_vector":"1"}},{"base_weights":[4.3351986E-3,-3.2173595E-1,5.4590523E-1,-5.499857E-1,-1.4893024E-1,2.9803655E-1,9.682569E-1,-7.811198E-1,-4.6165532E-1,-1.7661059E-1,6.812511E-1,2.2546613E-1,1.1505686E0,8.6716694E-1,2.2600148E0,-3.57079E-2,-5.205856E-2,-4.377185E-2,-2.073544E-2,-5.694457E-3,-2.4900137E-2,-3.359063E-3,8.9080326E-2,3.5602853E-2,4.5491746E-3,7.448393E-2,-5.7203243E-3,3.353887E-2,7.169439E-2,8.176318E-2,2.1506338E-1],"categories":[],"categories_nodes":[],"categories_segments":[],"categories_sizes":[],"default_left":[0,0,0,0,0,0,0,0,0,0,0,0,0,0,0,0,0,0,0,0,0,0,0,0,0,0,0,0,0,0,0],"id":9,"left_children":[1,3,5,7,9,11,13,15,17,19,21,23,25,27,29,-1,-1,-1,-1,-1,-1,-1,-1,-1,-1,-1,-1,-1,-1,-1,-1],"loss_changes":[3.5913733E2,4.9988297E1,7.9724304E1,1.0798874E1,1.6753874E1,2.9628235E1,3.489325E1,1.8630219E0,7.366646E0,1.4079706E1,1.9523716E1,2.9148752E1,1.6321884E1,2.8349365E1,1.8293503E1,0E0,0E0,0E0,0E0,0E0,0E0,0E0,0E0,0E0,0E0,0E0,0E0,0E0,0E0,0E0,0E0],"parents":[2147483647,0,0,1,1,2,2,3,3,4,4,5,5,6,6,7,7,8,8,9,9,10,10,11,11,12,12,13,13,14,14],"right_children":[2,4,6,8,10,12,14,16,18,20,22,24,26,28,30,-1,-1,-1,-1,-1,-1,-1,-1,-1,-1,-1,-1,-1,-1,-1,-1],"split_conditions":[2.1E1,-2.2E1,5.9E1,-7.1E1,1E0,2.5E0,1.42E2,1.89E2,5E0,2.1919E0,7.496E-1,4.8E1,4.6E1,2.4137E0,3.4827E0,-3.57079E-2,-5.205856E-2,-4.377185E-2,-2.073544E-2,-5.694457E-3,-2.4900137E-2,-3.359063E-3,8.9080326E-2,3.5602853E-2,4.5491746E-3,7.448393E-2,-5.7203243E-3,3.353887E-2,7.169439E-2,8.176318E-2,2.1506338E-1],"split_indices":[2,2,2,2,22,18,2,0,1,13,11,1,2,4,11,0,0,0,0,0,0,0,0,0,0,0,0,0,0,0,0],"split_type":[0,0,0,0,0,0,0,0,0,0,0,0,0,0,0,0,0,0,0,0,0,0,0,0,0,0,0,0,0,0,0],"sum_hessian":[2.0317367E3,1.2684363E3,7.633004E2,5.455999E2,7.228363E2,4.820826E2,2.8121777E2,1.4868715E2,3.9691278E2,7.0027466E2,2.2561682E1,4.4543054E2,3.665209E1,2.6235757E2,1.8860188E1,1.2121988E2,2.7467276E1,3.864575E1,3.5826703E2,5.8706085E2,1.1321383E2,1.3987026E1,8.574656E0,9.552024E1,3.4991028E2,2.8763609E1,7.88848E0,1.9646045E2,6.589714E1,1.581953E1,3.040658E0],"tree_param":{"num_deleted":"0","num_feature":"24","num_nodes":"31","size_leaf_vector":"1"}},{"base_weights":[-7.995504E-3,-3.4447503E-1,5.3177845E-1,-4.7914904E-1,-1.1625268E-1,2.8766227E-1,9.451943E-1,-7.50007E-1,-4.2538595E-1,2.885431E-1,-2.3607534E-1,7.9862523E-1,1.4943203E-1,7.916035E-1,1.5702658E0,-1.6541341E-2,-4.0652797E-2,-3.2645192E-2,-1.756684E-2,3.374627E-2,-1.6681856E-2,2.6583646E-3,-1.7843893E-2,3.3385385E-2,1.443624E-1,3.8045773E-3,5.1326346E-2,3.0242605E-2,6.752983E-2,6.742932E-3,9.638109E-2],"categories":[],"categories_nodes":[],"categories_segments":[],"categories_sizes":[],"default_left":[0,0,0,0,0,0,0,0,0,0,0,0,0,0,0,0,0,0,0,0,0,0,0,0,0,0,0,0,0,0,0],"id":10,"left_children":[1,3,5,7,9,11,13,15,17,19,21,23,25,27,29,-1,-1,-1,-1,-1,-1,-1,-1,-1,-1,-1,-1,-1,-1,-1,-1],"loss_changes":[3.714168E2,3.8662064E1,7.897946E1,1.1212677E1,2.2807005E1,3.4854904E1,2.670462E1,3.1625824E0,1.0941414E1,2.6074219E1,1.2677549E1,2.6839104E1,2.507145E1,2.3788635E1,2.867247E1,0E0,0E0,0E0,0E0,0E0,0E0,0E0,0E0,0E0,0E0,0E0,0E0,0E0,0E0,0E0,0E0],"parents":[2147483647,0,0,1,1,2,2,3,3,4,4,5,5,6,6,7,7,8,8,9,9,10,10,11,11,12,12,13,13,14,14],"right_children":[2,4,6,8,10,12,14,16,18,20,22,24,26,28,30,-1,-1,-1,-1,-1,-1,-1,-1,-1,-1,-1,-1,-1,-1,-1,-1],"split_conditions":[2.1E1,-6E0,5.9E1,-7.9E1,1.02E0,4.7E1,2.6667E0,1.001E0,7.993E-1,7E-1,1.1E1,1.9734E0,1.38E2,2.3913E0,6.9E1,-1.6541341E-2,-4.0652797E-2,-3.2645192E-2,-1.756684E-2,3.374627E-2,-1.6681856E-2,2.6583646E-3,-1.7843893E-2,3.3385385E-2,1.443624E-1,3.8045773E-3,5.1326346E-2,3.0242605E-2,6.752983E-2,6.742932E-3,9.638109E-2],"split_indices":[2,2,2,2,19,1,18,5,5,22,0,11,0,4,2,0,0,0,0,0,0,0,0,0,0,0,0,0,0,0,0],"split_type":[0,0,0,0,0,0,0,0,0,0,0,0,0,0,0,0,0,0,0,0,0,0,0,0,0,0,0,0,0,0,0],"sum_hessian":[2.0429805E3,1.2587031E3,7.842774E2,7.908959E2,4.6780725E2,4.9417175E2,2.9010562E2,1.288418E2,6.620541E2,1.0652539E2,3.6128183E2,1.04204865E2,3.8996692E2,2.347018E2,5.5403828E1,1.7662169E1,1.1117963E2,1.6064658E2,5.0140753E2,6.566301E1,4.086239E1,1.0660141E2,2.5468044E2,9.9300285E1,4.904581E0,3.6087793E2,2.908896E1,1.7748776E2,5.721403E1,1.1318342E1,4.4085484E1],"tree_param":{"num_deleted":"0","num_feature":"24","num_nodes":"31","size_leaf_vector":"1"}},{"base_weights":[3.153803E-2,-2.7857265E-1,5.4710484E-1,-3.968535E-1,2.9258946E-2,3.2295167E-1,9.1063553E-1,-5.6653214E-1,-2.841201E-1,3.780045E-1,-1.2209492E-1,7.719479E-1,1.8484686E-1,1.645088E0,7.88133E-1,-2.406997E-2,-3.7011735E-2,1.846916E-3,-1.7782219E-2,1.2012408E-1,1.3855397E-2,-1.974792E-2,7.638607E-3,1.6337532E-1,3.4345023E-2,4.8996084E-3,6.62189E-2,6.397285E-2,1.7374116E-1,3.5185993E-2,7.8355856E-2],"categories":[],"categories_nodes":[],"categories_segments":[],"categories_sizes":[],"default_left":[0,0,0,0,0,0,0,0,0,0,0,0,0,0,0,0,0,0,0,0,0,0,0,0,0,0,0,0,0,0,0],"id":11,"left_children":[1,3,5,7,9,11,13,15,17,19,21,23,25,27,29,-1,-1,-1,-1,-1,-1,-1,-1,-1,-1,-1,-1,-1,-1,-1,-1],"loss_changes":[3.2441562E2,4.6146065E1,6.180432E1,1.7349548E1,1.8660109E1,2.9184387E1,2.4806E1,5.032486E0,1.2689129E1,2.1184444E1,1.8561104E1,2.1301247E1,3.5798996E1,2.2684288E1,1.5373444E1,0E0,0E0,0E0,0E0,0E0,0E0,0E0,0E0,0E0,0E0,0E0,0E0,0E0,0E0,0E0,0E0],"parents":[2147483647,0,0,1,1,2,2,3,3,4,4,5,5,6,6,7,7,8,8,9,9,10,10,11,11,12,12,13,13,14,14],"right_children":[2,4,6,8,10,12,14,16,18,20,22,24,26,28,30,-1,-1,-1,-1,-1,-1,-1,-1,-1,-1,-1,-1,-1,-1,-1,-1],"split_conditions":[2.1E1,2E0,5.8E1,-4E1,2.2E1,4.8E1,1E1,1.37E2,3.4E-1,7E-1,4.2E1,1.347E-1,1.41E2,5E0,2.6113E0,-2.406997E-2,-3.7011735E-2,1.846916E-3,-1.7782219E-2,1.2012408E-1,1.3855397E-2,-1.974792E-2,7.638607E-3,1.6337532E-1,3.4345023E-2,4.8996084E-3,6.62189E-2,6.397285E-2,1.7374116E-1,3.5185993E-2,7.8355856E-2],"split_indices":[2,2,2,2,1,1,0,0,17,7,0,9,0,18,7,0,0,0,0,0,0,0,0,0,0,0,0,0,0,0,0],"split_type":[0,0,0,0,0,0,0,0,0,0,0,0,0,0,0,0,0,0,0,0,0,0,0,0,0,0,0,0,0,0,0],"sum_hessian":[2.0271311E3,1.2660615E3,7.610696E2,9.1441754E2,3.5164398E2,4.7195215E2,2.891174E2,3.634108E2,5.510067E2,1.0597098E2,2.4567299E2,1.0993853E2,3.6201364E2,3.9552876E1,2.4956453E2,2.4641339E2,1.1699742E2,1.004755E2,4.5053122E2,3.9477875E0,1.0202319E2,1.23066574E2,1.2260642E2,2.389957E0,1.0754858E2,3.373843E2,2.462933E1,3.4381733E1,5.1711454E0,2.2688223E2,2.2682295E1],"tree_param":{"num_deleted":"0","num_feature":"24","num_nodes":"31","size_leaf_vector":"1"}},{"base_weights":[1.332818E-2,-5.3190585E-2,1.0644295E0,-4.3695503E-1,2.900006E-2,3.0939555E-1,1.5836198E0,-4.8342425E-1,1.9550605E-1,-1.3314864E-1,2.709715E-1,-4.9155974E-1,7.871741E-1,3.6626914E-1,1.8968948E0,-2.5156949E-2,1.8152551E-3,1.0723933E-1,-1.2742388E-2,-2.429986E-3,-2.218291E-2,-1.1020615E-2,1.7019916E-2,-6.204776E-3,-4.136455E-2,6.269661E-2,-5.756689E-3,-7.4246065E-3,4.632839E-2,1.0174241E-1,-3.1632278E-2],"categories":[],"categories_nodes":[],"categories_segments":[],"categories_sizes":[],"default_left":[0,0,0,0,0,0,0,0,0,0,0,0,0,0,0,0,0,0,0,0,0,0,0,0,0,0,0,0,0,0,0],"id":12,"left_children":[1,3,5,7,9,11,13,15,17,19,21,23,25,27,29,-1,-1,-1,-1,-1,-1,-1,-1,-1,-1,-1,-1,-1,-1,-1,-1],"loss_changes":[1.4328877E2,6.0812714E1,4.7325043E1,1.008931E1,6.2362396E1,1.9881504E1,2.6776047E1,3.2672348E0,2.1605183E1,2.4966736E1,2.1830544E1,2.3214645E0,1.374485E1,4.7472124E0,2.1195602E1,0E0,0E0,0E0,0E0,0E0,0E0,0E0,0E0,0E0,0E0,0E0,0E0,0E0,0E0,0E0,0E0],"parents":[2147483647,0,0,1,1,2,2,3,3,4,4,5,5,6,6,7,7,8,8,9,9,10,10,11,11,12,12,13,13,14,14],"right_children":[2,4,6,8,10,12,14,16,18,20,22,24,26,28,30,-1,-1,-1,-1,-1,-1,-1,-1,-1,-1,-1,-1,-1,-1,-1,-1],"split_conditions":[2.5E0,7.772E-1,8.2E1,2.5832E0,6E1,1.4241E0,1.3893E0,9E-1,1.02E0,2.1417E0,7.288E-1,5.2E1,2.0672E0,1.2369E0,2.0666E0,-2.5156949E-2,1.8152551E-3,1.0723933E-1,-1.2742388E-2,-2.429986E-3,-2.218291E-2,-1.1020615E-2,1.7019916E-2,-6.204776E-3,-4.136455E-2,6.269661E-2,-5.756689E-3,-7.4246065E-3,4.632839E-2,1.0174241E-1,-3.1632278E-2],"split_indices":[18,4,1,11,1,13,7,22,19,13,6,1,13,5,6,0,0,0,0,0,0,0,0,0,0,0,0,0,0,0,0],"split_type":[0,0,0,0,0,0,0,0,0,0,0,0,0,0,0,0,0,0,0,0,0,0,0,0,0,0,0,0,0,0,0],"sum_hessian":[2.0475745E3,1.9265994E3,1.20975105E2,3.3907492E2,1.5875244E3,4.99423E1,7.103281E1,3.1608652E2,2.2988386E1,9.5081726E2,6.3670715E2,1.8649368E1,3.129293E1,1.4982335E1,5.6050472E1,3.0456546E2,1.1521052E1,3.6082473E0,1.938014E1,7.4823596E2,2.025813E2,7.855337E1,5.581538E2,9.557801E0,9.091567E0,2.036734E1,1.09255905E1,8.191532E0,6.790803E0,5.3337193E1,2.7132804E0],"tree_param":{"num_deleted":"0","num_feature":"24","num_nodes":"31","size_leaf_vector":"1"}},{"base_weights":[3.802509E-2,-2.4701992E-1,4.9344558E-1,-3.84171E-1,-1.0129174E-2,2.664392E-1,8.4178513E-1,-3.5101488E-1,-8.1443495E-1,-5.211466E-2,8.8293105E-1,2.1839261E-1,1.1536815E0,7.504975E-1,2.091543E0,-6.1227637E-3,-1.9917915E-2,-4.1979183E-2,2.8365885E-3,-2.5232658E-2,1.7908568E-6,1.3090815E-1,2.3491686E-2,1.6282301E-2,-1.0695598E-2,-2.0545747E-2,7.7191204E-2,5.25451E-2,2.7811123E-2,7.33843E-2,2.0159717E-1],"categories":[],"categories_nodes":[],"categories_segments":[],"categories_sizes":[],"default_left":[0,0,0,0,0,0,0,0,0,0,0,0,0,0,0,0,0,0,0,0,0,0,0,0,0,0,0,0,0,0,0],"id":13,"left_children":[1,3,5,7,9,11,13,15,17,19,21,23,25,27,29,-1,-1,-1,-1,-1,-1,-1,-1,-1,-1,-1,-1,-1,-1,-1,-1],"loss_changes":[2.6642337E2,4.1010117E1,6.224701E1,1.1119141E1,1.7440289E1,2.020045E1,3.393947E1,8.002121E0,1.2841835E0,1.0478846E1,1.3741323E1,2.1229513E1,1.5536499E1,1.6434631E1,1.9052574E1,0E0,0E0,0E0,0E0,0E0,0E0,0E0,0E0,0E0,0E0,0E0,0E0,0E0,0E0,0E0,0E0],"parents":[2147483647,0,0,1,1,2,2,3,3,4,4,5,5,6,6,7,7,8,8,9,9,10,10,11,11,12,12,13,13,14,14],"right_children":[2,4,6,8,10,12,14,16,18,20,22,24,26,28,30,-1,-1,-1,-1,-1,-1,-1,-1,-1,-1,-1,-1,-1,-1,-1,-1],"split_conditions":[2.1E1,-6E0,5.7E1,1.86E2,1E0,1.41E2,1.42E2,1.02E0,3.0015E0,3.946E-1,8.064E-1,1.6717E0,4.026E-1,1.9E1,3.4827E0,-6.1227637E-3,-1.9917915E-2,-4.1979183E-2,2.8365885E-3,-2.5232658E-2,1.7908568E-6,1.3090815E-1,2.3491686E-2,1.6282301E-2,-1.0695598E-2,-2.0545747E-2,7.7191204E-2,5.25451E-2,2.7811123E-2,7.33843E-2,2.0159717E-1],"split_indices":[2,2,2,0,22,0,2,19,11,5,8,6,13,0,11,0,0,0,0,0,0,0,0,0,0,0,0,0,0,0,0],"split_type":[0,0,0,0,0,0,0,0,0,0,0,0,0,0,0,0,0,0,0,0,0,0,0,0,0,0,0,0,0,0,0],"sum_hessian":[2.050387E3,1.2613643E3,7.890228E2,7.9846204E2,4.6290216E2,4.7877744E2,3.1024542E2,7.4302075E2,5.544133E1,4.4301624E2,1.9885902E1,4.5536435E2,2.3413067E1,2.9061798E2,1.9627447E1,1.2811356E2,6.1490717E2,5.3921E1,1.520329E0,4.4881123E1,3.9813513E2,2.7974052E0,1.7088497E1,3.6504465E2,9.03197E1,4.662342E0,1.8750725E1,1.1240248E2,1.7821548E2,1.6181368E1,3.446079E0],"tree_param":{"num_deleted":"0","num_feature":"24","num_nodes":"31","size_leaf_vector":"1"}},{"base_weights":[-3.0828537E-2,2.9061845E-1,-1.432002E-1,1.4780891E-1,9.734161E-1,-2.9465663E-1,2.1735165E-1,8.8557756E-1,7.822934E-2,1.4653556E-1,1.3572603E0,-2.1018195E-1,-5.389096E-1,-4.70852E-2,5.9589106E-1,2.0878587E-2,1.1047629E-1,-3.963129E-3,2.3846488E-2,4.985315E-2,-3.3386894E-2,2.9192267E-2,9.723018E-2,-3.7890494E-2,-8.055392E-3,-2.389131E-2,-4.4007305E-2,8.761528E-3,-1.6415881E-2,2.474467E-2,7.738676E-2],"categories":[],"categories_nodes":[],"categories_segments":[],"categories_sizes":[],"default_left":[0,0,0,0,0,0,0,0,0,0,0,0,0,0,0,0,0,0,0,0,0,0,0,0,0,0,0,0,0,0,0],"id":14,"left_children":[1,3,5,7,9,11,13,15,17,19,21,23,25,27,29,-1,-1,-1,-1,-1,-1,-1,-1,-1,-1,-1,-1,-1,-1,-1,-1],"loss_changes":[7.4612175E1,5.2031666E1,8.363358E1,2.270758E1,2.9120735E1,2.2131134E1,4.5400074E1,2.271114E1,2.556655E1,2.1725002E1,2.7468788E1,2.1449585E1,5.3407364E0,1.6799728E1,1.716195E1,0E0,0E0,0E0,0E0,0E0,0E0,0E0,0E0,0E0,0E0,0E0,0E0,0E0,0E0,0E0,0E0],"parents":[2147483647,0,0,1,1,2,2,3,3,4,4,5,5,6,6,7,7,8,8,9,9,10,10,11,11,12,12,13,13,14,14],"right_children":[2,4,6,8,10,12,14,16,18,20,22,24,26,28,30,-1,-1,-1,-1,-1,-1,-1,-1,-1,-1,-1,-1,-1,-1,-1,-1],"split_conditions":[1.9E1,7.3E1,9.2E1,1.0006E0,6.946E-1,9E1,1.3649E0,1E0,1.3053E0,9E0,1.8727E0,6E0,1.3357E0,1.27E2,1.94E2,2.0878587E-2,1.1047629E-1,-3.963129E-3,2.3846488E-2,4.985315E-2,-3.3386894E-2,2.9192267E-2,9.723018E-2,-3.7890494E-2,-8.055392E-3,-2.389131E-2,-4.4007305E-2,8.761528E-3,-1.6415881E-2,2.474467E-2,7.738676E-2],"split_indices":[0,1,1,7,8,0,7,21,14,0,7,1,3,0,1,0,0,0,0,0,0,0,0,0,0,0,0,0,0,0,0],"split_type":[0,0,0,0,0,0,0,0,0,0,0,0,0,0,0,0,0,0,0,0,0,0,0,0,0,0,0,0,0,0,0],"sum_hessian":[2.063435E3,5.3407886E2,1.5293561E3,4.4270255E2,9.137633E1,1.0770881E3,4.5226797E2,3.714265E1,4.055599E2,2.9407722E1,6.196861E1,8.0168616E2,2.75402E2,2.667792E2,1.8548874E2,2.8413935E1,8.728715E0,2.9129553E2,1.1426437E2,1.4273862E1,1.5133861E1,2.760816E1,3.4360447E1,6.474473E1,7.369414E2,2.3562413E2,3.9777885E1,1.492071E2,1.17572105E2,1.690692E2,1.6419554E1],"tree_param":{"num_deleted":"0","num_feature":"24","num_nodes":"31","size_leaf_vector":"1"}},{"base_weights":[-1.4850044E-2,-2.5729007E-1,3.7491003E-1,-4.412786E-1,-1.0219012E-1,2.5852212E-1,8.9528453E-1,-4.7566482E-1,-7.1709186E-2,9.1625607E-1,-1.2318189E-1,1.8316561E0,2.3978148E-1,6.544744E-1,1.5083828E0,-5.277695E-2,-2.2805158E-2,1.3860628E-2,-3.605948E-2,-1.474928E-4,6.422184E-2,-2.9277114E-2,-4.234493E-3,-4.763935E-3,1.1134688E-1,-1.6545547E-2,1.4195643E-2,3.7967335E-2,-2.5116859E-2,8.239525E-2,-4.224351E-2],"categories":[],"categories_nodes":[],"categories_segments":[],"categories_sizes":[],"default_left":[0,0,0,0,0,0,0,0,0,0,0,0,0,0,0,0,0,0,0,0,0,0,0,0,0,0,0,0,0,0,0],"id":15,"left_children":[1,3,5,7,9,11,13,15,17,19,21,23,25,27,29,-1,-1,-1,-1,-1,-1,-1,-1,-1,-1,-1,-1,-1,-1,-1,-1],"loss_changes":[1.9260791E2,3.5814476E1,4.711145E1,7.2664185E0,1.4717663E1,1.8435253E1,2.004721E1,5.4783325E0,1.1548777E1,4.7129908E0,1.1878501E1,5.8382626E0,1.6057148E1,1.30056305E1,1.4332306E1,0E0,0E0,0E0,0E0,0E0,0E0,0E0,0E0,0E0,0E0,0E0,0E0,0E0,0E0,0E0,0E0],"parents":[2147483647,0,0,1,1,2,2,3,3,4,4,5,5,6,6,7,7,8,8,9,9,10,10,11,11,12,12,13,13,14,14],"right_children":[2,4,6,8,10,12,14,16,18,20,22,24,26,28,30,-1,-1,-1,-1,-1,-1,-1,-1,-1,-1,-1,-1,-1,-1,-1,-1],"split_conditions":[2.1E1,-2.2E1,8.4E1,2.2328E0,-2.1E1,1.192E-1,2.2257E0,3.3E1,1.7917E0,3.2E1,3.946E-1,1.869E-1,6.035E-1,1.7015E0,1.8836E0,-5.277695E-2,-2.2805158E-2,1.3860628E-2,-3.605948E-2,-1.474928E-4,6.422184E-2,-2.9277114E-2,-4.234493E-3,-4.763935E-3,1.1134688E-1,-1.6545547E-2,1.4195643E-2,3.7967335E-2,-2.5116859E-2,8.239525E-2,-4.224351E-2],"split_indices":[2,2,2,4,2,6,14,0,9,0,5,11,6,8,6,0,0,0,0,0,0,0,0,0,0,0,0,0,0,0,0],"split_type":[0,0,0,0,0,0,0,0,0,0,0,0,0,0,0,0,0,0,0,0,0,0,0,0,0,0,0,0,0,0,0],"sum_hessian":[2.0362997E3,1.2556163E3,7.8068335E2,5.734782E2,6.821381E2,6.3921265E2,1.4147066E2,5.243989E2,4.9079258E1,1.2914687E1,6.6922345E2,6.386395E0,6.328263E2,1.03059044E2,3.8411617E1,1.5384715E1,5.0901422E2,3.2299896E1,1.6779364E1,3.9771805E0,8.937507E0,5.033961E1,6.1888385E2,1.2162632E0,5.1701317E0,4.495714E1,5.8786914E2,9.480771E1,8.251332E0,3.6544655E1,1.8669639E0],"tree_param":{"num_deleted":"0","num_feature":"24","num_nodes":"31","size_leaf_vector":"1"}},{"base_weights":[-6.396494E-3,-2.6237094E-1,4.147547E-1,9.437789E-2,-3.467277E-1,3.3779898E-1,1.3979462E0,5.576784E-2,1.2536404E-1,-4.1001117E-1,-1.6409296E-1,1.9914408E-1,6.220512E-1,9.830002E-1,2.8109457E0,2.0130752E-2,-1.3661067E-2,-2.1086609E-2,1.601002E-2,-1.025721E-2,4.758866E-2,8.577298E-3,6.999298E-2,-1.2124083E-2,3.9013337E-2,9.10377E-3,6.2179137E-2,7.4352734E-2,2.1491764E-1],"categories":[],"categories_nodes":[],"categories_segments":[],"categories_sizes":[],"default_left":[0,0,0,0,0,0,0,0,0,0,0,0,0,0,0,0,0,0,0,0,0,0,0,0,0,0,0,0,0],"id":16,"left_children":[1,3,5,7,9,11,13,15,-1,17,19,21,23,25,27,-1,-1,-1,-1,-1,-1,-1,-1,-1,-1,-1,-1,-1,-1],"loss_changes":[2.191285E2,3.807882E1,5.7667618E1,2.2457382E1,1.1752586E1,2.8015121E1,2.9754196E1,2.7468777E1,0E0,6.629799E0,1.2326882E1,1.5710468E1,3.2142517E1,9.0419235E0,1.7340057E1,0E0,0E0,0E0,0E0,0E0,0E0,0E0,0E0,0E0,0E0,0E0,0E0,0E0,0E0],"parents":[2147483647,0,0,1,1,2,2,3,3,4,4,5,5,6,6,7,7,9,9,10,10,11,11,12,12,13,13,14,14],"right_children":[2,4,6,8,10,12,14,16,-1,18,20,22,24,26,28,-1,-1,-1,-1,-1,-1,-1,-1,-1,-1,-1,-1,-1,-1],"split_conditions":[2.1E1,1.02E0,1.08E2,9E-1,1E0,2.0109E0,2.3333E0,7E-1,1.2536404E-1,4E-1,1E0,3.0499E0,7.556E-1,1.88E-1,2.8521E0,2.0130752E-2,-1.3661067E-2,-2.1086609E-2,1.601002E-2,-1.025721E-2,4.758866E-2,8.577298E-3,6.999298E-2,-1.2124083E-2,3.9013337E-2,9.10377E-3,6.2179137E-2,7.4352734E-2,2.1491764E-1],"split_indices":[2,19,2,22,2,4,18,22,0,15,22,14,14,12,11,0,0,0,0,0,0,0,0,0,0,0,0,0,0],"split_type":[0,0,0,0,0,0,0,0,0,0,0,0,0,0,0,0,0,0,0,0,0,0,0,0,0,0,0,0,0],"sum_hessian":[2.0306481E3,1.2632347E3,7.674134E2,2.4155746E2,1.02167725E3,7.129532E2,5.446021E1,2.3876006E2,2.7974052E0,7.5783887E2,2.6383838E2,4.803464E2,2.3260678E2,4.3408432E1,1.1051778E1,1.16116646E2,1.2264342E2,7.4628235E2,1.1556527E1,2.5526373E2,8.574656E0,4.7067102E2,9.675373E0,3.5901047E1,1.9670573E2,1.1073063E1,3.233537E1,6.905334E0,4.146444E0],"tree_param":{"num_deleted":"0","num_feature":"24","num_nodes":"29","size_leaf_vector":"1"}},{"base_weights":[-2.0008625E-2,-2.5145572E-1,3.5956508E-1,3.444036E-2,-3.202456E-1,2.8175974E-1,9.510289E-1,-5.8621573E-1,1.5132464E-1,-3.365963E-1,2.4386804E-1,1.3047966E-1,5.3690475E-1,3.2455215E-1,1.1979568E0,-4.0833104E-2,-3.2182026E-3,2.0630179E-2,-4.117907E-3,-3.2213237E-2,-1.5457607E-2,-1.7134417E-2,4.062363E-2,4.4908314E-3,7.524412E-2,2.0400068E-2,5.141465E-2,-2.6908359E-3,4.132236E-2,-6.4692283E-3,7.174405E-2],"categories":[],"categories_nodes":[],"categories_segments":[],"categories_sizes":[],"default_left":[0,0,0,0,0,0,0,0,0,0,0,0,0,0,0,0,0,0,0,0,0,0,0,0,0,0,0,0,0,0,0],"id":17,"left_children":[1,3,5,7,9,11,13,15,17,19,21,23,25,27,29,-1,-1,-1,-1,-1,-1,-1,-1,-1,-1,-1,-1,-1,-1,-1,-1],"loss_changes":[1.796836E2,2.4998154E1,3.538585E1,1.803024E1,9.529045E0,2.6412823E1,1.3479317E1,4.685567E0,1.2789674E1,8.208885E0,1.0093927E1,2.4010904E1,1.5736694E1,5.11805E0,2.0290771E1,0E0,0E0,0E0,0E0,0E0,0E0,0E0,0E0,0E0,0E0,0E0,0E0,0E0,0E0,0E0,0E0],"parents":[2147483647,0,0,1,1,2,2,3,3,4,4,5,5,6,6,7,7,8,8,9,9,10,10,11,11,12,12,13,13,14,14],"right_children":[2,4,6,8,10,12,14,16,18,20,22,24,26,28,30,-1,-1,-1,-1,-1,-1,-1,-1,-1,-1,-1,-1,-1,-1,-1,-1],"split_conditions":[2.1E1,1.02E0,2.5E0,7.172E-1,1E0,5.7E1,1.2899E0,1.6719E0,7E-1,5E0,1E0,1.91E2,2.4137E0,2.2938E0,5E0,-4.0833104E-2,-3.2182026E-3,2.0630179E-2,-4.117907E-3,-3.2213237E-2,-1.5457607E-2,-1.7134417E-2,4.062363E-2,4.4908314E-3,7.524412E-2,2.0400068E-2,5.141465E-2,-2.6908359E-3,4.132236E-2,-6.4692283E-3,7.174405E-2],"split_indices":[2,19,18,4,22,2,6,8,22,1,2,1,4,14,0,0,0,0,0,0,0,0,0,0,0,0,0,0,0,0,0],"split_type":[0,0,0,0,0,0,0,0,0,0,0,0,0,0,0,0,0,0,0,0,0,0,0,0,0,0,0,0,0,0,0],"sum_hessian":[2.0432876E3,1.2695254E3,7.7376227E2,2.4631609E2,1.0232092E3,6.8511395E2,8.864835E1,3.8399456E1,2.0791664E2,9.947791E2,2.8430151E1,4.3104874E2,2.5406522E2,2.5716871E1,6.293148E1,2.6244932E1,1.2154523E1,9.7800735E1,1.10115906E2,7.962723E1,9.1515186E2,1.4189736E1,1.4240414E1,4.1969693E2,1.1351789E1,2.0271762E2,5.1347588E1,1.5171869E1,1.0545002E1,9.60037E0,5.3331112E1],"tree_param":{"num_deleted":"0","num_feature":"24","num_nodes":"31","size_leaf_vector":"1"}},{"base_weights":[6.2384657E-3,-4.7735557E-2,9.1673875E-1,-1.5877502E-1,1.674532E-1,5.658074E-1,1.8701588E0,-1.9735472E-1,2.33268E-1,2.7664813E-1,-4.107159E-1,9.716388E-1,1.5323351E-2,7.724002E-1,2.5364013E0,-2.0057974E-2,-6.207157E-3,2.0125125E-2,-1.4370026E-2,1.935726E-2,-3.9674486E-3,-2.7974842E-2,6.3674822E-3,1.1215504E-1,1.8750247E-2,-1.6230326E-2,3.1171998E-2,6.710818E-2,1.2163627E-2,7.469961E-2,1.9044262E-1],"categories":[],"categories_nodes":[],"categories_segments":[],"categories_sizes":[],"default_left":[0,0,0,0,0,0,0,0,0,0,0,0,0,0,0,0,0,0,0,0,0,0,0,0,0,0,0,0,0,0,0],"id":18,"left_children":[1,3,5,7,9,11,13,15,17,19,21,23,25,27,29,-1,-1,-1,-1,-1,-1,-1,-1,-1,-1,-1,-1,-1,-1,-1,-1],"loss_changes":[1.01864586E2,4.6786E1,3.775309E1,1.9577538E1,4.2196236E1,1.9247663E1,2.0548996E1,1.7500065E1,1.0350307E1,2.210939E1,8.580492E0,3.679783E1,7.976271E0,3.6111693E0,1.9131943E1,0E0,0E0,0E0,0E0,0E0,0E0,0E0,0E0,0E0,0E0,0E0,0E0,0E0,0E0,0E0,0E0],"parents":[2147483647,0,0,1,1,2,2,3,3,4,4,5,5,6,6,7,7,8,8,9,9,10,10,11,11,12,12,13,13,14,14],"right_children":[2,4,6,8,10,12,14,16,18,20,22,24,26,28,30,-1,-1,-1,-1,-1,-1,-1,-1,-1,-1,-1,-1,-1,-1,-1,-1],"split_conditions":[2.5E0,1.6998E0,1.39E2,1.53E2,2.1417E0,1.2101E0,1.5969E0,7.772E-1,2.002E0,2.4753E0,2.4099E0,1.4981E0,2E0,3.18E-1,2.8521E0,-2.0057974E-2,-6.207157E-3,2.0125125E-2,-1.4370026E-2,1.935726E-2,-3.9674486E-3,-2.7974842E-2,6.3674822E-3,1.1215504E-1,1.8750247E-2,-1.6230326E-2,3.1171998E-2,6.710818E-2,1.2163627E-2,7.469961E-2,1.9044262E-1],"split_indices":[18,7,1,1,13,5,7,4,8,7,7,3,20,12,11,0,0,0,0,0,0,0,0,0,0,0,0,0,0,0,0],"split_type":[0,0,0,0,0,0,0,0,0,0,0,0,0,0,0,0,0,0,0,0,0,0,0,0,0,0,0,0,0,0,0],"sum_hessian":[2.070914E3,1.9559158E3,1.14998184E2,1.2903468E3,6.655691E2,8.522305E1,2.9775135E1,1.175196E3,1.1515073E2,5.6027515E2,1.0529393E2,4.861657E1,3.660648E1,1.2061276E1,1.771386E1,3.0940417E2,8.657919E2,8.707532E1,2.8075409E1,4.2749774E2,1.3277742E2,8.245454E1,2.2839396E1,1.4645835E1,3.3970737E1,2.3779972E1,1.28265085E1,5.0677633E0,6.993513E0,1.09321785E1,6.7816806E0],"tree_param":{"num_deleted":"0","num_feature":"24","num_nodes":"31","size_leaf_vector":"1"}},{"base_weights":[-1.5183042E-2,-2.3466927E-1,3.3888197E-1,-3.18069E-1,-4.0273694E-3,2.7156016E-1,1.1567315E0,-4.3667275E-1,-2.3553005E-1,-1.11406215E-1,4.338372E-1,2.1743892E-1,6.820896E-1,9.202769E-1,2.7676737E0,-4.0401798E-2,-1.9993136E-2,-1.2670129E-2,4.040529E-2,-1.2249592E-3,-3.1346988E-2,3.964089E-2,-8.481687E-3,2.991493E-2,7.1951533E-3,-1.3779453E-2,4.3349188E-2,-2.189212E-2,5.48033E-2,1.7040053E-1,-1.2986269E-3],"categories":[],"categories_nodes":[],"categories_segments":[],"categories_sizes":[],"default_left":[0,0,0,0,0,0,0,0,0,0,0,0,0,0,0,0,0,0,0,0,0,0,0,0,0,0,0,0,0,0,0],"id":19,"left_children":[1,3,5,7,9,11,13,15,17,19,21,23,25,27,29,-1,-1,-1,-1,-1,-1,-1,-1,-1,-1,-1,-1,-1,-1,-1,-1],"loss_changes":[1.5946092E2,2.4363571E1,4.292112E1,9.003891E0,1.5911961E1,1.6000793E1,2.0085243E1,4.8791504E0,1.0476652E1,1.215991E1,1.457335E1,1.7940342E1,1.5146717E1,1.3207024E1,1.2801426E1,0E0,0E0,0E0,0E0,0E0,0E0,0E0,0E0,0E0,0E0,0E0,0E0,0E0,0E0,0E0,0E0],"parents":[2147483647,0,0,1,1,2,2,3,3,4,4,5,5,6,6,7,7,8,8,9,9,10,10,11,11,12,12,13,13,14,14],"right_children":[2,4,6,8,10,12,14,16,18,20,22,24,26,28,30,-1,-1,-1,-1,-1,-1,-1,-1,-1,-1,-1,-1,-1,-1,-1,-1],"split_conditions":[2.1E1,2E0,1.08E2,-3.9E1,1.6328E0,2.5E0,3.3333E0,6.2E1,2.3333E0,1.8263E0,1.9729E0,4.8E1,1.494E-1,9.98E-1,7E0,-4.0401798E-2,-1.9993136E-2,-1.2670129E-2,4.040529E-2,-1.2249592E-3,-3.1346988E-2,3.964089E-2,-8.481687E-3,2.991493E-2,7.1951533E-3,-1.3779453E-2,4.3349188E-2,-2.189212E-2,5.48033E-2,1.7040053E-1,-1.2986269E-3],"split_indices":[2,2,2,2,9,18,18,0,18,10,7,1,9,4,18,0,0,0,0,0,0,0,0,0,0,0,0,0,0,0,0],"split_type":[0,0,0,0,0,0,0,0,0,0,0,0,0,0,0,0,0,0,0,0,0,0,0,0,0,0,0,0,0,0,0],"sum_hessian":[2.0499138E3,1.2656622E3,7.842515E2,9.2926306E2,3.3639914E2,7.2583594E2,5.84156E1,3.7956277E2,5.4970026E2,2.707483E2,6.565084E1,6.4264404E2,8.3191895E1,5.2308945E1,6.1066546E0,3.2340435E1,3.4722235E2,5.4118945E2,8.510801E0,2.3258702E2,3.816127E1,4.096729E1,2.4683554E1,1.0284569E2,5.3979834E2,1.3382949E1,6.9808945E1,5.8238735E0,4.648507E1,4.7890363E0,1.3176184E0],"tree_param":{"num_deleted":"0","num_feature":"24","num_nodes":"31","size_leaf_vector":"1"}},{"base_weights":[-8.671686E-3,-1.2289417E-1,6.0392135E-1,-2.7239096E-1,6.554311E-2,1.2735715E0,4.6827418E-1,-6.205266E-1,-2.4684657E-1,8.682468E-2,5.1641785E-2,2.576063E0,8.8163906E-1,4.0005466E-1,1.7127992E0,-9.193572E-3,-3.9261963E-2,9.624622E-2,-1.2628371E-2,1.2397288E-3,3.8326193E-2,2.178063E-2,1.5042327E-1,1.3827072E-2,6.9666535E-2,1.61834E-2,5.8447856E-2,2.6660835E-2,1.1511065E-1],"categories":[],"categories_nodes":[],"categories_segments":[],"categories_sizes":[],"default_left":[0,0,0,0,0,0,0,0,0,0,0,0,0,0,0,0,0,0,0,0,0,0,0,0,0,0,0,0,0],"id":20,"left_children":[1,3,5,7,9,11,13,15,17,-1,19,21,23,25,27,-1,-1,-1,-1,-1,-1,-1,-1,-1,-1,-1,-1,-1,-1],"loss_changes":[1.4441646E2,4.902099E1,2.8866982E1,8.474434E0,1.7803991E1,2.5323006E1,2.234864E1,4.5779915E0,1.17365E1,0E0,1.4663514E1,9.780045E0,1.2950649E1,1.4804871E1,8.362919E0,0E0,0E0,0E0,0E0,0E0,0E0,0E0,0E0,0E0,0E0,0E0,0E0,0E0,0E0],"parents":[2147483647,0,0,1,1,2,2,3,3,4,4,5,5,6,6,7,7,8,8,10,10,11,11,12,12,13,13,14,14],"right_children":[2,4,6,8,10,12,14,16,18,-1,20,22,24,26,28,-1,-1,-1,-1,-1,-1,-1,-1,-1,-1,-1,-1,-1,-1],"split_conditions":[5.7E1,2E0,1E1,3.989E-1,8E0,5.397E-1,1.42E2,7E-1,3E0,8.682468E-2,1.84E2,1.762E-1,5E0,2.6113E0,7E-1,-9.193572E-3,-3.9261963E-2,9.624622E-2,-1.2628371E-2,1.2397288E-3,3.8326193E-2,2.178063E-2,1.5042327E-1,1.3827072E-2,6.9666535E-2,1.61834E-2,5.8447856E-2,2.6660835E-2,1.1511065E-1],"split_indices":[2,2,0,5,1,13,2,22,0,0,1,13,0,7,22,0,0,0,0,0,0,0,0,0,0,0,0,0,0],"split_type":[0,0,0,0,0,0,0,0,0,0,0,0,0,0,0,0,0,0,0,0,0,0,0,0,0,0,0,0,0],"sum_hessian":[2.0618599E3,1.7385027E3,3.2335724E2,9.691676E2,7.693351E2,5.3054413E1,2.7030283E2,6.465908E1,9.0450854E2,5.3252053E0,7.640099E2,1.0982856E1,4.2071556E1,2.5750876E2,1.2794075E1,1.8289557E1,4.6369526E1,1.4949901E0,9.0301355E2,7.3735345E2,2.6656435E1,2.1831923E0,8.799664E0,1.998219E1,2.2089365E1,2.3553088E2,2.1977875E1,4.897486E0,7.8965883E0],"tree_param":{"num_deleted":"0","num_feature":"24","num_nodes":"29","size_leaf_vector":"1"}},{"base_weights":[-1.2843704E-2,-2.6257163E-1,2.0429613E-1,-2.74195E-1,8.8396716E-1,1.5928206E-1,9.55883E-1,-4.7963387E-1,-2.3654273E-1,-1.0597654E-1,1.9504704E0,1.4483635E-2,2.9305848E-1,1.0801762E0,-5.471687E-1,-2.5330959E-2,1.6624553E-2,-8.667028E-3,-2.066078E-2,-1.5927527E-2,1.9002382E-2,3.5174444E-2,1.13608144E-1,6.888447E-2,-3.627671E-4,8.043733E-3,3.2460645E-2,-2.232743E-2,6.0987353E-2,2.0117428E-2,-4.9520917E-2],"categories":[],"categories_nodes":[],"categories_segments":[],"categories_sizes":[],"default_left":[0,0,0,0,0,0,0,0,0,0,0,0,0,0,0,0,0,0,0,0,0,0,0,0,0,0,0,0,0,0,0],"id":21,"left_children":[1,3,5,7,9,11,13,15,17,19,21,23,25,27,29,-1,-1,-1,-1,-1,-1,-1,-1,-1,-1,-1,-1,-1,-1,-1,-1],"loss_changes":[1.1081357E2,1.2908455E1,3.6830578E1,7.170494E0,1.0527296E1,1.9997118E1,1.2093571E1,3.3435516E0,8.836449E0,7.428309E-1,3.0989838E-1,1.4735654E1,2.5160164E1,1.2734062E1,2.6570606E0,0E0,0E0,0E0,0E0,0E0,0E0,0E0,0E0,0E0,0E0,0E0,0E0,0E0,0E0,0E0,0E0],"parents":[2147483647,0,0,1,1,2,2,3,3,4,4,5,5,6,6,7,7,8,8,9,9,10,10,11,11,12,12,13,13,14,14],"right_children":[2,4,6,8,10,12,14,16,18,20,22,24,26,28,30,-1,-1,-1,-1,-1,-1,-1,-1,-1,-1,-1,-1,-1,-1,-1,-1],"split_conditions":[2E0,2.3333E0,1.08E2,-7.6E1,1.3898E0,1.2164E0,1.7649E0,2E0,8E-1,4.6E1,1.1E1,8E0,2.177E0,5E0,5.074E-1,-2.5330959E-2,1.6624553E-2,-8.667028E-3,-2.066078E-2,-1.5927527E-2,1.9002382E-2,3.5174444E-2,1.13608144E-1,6.888447E-2,-3.627671E-4,8.043733E-3,3.2460645E-2,-2.232743E-2,6.0987353E-2,2.0117428E-2,-4.9520917E-2],"split_indices":[2,18,2,2,11,14,8,20,22,1,0,1,4,0,10,0,0,0,0,0,0,0,0,0,0,0,0,0,0,0,0],"split_type":[0,0,0,0,0,0,0,0,0,0,0,0,0,0,0,0,0,0,0,0,0,0,0,0,0,0,0,0,0,0,0],"sum_hessian":[2.0415656E3,9.494332E2,1.0921323E3,9.406579E2,8.775339E0,1.0315619E3,6.057041E1,1.4387988E2,7.96778E2,5.0180993E0,3.7572396E0,4.9590594E2,5.3565594E2,5.6204025E1,4.3663845E0,1.3961687E2,4.2630024E0,5.883024E2,2.0847562E2,3.7308874E0,1.2872119E0,1.4240414E0,2.333198E0,6.804992E0,4.8910095E2,3.9172287E2,1.4393309E2,4.523485E0,5.1680542E1,1.4189737E0,2.947411E0],"tree_param":{"num_deleted":"0","num_feature":"24","num_nodes":"31","size_leaf_vector":"1"}},{"base_weights":[2.6663246E-3,-1.8255025E-1,3.4369695E-1,-3.6096478E-1,-8.005759E-2,1.8093023E-1,6.4681584E-1,-6.5898603E-1,-3.2571238E-1,-1.5356292E-1,1.831166E-1,8.945928E-1,1.2241103E-1,1.429272E0,4.875888E-1,-3.847616E-2,1.7145248E-3,-2.1732932E-2,-1.08054485E-2,-1.055347E-2,1.1242504E-2,-2.1974383E-2,1.6949175E-2,8.10882E-2,5.7625654E-3,-1.7539172E-2,1.0068277E-2,2.515612E-2,9.964432E-2,5.1560014E-2,1.8440846E-2],"categories":[],"categories_nodes":[],"categories_segments":[],"categories_sizes":[],"default_left":[0,0,0,0,0,0,0,0,0,0,0,0,0,0,0,0,0,0,0,0,0,0,0,0,0,0,0,0,0,0,0],"id":22,"left_children":[1,3,5,7,9,11,13,15,17,19,21,23,25,27,29,-1,-1,-1,-1,-1,-1,-1,-1,-1,-1,-1,-1,-1,-1,-1,-1],"loss_changes":[1.27558304E2,2.3902344E1,3.4950287E1,4.79895E0,1.6132448E1,1.926144E1,3.0192352E1,3.8197536E0,5.02528E0,1.4220161E1,1.7831211E1,1.9643864E1,1.612975E1,2.0609993E1,1.3018784E1,0E0,0E0,0E0,0E0,0E0,0E0,0E0,0E0,0E0,0E0,0E0,0E0,0E0,0E0,0E0,0E0],"parents":[2147483647,0,0,1,1,2,2,3,3,4,4,5,5,6,6,7,7,8,8,9,9,10,10,11,11,12,12,13,13,14,14],"right_children":[2,4,6,8,10,12,14,16,18,20,22,24,26,28,30,-1,-1,-1,-1,-1,-1,-1,-1,-1,-1,-1,-1,-1,-1,-1,-1],"split_conditions":[2.4E1,-3.2E1,6.3E1,6.959E-1,1.6178E0,2.6E1,1.1E1,1.25E2,7.375E-1,1.5E0,5.818E-1,2.3E1,4.028E-1,6E-1,7.546E-1,-3.847616E-2,1.7145248E-3,-2.1732932E-2,-1.08054485E-2,-1.055347E-2,1.1242504E-2,-2.1974383E-2,1.6949175E-2,8.10882E-2,5.7625654E-3,-1.7539172E-2,1.0068277E-2,2.515612E-2,9.964432E-2,5.1560014E-2,1.8440846E-2],"split_indices":[2,2,2,8,9,2,0,0,3,18,5,0,5,22,3,0,0,0,0,0,0,0,0,0,0,0,0,0,0,0,0],"split_type":[0,0,0,0,0,0,0,0,0,0,0,0,0,0,0,0,0,0,0,0,0,0,0,0,0,0,0,0,0,0,0],"sum_hessian":[2.0174679E3,1.3077064E3,7.0976154E2,4.7621365E2,8.3149274E2,4.628307E2,2.4693082E2,4.850052E1,4.2771313E2,6.502832E2,1.8120952E2,3.3992527E1,4.2883817E2,4.0404263E1,2.0652655E2,4.173607E1,6.76445E0,2.1301227E2,2.1470085E2,5.648818E2,8.5401436E1,3.591777E1,1.4529175E2,1.7025658E1,1.6966871E1,6.0829372E1,3.680088E2,1.6001968E1,2.4402292E1,3.5654755E1,1.708718E2],"tree_param":{"num_deleted":"0","num_feature":"24","num_nodes":"31","size_leaf_vector":"1"}},{"base_weights":[1.7469732E-2,-1.6769725E-1,3.1066388E-1,6.274615E-2,-2.2268845E-1,2.4949513E-1,9.557288E-1,-1.912803E-1,3.31857E-1,-7.756463E-1,-2.0372406E-1,1.6613011E-1,5.263658E-1,6.92834E-1,1.807772E0,1.5862254E-2,-1.6038392E-2,1.3186532E-2,1.17758825E-1,-5.498308E-3,-4.966577E-2,6.1630723E-3,-1.1713001E-2,7.729863E-3,1.5169728E-1,5.234566E-2,6.311824E-3,-1.7574448E-2,4.3503594E-2,-5.2544165E-2,1.1271447E-1],"categories":[],"categories_nodes":[],"categories_segments":[],"categories_sizes":[],"default_left":[0,0,0,0,0,0,0,0,0,0,0,0,0,0,0,0,0,0,0,0,0,0,0,0,0,0,0,0,0,0,0],"id":23,"left_children":[1,3,5,7,9,11,13,15,17,19,21,23,25,27,29,-1,-1,-1,-1,-1,-1,-1,-1,-1,-1,-1,-1,-1,-1,-1,-1],"loss_changes":[1.1333444E2,1.6229118E1,3.1645523E1,1.6969143E1,1.0677364E1,1.697931E1,1.4345425E1,8.520332E0,1.598182E1,4.8036785E0,1.0017311E1,1.8375408E1,3.541262E1,1.0455671E1,2.2534016E1,0E0,0E0,0E0,0E0,0E0,0E0,0E0,0E0,0E0,0E0,0E0,0E0,0E0,0E0,0E0,0E0],"parents":[2147483647,0,0,1,1,2,2,3,3,4,4,5,5,6,6,7,7,8,8,9,9,10,10,11,11,12,12,13,13,14,14],"right_children":[2,4,6,8,10,12,14,16,18,20,22,24,26,28,30,-1,-1,-1,-1,-1,-1,-1,-1,-1,-1,-1,-1,-1,-1,-1,-1],"split_conditions":[2.1E1,1.02E0,1.06E2,1.3224E0,3E0,1.9232E0,2.3333E0,1.6E1,9E-1,7E-1,9E0,6E0,3.2E1,9.98E-1,1.92E-1,1.5862254E-2,-1.6038392E-2,1.3186532E-2,1.17758825E-1,-5.498308E-3,-4.966577E-2,6.1630723E-3,-1.1713001E-2,7.729863E-3,1.5169728E-1,5.234566E-2,6.311824E-3,-1.7574448E-2,4.3503594E-2,-5.2544165E-2,1.1271447E-1],"split_indices":[2,19,2,7,1,11,18,1,22,22,0,18,0,4,5,0,0,0,0,0,0,0,0,0,0,0,0,0,0,0,0],"split_type":[0,0,0,0,0,0,0,0,0,0,0,0,0,0,0,0,0,0,0,0,0,0,0,0,0,0,0,0,0,0,0],"sum_hessian":[2.08562E3,1.2785677E3,8.070524E2,2.4629886E2,1.0322689E3,7.384182E2,6.863424E1,1.2684915E2,1.1944971E2,3.2906E1,9.9936285E2,5.687647E2,1.696535E2,5.383637E1,1.4797869E1,2.5450306E1,1.0139884E2,1.16652306E2,2.7974052E0,8.479382E0,2.4426619E1,8.509636E1,9.1426654E2,5.6753625E2,1.2284257E0,7.30295E1,9.6624E1,7.668539E0,4.6167828E1,1.8162863E0,1.2981582E1],"tree_param":{"num_deleted":"0","num_feature":"24","num_nodes":"31","size_leaf_vector":"1"}},{"base_weights":[1.2251282E-2,-8.392494E-2,5.760917E-1,-2.2057842E-1,7.920053E-2,4.770224E-1,1.152765E0,-3.6053866E-1,-1.7906958E-1,5.124689E-2,9.126764E-1,7.855065E-1,2.7335533E-1,7.520917E-1,2.8072133E0,-2.0976919E-3,-2.1927224E-2,-7.6789553E-3,-2.6682144E-2,-1.7531047E-2,5.7643773E-3,9.621769E-3,7.094117E-2,1.3684668E-2,6.670929E-2,3.15826E-2,-2.9137065E-3,7.781177E-2,1.7389236E-2,-1.3479175E-2,1.7685036E-1],"categories":[],"categories_nodes":[],"categories_segments":[],"categories_sizes":[],"default_left":[0,0,0,0,0,0,0,0,0,0,0,0,0,0,0,0,0,0,0,0,0,0,0,0,0,0,0,0,0,0,0],"id":24,"left_children":[1,3,5,7,9,11,13,15,17,19,21,23,25,27,29,-1,-1,-1,-1,-1,-1,-1,-1,-1,-1,-1,-1,-1,-1,-1,-1],"loss_changes":[1.11171646E2,3.9060318E1,1.6516739E1,5.4738464E0,1.8571957E1,1.5909458E1,2.6453E1,5.376217E0,6.5814743E0,1.9966671E1,9.158758E0,2.8144981E1,1.8586735E1,1.1181074E1,1.8995693E1,0E0,0E0,0E0,0E0,0E0,0E0,0E0,0E0,0E0,0E0,0E0,0E0,0E0,0E0,0E0,0E0],"parents":[2147483647,0,0,1,1,2,2,3,3,4,4,5,5,6,6,7,7,8,8,9,9,10,10,11,11,12,12,13,13,14,14],"right_children":[2,4,6,8,10,12,14,16,18,20,22,24,26,28,30,-1,-1,-1,-1,-1,-1,-1,-1,-1,-1,-1,-1,-1,-1,-1,-1],"split_conditions":[5.8E1,2E0,1.21E2,5.808E-1,1E0,2E1,2.3333E0,6E-1,1.84E2,5.901E-1,1.001E0,2.137E0,1.2413E0,1.2014E0,5.933E-1,-2.0976919E-3,-2.1927224E-2,-7.6789553E-3,-2.6682144E-2,-1.7531047E-2,5.7643773E-3,9.621769E-3,7.094117E-2,1.3684668E-2,6.670929E-2,3.15826E-2,-2.9137065E-3,7.781177E-2,1.7389236E-2,-1.3479175E-2,1.7685036E-1],"split_indices":[2,2,2,11,22,0,18,22,0,8,10,4,3,11,8,0,0,0,0,0,0,0,0,0,0,0,0,0,0,0,0],"split_type":[0,0,0,0,0,0,0,0,0,0,0,0,0,0,0,0,0,0,0,0,0,0,0,0,0,0,0,0,0,0,0],"sum_hessian":[2.048185E3,1.7504551E3,2.9773007E2,9.523229E2,7.9813214E2,2.5563976E2,4.2090305E1,2.1607422E2,7.3624866E2,7.732596E2,2.4872581E1,1.0052415E2,1.5511562E2,3.5055237E1,7.035069E0,4.2802326E1,1.7327188E2,6.882063E2,4.8042397E1,1.0567198E2,6.675876E2,1.0834877E1,1.40377035E1,5.2784805E1,4.773934E1,7.412516E1,8.0990456E1,1.0775078E1,2.4280159E1,1.4696512E0,5.5654173E0],"tree_param":{"num_deleted":"0","num_feature":"24","num_nodes":"31","size_leaf_vector":"1"}},{"base_weights":[2.5768515E-2,3.488145E-1,-3.1302843E-2,2.5012287E-1,1.3105001E0,-6.550129E-2,5.392728E-1,3.7736878E-1,-3.7303224E-1,2.01227E0,1.9750954E-1,4.171922E-3,-2.2418176E-1,3.1670633E-1,1.5327661E0,1.5491231E-2,9.141161E-2,-4.8613947E-2,2.8279665E-4,7.4006826E-2,1.8360011E-1,1.02051854E-1,-1.0852772E-2,-1.0639324E-2,3.8719613E-3,-1.2685172E-2,2.7379662E-2,3.9880633E-2,-4.0995757E-4,-3.454157E-3,9.864213E-2],"categories":[],"categories_nodes":[],"categories_segments":[],"categories_sizes":[],"default_left":[0,0,0,0,0,0,0,0,0,0,0,0,0,0,0,0,0,0,0,0,0,0,0,0,0,0,0,0,0,0,0],"id":25,"left_children":[1,3,5,7,9,11,13,15,17,19,21,23,25,27,29,-1,-1,-1,-1,-1,-1,-1,-1,-1,-1,-1,-1,-1,-1,-1,-1],"loss_changes":[3.8283714E1,2.9261616E1,3.4478226E1,2.2658766E1,2.208192E1,1.8422308E1,2.1609304E1,2.2592655E1,1.1047286E1,1.0058182E1,9.796263E0,1.8437042E1,1.1722382E1,1.2958817E1,1.2844662E1,0E0,0E0,0E0,0E0,0E0,0E0,0E0,0E0,0E0,0E0,0E0,0E0,0E0,0E0,0E0,0E0],"parents":[2147483647,0,0,1,1,2,2,3,3,4,4,5,5,6,6,7,7,8,8,9,9,10,10,11,11,12,12,13,13,14,14],"right_children":[2,4,6,8,10,12,14,16,18,20,22,24,26,28,30,-1,-1,-1,-1,-1,-1,-1,-1,-1,-1,-1,-1,-1,-1,-1,-1],"split_conditions":[1.1E1,8.2E1,1.73E2,2.0435E0,1.21E2,7.7E1,1.7366E0,1.765E0,1.4398E0,3.3333E0,1.5404E0,2E1,2.5062E0,1.26E2,1.2603E0,1.5491231E-2,9.141161E-2,-4.8613947E-2,2.8279665E-4,7.4006826E-2,1.8360011E-1,1.02051854E-1,-1.0852772E-2,-1.0639324E-2,3.8719613E-3,-1.2685172E-2,2.7379662E-2,3.9880633E-2,-4.0995757E-4,-3.454157E-3,9.864213E-2],"split_indices":[0,1,1,10,1,0,7,5,12,18,14,1,14,0,14,0,0,0,0,0,0,0,0,0,0,0,0,0,0,0,0],"split_type":[0,0,0,0,0,0,0,0,0,0,0,0,0,0,0,0,0,0,0,0,0,0,0,0,0,0,0,0,0,0,0],"sum_hessian":[2.074906E3,3.107618E2,1.764144E3,2.8298135E2,2.7780464E1,1.6652213E3,9.892274E1,2.3532361E2,4.765775E1,1.6542192E1,1.1238272E1,1.1578207E3,5.0740067E2,8.189505E1,1.7027685E1,2.2601514E2,9.308468E0,1.7847649E1,2.9810102E1,1.3958647E1,2.5835457E0,1.3429573E0,9.895314E0,2.9181042E2,8.6601025E2,4.8935333E2,1.8047318E1,3.2433685E1,4.946137E1,3.8515E0,1.3176185E1],"tree_param":{"num_deleted":"0","num_feature":"24","num_nodes":"31","size_leaf_vector":"1"}},{"base_weights":[1.5318598E-2,-1.7927021E-1,2.7375883E-1,6.55689E-2,-2.370891E-1,2.0516486E-1,7.1047395E-1,-9.219532E-2,4.2739037E-1,-1.2554073E-1,-3.0750698E-1,1.716516E-1,9.0166897E-1,4.1680276E-1,1.5942888E0,-2.1823935E-2,2.4449322E-3,-3.9740207E-4,5.70808E-2,-2.1471178E-2,-4.63563E-4,-2.4994437E-2,-1.1931808E-2,-3.7533E-3,1.5739746E-2,8.686898E-2,-1.15708355E-2,-1.1463209E-2,4.046041E-2,1.1146992E-1,2.2684349E-2],"categories":[],"categories_nodes":[],"categories_segments":[],"categories_sizes":[],"default_left":[0,0,0,0,0,0,0,0,0,0,0,0,0,0,0,0,0,0,0,0,0,0,0,0,0,0,0,0,0,0,0],"id":26,"left_children":[1,3,5,7,9,11,13,15,17,19,21,23,25,27,29,-1,-1,-1,-1,-1,-1,-1,-1,-1,-1,-1,-1,-1,-1,-1,-1],"loss_changes":[1.02182106E2,1.6425194E1,2.599759E1,1.2724765E1,7.3289604E0,1.748395E1,2.9978931E1,7.578596E0,2.1044645E1,1.2880263E1,7.4897118E0,2.5529022E1,3.3028915E1,2.2995155E1,2.0062737E1,0E0,0E0,0E0,0E0,0E0,0E0,0E0,0E0,0E0,0E0,0E0,0E0,0E0,0E0,0E0,0E0],"parents":[2147483647,0,0,1,1,2,2,3,3,4,4,5,5,6,6,7,7,8,8,9,9,10,10,11,11,12,12,13,13,14,14],"right_children":[2,4,6,8,10,12,14,16,18,20,22,24,26,28,30,-1,-1,-1,-1,-1,-1,-1,-1,-1,-1,-1,-1,-1,-1,-1,-1],"split_conditions":[1.5E1,1.02E0,1.53E2,2E0,1.028E0,9E-1,1.8344E0,8.725E-1,1.6808E0,6.64E-1,1.3203E0,1.4473E0,1.3224E0,7E-1,7.515E-1,-2.1823935E-2,2.4449322E-3,-3.9740207E-4,5.70808E-2,-2.1471178E-2,-4.63563E-4,-2.4994437E-2,-1.1931808E-2,-3.7533E-3,1.5739746E-2,8.686898E-2,-1.15708355E-2,-1.1463209E-2,4.046041E-2,1.1146992E-1,2.2684349E-2],"split_indices":[2,19,1,2,5,22,7,8,4,8,5,7,7,22,9,0,0,0,0,0,0,0,0,0,0,0,0,0,0,0,0],"split_type":[0,0,0,0,0,0,0,0,0,0,0,0,0,0,0,0,0,0,0,0,0,0,0,0,0,0,0,0,0,0,0],"sum_hessian":[2.0298986E3,1.1581744E3,8.717242E2,2.2122864E2,9.369458E2,7.546609E2,1.170633E2,1.5457489E2,6.6653755E1,3.6365912E2,5.732866E2,7.212055E2,3.3455345E1,8.897168E1,2.8091625E1,4.4324684E1,1.102502E2,4.202645E1,2.4627302E1,9.989068E1,2.6376846E2,1.4947874E2,4.238079E2,2.649761E2,4.5622943E2,1.8947353E1,1.4507992E1,3.377664E1,5.5195034E1,1.7431078E1,1.0660546E1],"tree_param":{"num_deleted":"0","num_feature":"24","num_nodes":"31","size_leaf_vector":"1"}},{"base_weights":[-1.5514541E-2,-1.7368911E-1,2.4286596E-1,6.0588453E-2,-2.322817E-1,1.1152881E-1,4.9755448E-1,4.033525E-1,-1.3603444E-1,-2.7117065E-1,-2.1339184E-2,5.312863E-1,-2.9324687E-3,6.287694E-1,1.1145753E-1,9.390951E-3,5.2567966E-2,7.4211755E-3,-1.8221304E-2,-1.2656132E-2,-3.705957E-2,5.435083E-2,-3.3788295E-3,1.875562E-2,1.05135255E-1,-2.991766E-3,4.1920964E-2,2.5718877E-2,7.580797E-2,-6.1577387E-2,1.241347E-2],"categories":[],"categories_nodes":[],"categories_segments":[],"categories_sizes":[],"default_left":[0,0,0,0,0,0,0,0,0,0,0,0,0,0,0,0,0,0,0,0,0,0,0,0,0,0,0,0,0,0,0],"id":27,"left_children":[1,3,5,7,9,11,13,15,17,19,21,23,25,27,29,-1,-1,-1,-1,-1,-1,-1,-1,-1,-1,-1,-1,-1,-1,-1,-1],"loss_changes":[8.568422E1,1.7864388E1,2.6575005E1,1.764186E1,8.52924E0,2.5300184E1,1.36377945E1,1.3123633E1,1.0876134E1,7.263756E0,8.428858E0,2.6899834E1,1.9905333E1,1.9697777E1,1.3139299E1,0E0,0E0,0E0,0E0,0E0,0E0,0E0,0E0,0E0,0E0,0E0,0E0,0E0,0E0,0E0,0E0],"parents":[2147483647,0,0,1,1,2,2,3,3,4,4,5,5,6,6,7,7,8,8,9,9,10,10,11,11,12,12,13,13,14,14],"right_children":[2,4,6,8,10,12,14,16,18,20,22,24,26,28,30,-1,-1,-1,-1,-1,-1,-1,-1,-1,-1,-1,-1,-1,-1,-1,-1],"split_conditions":[2.1E1,1.02E0,6.3E1,2.2E1,2.0018E0,4.8E1,1.3752E0,3E0,7E-1,1.9946E0,4E0,1.825E0,1.41E2,1.1998E0,1.3894E0,9.390951E-3,5.2567966E-2,7.4211755E-3,-1.8221304E-2,-1.2656132E-2,-3.705957E-2,5.435083E-2,-3.3788295E-3,1.875562E-2,1.05135255E-1,-2.991766E-3,4.1920964E-2,2.5718877E-2,7.580797E-2,-6.1577387E-2,1.241347E-2],"split_indices":[2,19,2,1,4,1,5,2,22,4,0,11,0,5,5,0,0,0,0,0,0,0,0,0,0,0,0,0,0,0,0],"split_type":[0,0,0,0,0,0,0,0,0,0,0,0,0,0,0,0,0,0,0,0,0,0,0,0,0,0,0,0,0,0,0],"sum_hessian":[2.0945142E3,1.2993871E3,7.9512695E2,2.5995294E2,1.0394342E3,5.2555035E2,2.6957663E2,9.437746E1,1.6557547E2,8.77394E2,1.620402E2,1.1182374E2,4.137266E2,2.0073004E2,6.884657E1,7.178942E1,2.2588034E1,7.389305E1,9.168242E1,8.4643097E2,3.0963018E1,5.5877156E0,1.5645248E2,1.0284164E2,8.982103E0,3.883878E2,2.5338816E1,1.7920827E2,2.1521776E1,5.625217E0,6.322136E1],"tree_param":{"num_deleted":"0","num_feature":"24","num_nodes":"31","size_leaf_vector":"1"}},{"base_weights":[-7.195141E-3,-1.6627441E-1,2.3017173E-1,-2.6263618E-1,-7.802467E-2,1.6607644E-1,5.9450525E-1,-2.7154273E-1,5.571954E-1,-4.7042963E-1,-3.6346957E-2,2.242714E-1,-1.6525814E-1,3.500215E-1,1.3090705E0,-1.28958225E-2,-3.946119E-2,-7.0098224E-3,5.1178616E-2,-5.5721216E-4,-3.4482393E-2,-5.34402E-3,1.2770526E-2,5.4730214E-3,2.9023305E-2,-1.1847906E-2,9.809728E-2,1.1438382E-2,7.1838334E-2,5.2919853E-2,1.7791054E-1],"categories":[],"categories_nodes":[],"categories_segments":[],"categories_sizes":[],"default_left":[0,0,0,0,0,0,0,0,0,0,0,0,0,0,0,0,0,0,0,0,0,0,0,0,0,0,0,0,0,0,0],"id":28,"left_children":[1,3,5,7,9,11,13,15,17,19,21,23,25,27,29,-1,-1,-1,-1,-1,-1,-1,-1,-1,-1,-1,-1,-1,-1,-1,-1],"loss_changes":[7.60713E1,1.0236774E1,1.8778946E1,4.35841E0,1.0302866E1,1.3319317E1,2.0602283E1,3.8218422E0,2.264052E0,6.083894E0,1.1788272E1,2.391546E1,1.6248842E1,1.1687069E1,1.3354721E1,0E0,0E0,0E0,0E0,0E0,0E0,0E0,0E0,0E0,0E0,0E0,0E0,0E0,0E0,0E0,0E0],"parents":[2147483647,0,0,1,1,2,2,3,3,4,4,5,5,6,6,7,7,8,8,9,9,10,10,11,11,12,12,13,13,14,14],"right_children":[2,4,6,8,10,12,14,16,18,20,22,24,26,28,30,-1,-1,-1,-1,-1,-1,-1,-1,-1,-1,-1,-1,-1,-1,-1,-1],"split_conditions":[1.7E1,-2.2E1,1.53E2,3.7555E0,3.989E-1,1.9484E0,1.7607E0,-2.3E1,-6E1,1.3155E0,1.6377E0,2.137E0,4.0041E0,1.4972E0,3.4827E0,-1.28958225E-2,-3.946119E-2,-7.0098224E-3,5.1178616E-2,-5.5721216E-4,-3.4482393E-2,-5.34402E-3,1.2770526E-2,5.4730214E-3,2.9023305E-2,-1.1847906E-2,9.809728E-2,1.1438382E-2,7.1838334E-2,5.2919853E-2,1.7791054E-1],"split_indices":[2,2,1,4,5,3,7,2,2,4,9,4,4,9,11,0,0,0,0,0,0,0,0,0,0,0,0,0,0,0,0],"split_type":[0,0,0,0,0,0,0,0,0,0,0,0,0,0,0,0,0,0,0,0,0,0,0,0,0,0,0,0,0,0,0],"sum_hessian":[2.0125785E3,1.205184E3,8.073945E2,5.751688E2,6.300152E2,6.878419E2,1.1955259E2,5.69649E2,5.5198073E0,5.950213E1,5.7051306E2,5.853545E2,1.024874E2,9.018591E1,2.9366674E1,5.5649915E2,1.3149832E1,2.492326E0,3.0274816E0,1.95641E1,3.9938026E1,4.599517E2,1.10561356E2,4.4365884E2,1.4169566E2,1.0000521E2,2.4821904E0,8.222243E1,7.963483E0,2.774499E1,1.6216842E0],"tree_param":{"num_deleted":"0","num_feature":"24","num_nodes":"31","size_leaf_vector":"1"}},{"base_weights":[1.3889326E-2,-1.2921427E-1,2.5615546E-1,5.2547783E-2,-1.7319846E-1,2.1012077E-1,9.1571236E-1,-6.505383E-2,4.3183848E-1,-7.807813E-2,-2.3575157E-1,-4.237527E-1,2.3732202E-1,5.370133E-1,1.924699E0,-1.6345754E-2,5.656109E-3,-8.700966E-3,5.1793672E-2,7.3870034E-3,-8.350278E-3,-1.2515743E-2,3.084418E-2,-6.210294E-3,-4.1704472E-2,3.0328638E-3,1.825062E-2,-3.0412478E-3,4.5824613E-2,1.1886581E-1,-1.0165576E-2],"categories":[],"categories_nodes":[],"categories_segments":[],"categories_sizes":[],"default_left":[0,0,0,0,0,0,0,0,0,0,0,0,0,0,0,0,0,0,0,0,0,0,0,0,0,0,0,0,0,0,0],"id":29,"left_children":[1,3,5,7,9,11,13,15,17,19,21,23,25,27,29,-1,-1,-1,-1,-1,-1,-1,-1,-1,-1,-1,-1,-1,-1,-1,-1],"loss_changes":[7.147763E1,1.03715725E1,2.3052425E1,1.1327159E1,6.19265E0,1.2461922E1,1.7937992E1,9.099213E0,2.2168386E1,8.37096E0,7.9678E0,3.5664454E0,1.5499569E1,8.560513E0,1.3161247E1,0E0,0E0,0E0,0E0,0E0,0E0,0E0,0E0,0E0,0E0,0E0,0E0,0E0,0E0,0E0,0E0],"parents":[2147483647,0,0,1,1,2,2,3,3,4,4,5,5,6,6,7,7,8,8,9,9,10,10,11,11,12,12,13,13,14,14],"right_children":[2,4,6,8,10,12,14,16,18,20,22,24,26,28,30,-1,-1,-1,-1,-1,-1,-1,-1,-1,-1,-1,-1,-1,-1,-1,-1],"split_conditions":[2.1E1,1.02E0,1.84E2,1.6415E0,1.028E0,2.939E-1,1.7607E0,6.667E-1,-2.3E1,1.1826E0,1.8115E0,1.9721E0,1.5016E0,7E-1,1.9136E0,-1.6345754E-2,5.656109E-3,-8.700966E-3,5.1793672E-2,7.3870034E-3,-8.350278E-3,-1.2515743E-2,3.084418E-2,-6.210294E-3,-4.1704472E-2,3.0328638E-3,1.825062E-2,-3.0412478E-3,4.5824613E-2,1.1886581E-1,-1.0165576E-2],"split_indices":[2,19,1,9,5,8,7,19,2,3,3,4,7,22,3,0,0,0,0,0,0,0,0,0,0,0,0,0,0,0,0],"split_type":[0,0,0,0,0,0,0,0,0,0,0,0,0,0,0,0,0,0,0,0,0,0,0,0,0,0,0,0,0,0,0],"sum_hessian":[2.0597517E3,1.2951748E3,7.6457697E2,2.5231277E2,1.042862E3,7.1592645E2,4.8650528E1,1.9322925E2,5.908353E1,4.1462207E2,6.282399E2,2.8858377E1,6.8706805E2,3.6487896E1,1.2162632E1,7.7902664E1,1.1532658E2,2.9852673E1,2.9230858E1,1.1695941E2,2.9766266E2,6.1838416E2,9.855785E0,1.7434118E1,1.1424258E1,2.8887415E2,3.981939E2,1.4493803E1,2.1994093E1,9.932816E0,2.229816E0],"tree_param":{"num_deleted":"0","num_feature":"24","num_nodes":"31","size_leaf_vector":"1"}},{"base_weights":[-1.586651E-2,-5.16353E-2,5.8933604E-1,1.3114767E-1,-1.15105435E-1,9.6028674E-1,1.3561285E-1,6.211564E-2,8.8538945E-1,-1.757334E-1,3.609442E-2,5.672739E-1,1.5851648E0,-1.6155459E-1,7.8342E-1,6.28801E-3,-2.3560995E-2,7.480109E-2,2.0719271E-2,-7.477704E-3,-2.746788E-2,4.1258976E-2,3.603369E-4,9.177736E-2,4.940996E-3,9.644794E-2,-5.1226467E-2,-1.838759E-2,2.9556895E-2,4.4892155E-4,6.698986E-2],"categories":[],"categories_nodes":[],"categories_segments":[],"categories_sizes":[],"default_left":[0,0,0,0,0,0,0,0,0,0,0,0,0,0,0,0,0,0,0,0,0,0,0,0,0,0,0,0,0,0,0],"id":30,"left_children":[1,3,5,7,9,11,13,15,17,19,21,23,25,27,29,-1,-1,-1,-1,-1,-1,-1,-1,-1,-1,-1,-1,-1,-1,-1,-1],"loss_changes":[4.452903E1,2.2542667E1,1.9190308E1,2.6028366E1,1.3223803E1,1.4570778E1,1.0290874E1,1.5674437E1,1.1439655E1,9.986174E0,9.419942E0,2.3719202E1,2.3297611E1,5.9637394E0,7.2159834E0,0E0,0E0,0E0,0E0,0E0,0E0,0E0,0E0,0E0,0E0,0E0,0E0,0E0,0E0,0E0,0E0],"parents":[2147483647,0,0,1,1,2,2,3,3,4,4,5,5,6,6,7,7,8,8,9,9,10,10,11,11,12,12,13,13,14,14],"right_children":[2,4,6,8,10,12,14,16,18,20,22,24,26,28,30,-1,-1,-1,-1,-1,-1,-1,-1,-1,-1,-1,-1,-1,-1,-1,-1],"split_conditions":[2.5E0,1.9E1,1.037E0,2E0,9.3E1,1.9985E0,1.7236E0,2.2474E0,9.813E-1,1.752E0,9.6E1,1.7789E0,2.0666E0,2.2938E0,1.3793E0,6.28801E-3,-2.3560995E-2,7.480109E-2,2.0719271E-2,-7.477704E-3,-2.746788E-2,4.1258976E-2,3.603369E-4,9.177736E-2,4.940996E-3,9.644794E-2,-5.1226467E-2,-1.838759E-2,2.9556895E-2,4.4892155E-4,6.698986E-2],"split_indices":[18,0,5,14,1,11,5,13,5,6,1,4,6,14,10,0,0,0,0,0,0,0,0,0,0,0,0,0,0,0,0],"split_type":[0,0,0,0,0,0,0,0,0,0,0,0,0,0,0,0,0,0,0,0,0,0,0,0,0,0,0,0,0,0,0],"sum_hessian":[2.054613E3,1.940821E3,1.1379206E2,4.9995914E2,1.4408618E3,6.1992424E1,5.1799633E1,4.5902887E2,4.0930294E1,1.028352E3,4.1250983E2,3.9228035E1,2.2764393E1,3.60247E1,1.5774933E1,4.107741E2,4.8254734E1,1.687565E1,2.4054644E1,9.623236E2,6.602839E1,1.3594782E1,3.9891507E2,9.793959E0,2.9434074E1,2.0345041E1,2.4193501E0,2.8679485E1,7.345216E0,7.0198655E0,8.755068E0],"tree_param":{"num_deleted":"0","num_feature":"24","num_nodes":"31","size_leaf_vector":"1"}},{"base_weights":[-4.4132746E-3,-3.8975704E-2,3.9557812E-1,1.3458277E-1,-1.2387524E-1,1.8575835E-1,1.1052722E0,3.4693077E-2,5.136032E-1,-1.4192861E-1,3.4583107E-1,6.160414E-1,-9.455536E-2,-7.9412764E-1,1.3222281E0,2.7724823E-2,-1.5119319E-3,9.397016E-3,4.1685484E-2,-5.535211E-3,-1.6873829E-2,-2.2903123E-4,6.4463966E-2,7.885614E-2,9.530543E-3,-9.694314E-3,4.5117047E-2,-1.6469602E-3,-5.518942E-2,1.4613321E-1,5.0081886E-2],"categories":[],"categories_nodes":[],"categories_segments":[],"categories_sizes":[],"default_left":[0,0,0,0,0,0,0,0,0,0,0,0,0,0,0,0,0,0,0,0,0,0,0,0,0,0,0,0,0,0,0],"id":31,"left_children":[1,3,5,7,9,11,13,15,17,19,21,23,25,27,29,-1,-1,-1,-1,-1,-1,-1,-1,-1,-1,-1,-1,-1,-1,-1,-1],"loss_changes":[2.8578447E1,2.8052631E1,2.4277685E1,2.3662949E1,1.0887899E1,1.5509118E1,1.6427246E1,1.6760677E1,1.3435856E1,7.482588E0,1.5742445E1,2.0415405E1,7.941832E0,1.0125835E0,1.4448383E1,0E0,0E0,0E0,0E0,0E0,0E0,0E0,0E0,0E0,0E0,0E0,0E0,0E0,0E0,0E0,0E0],"parents":[2147483647,0,0,1,1,2,2,3,3,4,4,5,5,6,6,7,7,8,8,9,9,10,10,11,11,12,12,13,13,14,14],"right_children":[2,4,6,8,10,12,14,16,18,20,22,24,26,28,30,-1,-1,-1,-1,-1,-1,-1,-1,-1,-1,-1,-1,-1,-1,-1,-1],"split_conditions":[1.53E2,2.2E1,1.7366E0,6.5E1,2.5E0,1.1E2,6.315E-1,1.1591E0,2.1558E0,1.3E2,1.0621E0,1.2424E0,3.5087E0,1.7E2,1.915E-1,2.7724823E-2,-1.5119319E-3,9.397016E-3,4.1685484E-2,-5.535211E-3,-1.6873829E-2,-2.2903123E-4,6.4463966E-2,7.885614E-2,9.530543E-3,-9.694314E-3,4.5117047E-2,-1.6469602E-3,-5.518942E-2,1.4613321E-1,5.0081886E-2],"split_indices":[1,0,7,1,18,0,8,7,4,0,9,14,14,1,10,0,0,0,0,0,0,0,0,0,0,0,0,0,0,0,0],"split_type":[0,0,0,0,0,0,0,0,0,0,0,0,0,0,0,0,0,0,0,0,0,0,0,0,0,0,0,0,0,0,0],"sum_hessian":[2.0650906E3,1.9016736E3,1.6341711E2,6.2447864E2,1.2771948E3,1.2710153E2,3.631559E1,4.9509055E2,1.293881E2,1.2305942E3,4.6600616E1,4.9666107E1,7.7435425E1,3.450133E0,3.286546E1,5.4139927E1,4.4095062E2,6.4924126E1,6.4463974E1,1.0625037E3,1.680906E2,3.4705563E1,1.1895054E1,1.4408665E1,3.5257442E1,7.11514E1,6.284026E0,1.3176185E0,2.1325147E0,4.130227E0,2.8735231E1],"tree_param":{"num_deleted":"0","num_feature":"24","num_nodes":"31","size_leaf_vector":"1"}},{"base_weights":[2.2850982E-3,-1.2135256E-1,2.018132E-1,-4.3976578E-1,-9.524522E-2,1.672232E-1,7.2466964E-1,3.0755933E-2,-5.14462E-1,-2.0253943E-1,-5.6926636E-3,-5.4382485E-1,1.9068368E-1,4.2449582E-1,1.5487303E0,-3.2793105E-2,2.2466188E-2,-2.7557153E-2,1.8586425E-2,-8.10312E-3,-2.7401796E-2,-1.9838972E-2,2.048249E-3,-3.6306582E-2,8.609217E-2,2.5353929E-2,6.681103E-3,5.283549E-2,3.7337614E-3,4.5825407E-2,1.423903E-1],"categories":[],"categories_nodes":[],"categories_segments":[],"categories_sizes":[],"default_left":[0,0,0,0,0,0,0,0,0,0,0,0,0,0,0,0,0,0,0,0,0,0,0,0,0,0,0,0,0,0,0],"id":32,"left_children":[1,3,5,7,9,11,13,15,17,19,21,23,25,27,29,-1,-1,-1,-1,-1,-1,-1,-1,-1,-1,-1,-1,-1,-1,-1,-1],"loss_changes":[5.064289E1,1.0494703E1,1.4083117E1,3.3818684E0,1.1266917E1,1.2413969E1,1.1323339E1,4.336834E0,2.8934155E0,7.371786E0,1.1698806E1,1.10933E1,1.2843168E1,8.077473E0,7.7010307E0,0E0,0E0,0E0,0E0,0E0,0E0,0E0,0E0,0E0,0E0,0E0,0E0,0E0,0E0,0E0,0E0],"parents":[2147483647,0,0,1,1,2,2,3,3,4,4,5,5,6,6,7,7,8,8,9,9,10,10,11,11,12,12,13,13,14,14],"right_children":[2,4,6,8,10,12,14,16,18,20,22,24,26,28,30,-1,-1,-1,-1,-1,-1,-1,-1,-1,-1,-1,-1,-1,-1,-1,-1],"split_conditions":[2.1E1,3.946E-1,1.84E2,7.855E-1,-2.2E1,4.907E-1,1.7607E0,3.875E-1,2E0,1.4117E0,5.902E-1,9.3E1,4.7E1,1.99E2,2.07E2,-3.2793105E-2,2.2466188E-2,-2.7557153E-2,1.8586425E-2,-8.10312E-3,-2.7401796E-2,-1.9838972E-2,2.048249E-3,-3.6306582E-2,8.609217E-2,2.5353929E-2,6.681103E-3,5.283549E-2,3.7337614E-3,4.5825407E-2,1.423903E-1],"split_indices":[2,5,1,12,2,14,7,9,20,6,10,2,1,1,1,0,0,0,0,0,0,0,0,0,0,0,0,0,0,0,0],"split_type":[0,0,0,0,0,0,0,0,0,0,0,0,0,0,0,0,0,0,0,0,0,0,0,0,0,0,0,0,0,0,0],"sum_hessian":[2.0508877E3,1.2664954E3,7.8439246E2,9.477274E1,1.1717225E3,7.369582E2,4.7434265E1,1.3064693E1,8.170805E1,5.324841E2,6.392385E2,2.2830273E1,7.1412787E2,3.5879765E1,1.1554501E1,4.7332907E0,8.331403E0,7.882348E1,2.8845708E0,4.7795746E2,5.4526596E1,6.733436E1,5.719042E2,2.1758947E1,1.0713251E0,1.0790889E2,6.06219E2,1.2061276E1,2.3818487E1,8.919263E0,2.6352367E0],"tree_param":{"num_deleted":"0","num_feature":"24","num_nodes":"31","size_leaf_vector":"1"}},{"base_weights":[-8.2091085E-4,-1.19670525E-1,1.9258852E-1,-1.3493086E-1,5.4776335E-1,1.3689433E-1,6.530622E-1,-3.309129E-2,-2.1600467E-1,1.0483922E0,-2.6727387E-1,2.705241E-1,-4.00448E-2,-5.325766E-1,7.751898E-1,1.23051945E-2,-5.7176747E-3,-2.17439E-2,-7.3940805E-3,3.639505E-2,1.0356969E-1,-3.938328E-2,-1.1798609E-3,7.882159E-2,1.0458636E-2,2.0311173E-2,-7.542631E-3,1.014427E-2,-4.4878725E-2,1.52104525E-2,5.2698642E-2],"categories":[],"categories_nodes":[],"categories_segments":[],"categories_sizes":[],"default_left":[0,0,0,0,0,0,0,0,0,0,0,0,0,0,0,0,0,0,0,0,0,0,0,0,0,0,0,0,0,0,0],"id":33,"left_children":[1,3,5,7,9,11,13,15,17,19,21,23,25,27,29,-1,-1,-1,-1,-1,-1,-1,-1,-1,-1,-1,-1,-1,-1,-1,-1],"loss_changes":[4.7877296E1,1.3213684E1,2.0241318E1,1.041292E1,1.21273365E1,1.6762386E1,1.2760216E1,1.2746207E1,1.0409866E1,4.456011E0,1.4834474E0,3.2019894E1,1.5178737E1,2.4789045E0,9.883629E0,0E0,0E0,0E0,0E0,0E0,0E0,0E0,0E0,0E0,0E0,0E0,0E0,0E0,0E0,0E0,0E0],"parents":[2147483647,0,0,1,1,2,2,3,3,4,4,5,5,6,6,7,7,8,8,9,9,10,10,11,11,12,12,13,13,14,14],"right_children":[2,4,6,8,10,12,14,16,18,20,22,24,26,28,30,-1,-1,-1,-1,-1,-1,-1,-1,-1,-1,-1,-1,-1,-1,-1,-1],"split_conditions":[2.1E1,1E0,2.5E0,7E-1,1E1,1.3918E0,5E0,1.02E0,5.808E-1,9E0,8E0,3.3E1,5.759E-1,1.4206E0,1.3595E0,1.23051945E-2,-5.7176747E-3,-2.17439E-2,-7.3940805E-3,3.639505E-2,1.0356969E-1,-3.938328E-2,-1.1798609E-3,7.882159E-2,1.0458636E-2,2.0311173E-2,-7.542631E-3,1.014427E-2,-4.4878725E-2,1.52104525E-2,5.2698642E-2],"split_indices":[2,22,18,22,0,6,0,19,11,0,1,1,9,11,6,0,0,0,0,0,0,0,0,0,0,0,0,0,0,0,0],"split_type":[0,0,0,0,0,0,0,0,0,0,0,0,0,0,0,0,0,0,0,0,0,0,0,0,0,0,0,0,0,0,0],"sum_hessian":[2.080829E3,1.2890763E3,7.9175287E2,1.2610414E3,2.8034864E1,7.074805E2,8.427234E1,5.595632E2,7.014783E2,1.7189852E1,1.0845013E1,4.027686E2,3.047119E2,7.556035E0,7.67163E1,1.2569167E2,4.3387146E2,1.6522884E2,5.362494E2,1.43924465E1,2.7974052E0,2.7467275E0,8.098286E0,1.6964844E1,3.8580374E2,6.0079853E1,2.4463206E2,2.6534808E0,4.902554E0,2.930282E1,4.7413483E1],"tree_param":{"num_deleted":"0","num_feature":"24","num_nodes":"31","size_leaf_vector":"1"}},{"base_weights":[1.5404546E-2,-4.1712433E-2,3.141881E-1,2.1779472E-1,-8.3102465E-2,6.8520315E-2,4.871199E-1,2.4269934E0,1.5618156E-1,-1.8165213E-1,3.8760975E-2,4.378586E-1,-1.9326954E-1,2.3636852E-1,9.2115533E-1,3.2585185E-2,1.408236E-1,5.6597423E-2,2.1499612E-3,4.5124325E-3,-1.125536E-2,7.2401464E-3,-6.1356826E-3,-1.1465355E-2,3.70658E-2,-1.818815E-2,6.1936576E-2,6.5624565E-2,8.556757E-3,8.080142E-2,2.5420522E-2],"categories":[],"categories_nodes":[],"categories_segments":[],"categories_sizes":[],"default_left":[0,0,0,0,0,0,0,0,0,0,0,0,0,0,0,0,0,0,0,0,0,0,0,0,0,0,0,0,0,0,0],"id":34,"left_children":[1,3,5,7,9,11,13,15,17,19,21,23,25,27,29,-1,-1,-1,-1,-1,-1,-1,-1,-1,-1,-1,-1,-1,-1,-1,-1],"loss_changes":[3.4785202E1,1.8400667E1,1.3863735E1,3.170256E1,1.7742155E1,1.3263499E1,2.0658333E1,2.5386772E0,2.5393011E1,9.669388E0,1.1337779E1,1.167836E1,2.0094162E1,8.404388E0,1.9223843E1,0E0,0E0,0E0,0E0,0E0,0E0,0E0,0E0,0E0,0E0,0E0,0E0,0E0,0E0,0E0,0E0],"parents":[2147483647,0,0,1,1,2,2,3,3,4,4,5,5,6,6,7,7,8,8,9,9,10,10,11,11,12,12,13,13,14,14],"right_children":[2,4,6,8,10,12,14,16,18,20,22,24,26,28,30,-1,-1,-1,-1,-1,-1,-1,-1,-1,-1,-1,-1,-1,-1,-1,-1],"split_conditions":[4E-1,1.1E1,1.2708E0,3.756E-1,6E1,2E0,1.8835E0,1.2E1,5.846E-1,1.02E0,9.2E1,6E-1,1.587E0,1.3212E0,2.1378E0,3.2585185E-2,1.408236E-1,5.6597423E-2,2.1499612E-3,4.5124325E-3,-1.125536E-2,7.2401464E-3,-6.1356826E-3,-1.1465355E-2,3.70658E-2,-1.818815E-2,6.1936576E-2,6.5624565E-2,8.556757E-3,8.080142E-2,2.5420522E-2],"split_indices":[15,0,14,6,1,18,7,1,12,19,0,22,5,14,7,0,0,0,0,0,0,0,0,0,0,0,0,0,0,0,0],"split_type":[0,0,0,0,0,0,0,0,0,0,0,0,0,0,0,0,0,0,0,0,0,0,0,0,0,0,0,0,0,0,0],"sum_hessian":[2.0365536E3,1.710438E3,3.2611563E2,2.3469368E2,1.4757443E3,1.3530167E2,1.9081395E2,5.326219E0,2.2936746E2,8.156478E2,6.6009644E2,5.5843708E1,7.945796E1,1.2192177E2,6.889219E1,1.4392447E0,3.8869743E0,2.2904263E1,2.064632E2,1.1224538E2,7.0340247E2,3.9850052E2,2.6159592E2,1.7535473E1,3.8308235E1,7.167084E1,7.7871246E0,5.8755646E0,1.160462E2,2.4585747E1,4.430644E1],"tree_param":{"num_deleted":"0","num_feature":"24","num_nodes":"31","size_leaf_vector":"1"}},{"base_weights":[-2.9193403E-3,-5.576615E-2,3.155512E-1,-7.2430946E-2,4.0435916E-1,-5.458573E-1,3.658933E-1,-3.6441572E-2,-2.6017454E-1,-7.12919E-2,1.0288776E0,1.7973524E-2,-7.1043956E-1,-1.272042E-1,4.5794994E-1,-1.8463267E-2,-4.5546933E-4,-1.5547725E-3,-1.8472515E-2,4.9613006E-2,-1.5146156E-2,-3.0932987E-2,6.324595E-2,5.883507E-3,-4.6341956E-2,8.452058E-3,-4.2637456E-2,1.9901318E-2,9.704414E-2],"categories":[],"categories_nodes":[],"categories_segments":[],"categories_sizes":[],"default_left":[0,0,0,0,0,0,0,0,0,0,0,0,0,0,0,0,0,0,0,0,0,0,0,0,0,0,0,0,0],"id":35,"left_children":[1,3,5,7,9,11,13,15,17,19,21,-1,23,25,27,-1,-1,-1,-1,-1,-1,-1,-1,-1,-1,-1,-1,-1,-1],"loss_changes":[3.5215965E1,1.378998E1,1.3113928E1,1.1698045E1,1.8750961E1,2.7652078E0,1.2857113E1,1.3233856E1,6.961607E0,9.323804E0,1.137933E1,0E0,2.723484E0,9.846556E0,2.0360523E1,0E0,0E0,0E0,0E0,0E0,0E0,0E0,0E0,0E0,0E0,0E0,0E0,0E0,0E0],"parents":[2147483647,0,0,1,1,2,2,3,3,4,4,5,5,6,6,7,7,8,8,9,9,10,10,12,12,13,13,14,14],"right_children":[2,4,6,8,10,12,14,16,18,20,22,-1,24,26,28,-1,-1,-1,-1,-1,-1,-1,-1,-1,-1,-1,-1,-1,-1],"split_conditions":[5.7E1,2.5E0,2.939E-1,2.1417E0,6.7E1,9.3E1,1.452E-1,-7.6E1,-4.1E1,7.039E-1,9.583E-1,1.7973524E-2,1.4336E0,1.8022E0,5E0,-1.8463267E-2,-4.5546933E-4,-1.5547725E-3,-1.8472515E-2,4.9613006E-2,-1.5146156E-2,-3.0932987E-2,6.324595E-2,5.883507E-3,-4.6341956E-2,8.452058E-3,-4.2637456E-2,1.9901318E-2,9.704414E-2],"split_indices":[2,18,8,13,1,1,9,2,2,8,4,0,3,4,18,0,0,0,0,0,0,0,0,0,0,0,0,0,0],"split_type":[0,0,0,0,0,0,0,0,0,0,0,0,0,0,0,0,0,0,0,0,0,0,0,0,0,0,0,0,0],"sum_hessian":[2.0903875E3,1.7935857E3,2.9680167E2,1.7317094E3,6.1876373E1,1.5844361E1,2.809573E2,1.454151E3,2.7755835E2,3.5627388E1,2.6248985E1,2.2551546E0,1.3589207E1,4.4140217E1,2.3681708E2,1.0940591E2,1.3447451E3,9.005567E1,1.8750267E2,5.7843447E0,2.9843042E1,3.0862677E0,2.3162718E1,2.9099095E0,1.0679297E1,3.1887379E1,1.2252838E1,2.288384E2,7.9786863E0],"tree_param":{"num_deleted":"0","num_feature":"24","num_nodes":"29","size_leaf_vector":"1"}},{"base_weights":[4.4856148E-5,-1.0085155E-1,1.9184323E-1,1.5368272E-1,-1.6506007E-1,1.6872188E-1,1.2061552E0,-2.6693326E-1,2.5249365E-1,-5.732133E-1,-1.5064257E-1,1.1766204E0,1.4404845E-1,1.4505938E0,-3.3642184E-2,4.536562E-2,-1.921559E-2,2.547021E-2,1.1454213E-3,-3.951422E-3,-3.9610956E-2,-8.782583E-3,6.3650287E-3,1.08281456E-1,-6.382493E-3,7.8744525E-3,-4.9777698E-2,1.570339E-1,3.8605306E-2],"categories":[],"categories_nodes":[],"categories_segments":[],"categories_sizes":[],"default_left":[0,0,0,0,0,0,0,0,0,0,0,0,0,0,0,0,0,0,0,0,0,0,0,0,0,0,0,0,0],"id":36,"left_children":[1,3,5,7,9,11,13,15,17,19,21,23,25,27,-1,-1,-1,-1,-1,-1,-1,-1,-1,-1,-1,-1,-1,-1,-1],"loss_changes":[3.9878307E1,2.2094488E1,1.6455978E1,1.1394403E1,6.261978E0,1.713109E1,8.172859E0,7.5615177E0,1.3035662E1,3.8824644E0,7.274872E0,2.1539778E1,1.0575435E1,1.3837887E1,0E0,0E0,0E0,0E0,0E0,0E0,0E0,0E0,0E0,0E0,0E0,0E0,0E0,0E0,0E0],"parents":[2147483647,0,0,1,1,2,2,3,3,4,4,5,5,6,6,7,7,8,8,9,9,10,10,11,11,12,12,13,13],"right_children":[2,4,6,8,10,12,14,16,18,20,22,24,26,28,-1,-1,-1,-1,-1,-1,-1,-1,-1,-1,-1,-1,-1,-1,-1],"split_conditions":[2.4E1,1.02E0,3.2128E0,5.808E-1,3E0,3.2E1,1.8002E0,5E-1,3.3E1,7.615E-1,2E0,1.4989E0,2.4732E0,1.1568E0,-3.3642184E-2,4.536562E-2,-1.921559E-2,2.547021E-2,1.1454213E-3,-3.951422E-3,-3.9610956E-2,-8.782583E-3,6.3650287E-3,1.08281456E-1,-6.382493E-3,7.8744525E-3,-4.9777698E-2,1.570339E-1,3.8605306E-2],"split_indices":[2,19,14,11,1,1,3,22,1,6,20,6,8,5,0,0,0,0,0,0,0,0,0,0,0,0,0,0,0],"split_type":[0,0,0,0,0,0,0,0,0,0,0,0,0,0,0,0,0,0,0,0,0,0,0,0,0,0,0,0,0],"sum_hessian":[2.0587063E3,1.3493492E3,7.093571E2,2.7153632E2,1.0778129E3,6.946879E2,1.46691475E1,5.1330864E1,2.2020546E2,3.545103E1,1.0423618E3,1.5484043E1,6.792039E2,1.3182265E1,1.4868817E0,4.053197E0,4.7277668E1,1.03343346E2,1.16862114E2,1.13041525E1,2.4146877E1,9.5665125E2,8.571057E1,8.430731E0,7.053313E0,6.721384E2,7.0654755E0,2.736592E0,1.0445673E1],"tree_param":{"num_deleted":"0","num_feature":"24","num_nodes":"29","size_leaf_vector":"1"}},{"base_weights":[-1.2112551E-2,-1.070132E-1,1.4440866E-1,-2.705898E-1,-6.556422E-2,8.374683E-2,4.8490813E-1,-3.7995037E-1,-1.9064613E-2,-2.0486993E-1,1.4558037E-2,2.2258559E-1,-3.4803882E-2,3.8077945E-1,1.9537708E0,-1.3455029E-2,-3.0897707E-2,5.5454858E-2,-4.924725E-3,5.180272E-2,-1.1182289E-2,2.3278393E-2,-1.5042548E-3,9.021965E-3,8.042102E-2,-7.62178E-3,1.446285E-2,2.4210922E-2,-2.1073444E-2,8.296811E-3,1.1922629E-1],"categories":[],"categories_nodes":[],"categories_segments":[],"categories_sizes":[],"default_left":[0,0,0,0,0,0,0,0,0,0,0,0,0,0,0,0,0,0,0,0,0,0,0,0,0,0,0,0,0,0,0],"id":37,"left_children":[1,3,5,7,9,11,13,15,17,19,21,23,25,27,29,-1,-1,-1,-1,-1,-1,-1,-1,-1,-1,-1,-1,-1,-1,-1,-1],"loss_changes":[3.0273903E1,8.58439E0,1.5850079E1,7.039322E0,1.1315836E1,1.0775529E1,1.7017506E1,4.542795E0,7.1599345E0,8.856212E0,1.2988708E1,1.7316986E1,1.3528919E1,9.305761E0,5.3379936E0,0E0,0E0,0E0,0E0,0E0,0E0,0E0,0E0,0E0,0E0,0E0,0E0,0E0,0E0,0E0,0E0],"parents":[2147483647,0,0,1,1,2,2,3,3,4,4,5,5,6,6,7,7,8,8,9,9,10,10,11,11,12,12,13,13,14,14],"right_children":[2,4,6,8,10,12,14,16,18,20,22,24,26,28,30,-1,-1,-1,-1,-1,-1,-1,-1,-1,-1,-1,-1,-1,-1,-1,-1],"split_conditions":[2.1E1,5.808E-1,1.52E2,3.7E1,8.517E-1,2E1,2.7824E0,4.009E-1,4E1,5.89E-1,7.5E-1,1.8366E0,1.5132E0,2.4016E0,2.439E-1,-1.3455029E-2,-3.0897707E-2,5.5454858E-2,-4.924725E-3,5.180272E-2,-1.1182289E-2,2.3278393E-2,-1.5042548E-3,9.021965E-3,8.042102E-2,-7.62178E-3,1.446285E-2,2.4210922E-2,-2.1073444E-2,8.296811E-3,1.1922629E-1],"split_indices":[2,11,1,1,6,0,7,11,1,11,19,5,13,5,9,0,0,0,0,0,0,0,0,0,0,0,0,0,0,0,0],"split_type":[0,0,0,0,0,0,0,0,0,0,0,0,0,0,0,0,0,0,0,0,0,0,0,0,0,0,0,0,0,0,0],"sum_hessian":[2.036062E3,1.2677354E3,7.683266E2,2.5517403E2,1.01256134E3,6.5320123E2,1.1512539E2,1.774918E2,7.768222E1,3.6915967E2,6.434017E2,3.0045297E2,3.5274823E2,1.0868021E2,6.4451814E0,1.22546616E2,5.4945194E1,4.256921E0,7.34253E1,4.6947756E0,3.644649E2,5.710153E1,5.863002E2,2.9268207E2,7.770908E0,2.5919278E2,9.3555466E1,9.6618935E1,1.2061276E1,1.520329E0,4.9248524E0],"tree_param":{"num_deleted":"0","num_feature":"24","num_nodes":"31","size_leaf_vector":"1"}},{"base_weights":[7.5043025E-3,-1.2201185E-1,1.1071066E-1,-1.062997E-1,-5.2434456E-1,9.340059E-2,1.0027143E0,-2.2382987E-1,-5.4184213E-2,-6.844873E-1,1.443311E-1,-4.086646E-1,1.16487905E-1,1.3949977E0,-3.8503397E-1,-2.1564929E-2,-8.194106E-3,2.513586E-3,-6.165271E-3,-1.1053563E-2,-4.2223908E-2,-3.205333E-2,2.3077037E-2,-3.090761E-2,-9.7581575E-4,1.8632722E-3,1.4809332E-2,-7.200286E-3,1.026897E-1,-3.856205E-2,2.4064392E-2],"categories":[],"categories_nodes":[],"categories_segments":[],"categories_sizes":[],"default_left":[0,0,0,0,0,0,0,0,0,0,0,0,0,0,0,0,0,0,0,0,0,0,0,0,0,0,0,0,0,0,0],"id":38,"left_children":[1,3,5,7,9,11,13,15,17,19,21,23,25,27,29,-1,-1,-1,-1,-1,-1,-1,-1,-1,-1,-1,-1,-1,-1,-1,-1],"loss_changes":[2.7243364E1,5.658162E0,1.7419601E1,5.3238735E0,3.7094345E0,1.29573555E1,1.2235512E1,3.2538528E0,4.3733597E0,1.8431196E0,2.12473E0,3.9976072E0,1.5158408E1,1.7500992E1,2.2178776E0,0E0,0E0,0E0,0E0,0E0,0E0,0E0,0E0,0E0,0E0,0E0,0E0,0E0,0E0,0E0,0E0],"parents":[2147483647,0,0,1,1,2,2,3,3,4,4,5,5,6,6,7,7,8,8,9,9,10,10,11,11,12,12,13,13,14,14],"right_children":[2,4,6,8,10,12,14,16,18,20,22,24,26,28,30,-1,-1,-1,-1,-1,-1,-1,-1,-1,-1,-1,-1,-1,-1,-1,-1],"split_conditions":[1E0,2.7955E0,1.42E2,-5.4E1,1.7818E0,3.066E-1,1.3604E0,4.19E-1,8.021E-1,6E-1,5.029E-1,3.1E1,2.0018E0,6.64E-1,3.3E1,-2.1564929E-2,-8.194106E-3,2.513586E-3,-6.165271E-3,-1.1053563E-2,-4.2223908E-2,-3.205333E-2,2.3077037E-2,-3.090761E-2,-9.7581575E-4,1.8632722E-3,1.4809332E-2,-7.200286E-3,1.026897E-1,-3.856205E-2,2.4064392E-2],"split_indices":[2,4,2,2,11,8,5,4,11,22,9,0,4,5,0,0,0,0,0,0,0,0,0,0,0,0,0,0,0,0,0],"split_type":[0,0,0,0,0,0,0,0,0,0,0,0,0,0,0,0,0,0,0,0,0,0,0,0,0,0,0,0,0,0,0],"sum_hessian":[2.0361122E3,9.028818E2,1.1332303E3,8.701638E2,3.2717987E1,1.1127415E3,2.0488966E1,2.6630386E2,6.038599E2,2.6377201E1,6.340785E0,4.8185307E1,1.0645562E3,1.5969535E1,4.519431E0,5.830968E1,2.0799417E2,2.4057533E2,3.6328464E2,7.38069E0,1.899651E1,1.5304645E0,4.810321E0,3.0940722E1,1.7244585E1,7.396704E2,3.2488568E2,5.0211396E0,1.0948396E1,3.2018127E0,1.3176184E0],"tree_param":{"num_deleted":"0","num_feature":"24","num_nodes":"31","size_leaf_vector":"1"}},{"base_weights":[2.374884E-2,-3.8400628E-2,3.6658806E-1,-8.924834E-2,1.0322895E-1,1.9984777E-1,5.8848715E-1,-1.6924414E-1,-9.280712E-3,4.766865E-1,-1.6289853E-2,-3.9423227E-1,3.0242902E-1,5.299282E-1,1.4476375E-1,-5.987042E-3,-3.4606867E-2,3.6152642E-2,-2.4223311E-3,1.2270534E-1,1.8601185E-2,6.381853E-3,-2.0702062E-2,1.4205997E-2,-4.1087992E-2,2.190026E-4,3.717374E-2,2.128008E-2,7.654567E-2],"categories":[],"categories_nodes":[],"categories_segments":[],"categories_sizes":[],"default_left":[0,0,0,0,0,0,0,0,0,0,0,0,0,0,0,0,0,0,0,0,0,0,0,0,0,0,0,0,0],"id":39,"left_children":[1,3,5,7,9,11,13,15,17,19,21,23,25,27,-1,-1,-1,-1,-1,-1,-1,-1,-1,-1,-1,-1,-1,-1,-1],"loss_changes":[4.26662E1,1.2219269E1,1.1251793E1,7.982692E0,2.0020712E1,1.0903608E1,1.6205105E1,1.6066425E1,1.7968016E1,2.15914E1,1.9552958E1,7.9163494E0,1.9908165E1,1.2850632E1,0E0,0E0,0E0,0E0,0E0,0E0,0E0,0E0,0E0,0E0,0E0,0E0,0E0,0E0,0E0],"parents":[2147483647,0,0,1,1,2,2,3,3,4,4,5,5,6,6,7,7,8,8,9,9,10,10,11,11,12,12,13,13],"right_children":[2,4,6,8,10,12,14,16,18,20,22,24,26,28,-1,-1,-1,-1,-1,-1,-1,-1,-1,-1,-1,-1,-1,-1,-1],"split_conditions":[5.7E1,2.1E1,1.8727E0,1.2437E0,4.7E1,4.113E-1,3.4827E0,9E-1,1.2752E0,4.031E-1,8E-1,1.0008E0,8.558E-1,1.4026E0,1.4476375E-1,-5.987042E-3,-3.4606867E-2,3.6152642E-2,-2.4223311E-3,1.2270534E-1,1.8601185E-2,6.381853E-3,-2.0702062E-2,1.4205997E-2,-4.1087992E-2,2.190026E-4,3.717374E-2,2.128008E-2,7.654567E-2],"split_indices":[2,2,7,12,1,5,11,22,12,11,22,13,9,12,0,0,0,0,0,0,0,0,0,0,0,0,0,0,0],"split_type":[0,0,0,0,0,0,0,0,0,0,0,0,0,0,0,0,0,0,0,0,0,0,0,0,0,0,0,0,0],"sum_hessian":[2.0007635E3,1.6944785E3,3.0628497E2,1.2471116E3,4.473669E2,1.7596288E2,1.3032208E2,6.228879E2,6.2422375E2,1.0773659E2,3.3963034E2,2.5491356E1,1.5047151E2,1.2829498E2,2.0271053E0,5.7014056E2,5.2747303E1,3.0802877E1,5.9342084E2,4.287328E0,1.0344926E2,2.4988734E2,8.974299E1,9.984507E0,1.5506848E1,9.039471E1,6.0076813E1,1.17476326E2,1.0818661E1],"tree_param":{"num_deleted":"0","num_feature":"24","num_nodes":"29","size_leaf_vector":"1"}},{"base_weights":[2.180727E-2,-3.8280028E-3,4.3867615E-1,2.8114771E-2,-2.1497642E-1,-1.5117587E-1,6.207019E-1,1.17086925E-1,-7.792055E-2,-1.7321646E-1,-8.8917613E-1,-4.8028886E-2,2.0342539E-1,4.6791983E-1,1.7780955E0,2.6159387E-3,1.8859463E-2,-5.0033773E-3,1.7613221E-2,-2.9251656E-2,-5.6431275E-3,-5.899942E-2,-3.146474E-3,-1.0034042E-2,7.2283804E-2,4.2455312E-2,7.3250867E-3,1.3404088E-1,1.6274644E-3],"categories":[],"categories_nodes":[],"categories_segments":[],"categories_sizes":[],"default_left":[0,0,0,0,0,0,0,0,0,0,0,0,0,0,0,0,0,0,0,0,0,0,0,0,0,0,0,0,0],"id":40,"left_children":[1,3,5,7,9,11,13,15,17,19,21,-1,23,25,27,-1,-1,-1,-1,-1,-1,-1,-1,-1,-1,-1,-1,-1,-1],"loss_changes":[2.15632E1,1.2832629E1,1.2644613E1,1.5601283E1,6.88486E0,8.338158E0,1.499847E1,1.5126328E1,7.2251067E0,5.816299E0,3.3714895E0,0E0,1.0607726E1,9.731344E0,1.5800081E1,0E0,0E0,0E0,0E0,0E0,0E0,0E0,0E0,0E0,0E0,0E0,0E0,0E0,0E0],"parents":[2147483647,0,0,1,1,2,2,3,3,4,4,5,5,6,6,7,7,8,8,9,9,10,10,12,12,13,13,14,14],"right_children":[2,4,6,8,10,12,14,16,18,20,22,-1,24,26,28,-1,-1,-1,-1,-1,-1,-1,-1,-1,-1,-1,-1,-1,-1],"split_conditions":[2.5E0,2.2006E0,1.2247E0,5.1E1,6.667E-1,1.0331E0,1.3663E0,7.7E1,2.5698E0,3.964E-1,1E0,-4.8028886E-2,6.5E1,9.746E-1,2.1919E0,2.6159387E-3,1.8859463E-2,-5.0033773E-3,1.7613221E-2,-2.9251656E-2,-5.6431275E-3,-5.899942E-2,-3.146474E-3,-1.0034042E-2,7.2283804E-2,4.2455312E-2,7.3250867E-3,1.3404088E-1,1.6274644E-3],"split_indices":[18,13,14,0,15,9,9,1,14,5,23,0,1,5,13,0,0,0,0,0,0,0,0,0,0,0,0,0,0],"split_type":[0,0,0,0,0,0,0,0,0,0,0,0,0,0,0,0,0,0,0,0,0,0,0,0,0,0,0,0,0],"sum_hessian":[2.0166322E3,1.9007375E3,1.1589468E2,1.6517289E3,2.4900859E2,2.7370481E1,8.852419E1,8.98071E2,7.5365796E2,2.3566821E2,1.334038E1,7.8175316E0,1.955295E1,7.944175E1,9.082445E0,7.1998773E2,1.7808322E2,7.174873E2,3.6170654E1,2.9012438E1,2.0665578E2,9.550706E0,3.789673E0,1.5386235E1,4.1667147E0,3.55909E1,4.385085E1,5.6333256E0,3.4491196E0],"tree_param":{"num_deleted":"0","num_feature":"24","num_nodes":"29","size_leaf_vector":"1"}},{"base_weights":[-1.5906682E-3,-5.264136E-2,3.046207E-1,-6.41916E-2,5.291781E-1,2.3076405E-1,1.0339601E0,-2.280466E-2,-2.0068353E-1,2.1977614E-1,1.3052273E0,5.4396236E-1,2.6703373E-2,-2.762793E-2,1.4612252E0,-5.2161035E-3,4.541431E-3,-3.0915296E-2,-6.6150124E-3,-4.1516107E-3,3.81765E-2,3.8972016E-2,9.492416E-2,-8.320825E-3,4.4009726E-2,-3.3333097E-2,8.836066E-3,-4.3587837E-2,2.5049184E-2,1.0878923E-1,3.1367406E-2],"categories":[],"categories_nodes":[],"categories_segments":[],"categories_sizes":[],"default_left":[0,0,0,0,0,0,0,0,0,0,0,0,0,0,0,0,0,0,0,0,0,0,0,0,0,0,0,0,0,0,0],"id":41,"left_children":[1,3,5,7,9,11,13,15,17,19,21,23,25,27,29,-1,-1,-1,-1,-1,-1,-1,-1,-1,-1,-1,-1,-1,-1,-1,-1],"loss_changes":[3.200399E1,1.18259945E1,1.5519951E1,9.719923E0,7.940502E0,1.7045643E1,1.2111702E1,1.2255813E1,1.135305E1,4.2950306E0,1.5036697E0,2.5286871E1,1.7039274E1,4.282618E0,9.95306E0,0E0,0E0,0E0,0E0,0E0,0E0,0E0,0E0,0E0,0E0,0E0,0E0,0E0,0E0,0E0,0E0],"parents":[2147483647,0,0,1,1,2,2,3,3,4,4,5,5,6,6,7,7,8,8,9,9,10,10,11,11,12,12,13,13,14,14],"right_children":[2,4,6,8,10,12,14,16,18,20,22,24,26,28,30,-1,-1,-1,-1,-1,-1,-1,-1,-1,-1,-1,-1,-1,-1,-1,-1],"split_conditions":[5.9E1,1E0,1.4741E0,8E-1,1.6783E0,1.9E1,6E-1,1.4473E0,6.877E-1,1.332E0,9E0,6.946E-1,1.09E2,1.3649E0,8.1E1,-5.2161035E-3,4.541431E-3,-3.0915296E-2,-6.6150124E-3,-4.1516107E-3,3.81765E-2,3.8972016E-2,9.492416E-2,-8.320825E-3,4.4009726E-2,-3.3333097E-2,8.836066E-3,-4.3587837E-2,2.5049184E-2,1.0878923E-1,3.1367406E-2],"split_indices":[2,22,9,22,7,0,22,7,9,14,0,8,1,7,2,0,0,0,0,0,0,0,0,0,0,0,0,0,0,0,0],"split_type":[0,0,0,0,0,0,0,0,0,0,0,0,0,0,0,0,0,0,0,0,0,0,0,0,0,0,0,0,0,0,0],"sum_hessian":[2.0452727E3,1.7537247E3,2.915479E2,1.72046E3,3.3264797E1,2.6593442E2,2.561349E1,1.3210574E3,3.9940256E2,2.4700277E1,8.56452E0,1.04255035E2,1.6167938E2,7.618875E0,1.7994614E1,7.6927936E2,5.51778E2,5.5066315E1,3.4433624E2,1.6409416E1,8.29086E0,5.7671146E0,2.7974052E0,3.3655014E1,7.060002E1,2.8146357E1,1.3353302E2,2.6838875E0,4.934988E0,8.823989E0,9.170624E0],"tree_param":{"num_deleted":"0","num_feature":"24","num_nodes":"31","size_leaf_vector":"1"}},{"base_weights":[1.0320855E-2,-4.0059105E-2,3.0900174E-1,-7.776499E-2,2.1543004E-1,2.54625E-1,1.1260233E0,-1.8415487E-1,-3.2366E-2,-3.3985108E-1,3.2427832E-1,3.1323838E-1,-6.1075497E-1,2.6398012E-1,1.9050343E0,9.509455E-4,-1.2882076E-2,3.9039066E-3,-5.776019E-3,1.9843848E-2,-2.9458432E-2,4.3079738E-2,8.579698E-3,1.0728797E-2,6.3725255E-2,-4.1903336E-2,2.683554E-2,7.0283435E-2,-7.6302993E-3,1.1440306E-1,-1.2086033E-2],"categories":[],"categories_nodes":[],"categories_segments":[],"categories_sizes":[],"default_left":[0,0,0,0,0,0,0,0,0,0,0,0,0,0,0,0,0,0,0,0,0,0,0,0,0,0,0,0,0,0,0],"id":42,"left_children":[1,3,5,7,9,11,13,15,17,19,21,23,25,27,29,-1,-1,-1,-1,-1,-1,-1,-1,-1,-1,-1,-1,-1,-1,-1,-1],"loss_changes":[3.0963179E1,1.698015E1,1.2907322E1,7.4088745E0,1.3813555E1,1.4380661E1,1.1746035E1,6.85719E0,9.9021225E0,7.148803E0,1.54458065E1,2.4637274E1,5.166808E0,4.884747E0,8.2992935E0,0E0,0E0,0E0,0E0,0E0,0E0,0E0,0E0,0E0,0E0,0E0,0E0,0E0,0E0,0E0,0E0],"parents":[2147483647,0,0,1,1,2,2,3,3,4,4,5,5,6,6,7,7,8,8,9,9,10,10,11,11,12,12,13,13,14,14],"right_children":[2,4,6,8,10,12,14,16,18,20,22,24,26,28,30,-1,-1,-1,-1,-1,-1,-1,-1,-1,-1,-1,-1,-1,-1,-1,-1],"split_conditions":[5.7E1,4E-1,1.5212E0,9.873E-1,5.901E-1,1.9953E0,6.018E-1,1.0049E0,7E-1,8.461E-1,6.64E-1,1.4978E0,9.9E1,4.047E-1,8.1E1,9.509455E-4,-1.2882076E-2,3.9039066E-3,-5.776019E-3,1.9843848E-2,-2.9458432E-2,4.3079738E-2,8.579698E-3,1.0728797E-2,6.3725255E-2,-4.1903336E-2,2.683554E-2,7.0283435E-2,-7.6302993E-3,1.1440306E-1,-1.2086033E-2],"split_indices":[2,15,9,4,8,10,11,5,22,13,5,10,2,4,2,0,0,0,0,0,0,0,0,0,0,0,0,0,0,0,0],"split_type":[0,0,0,0,0,0,0,0,0,0,0,0,0,0,0,0,0,0,0,0,0,0,0,0,0,0,0,0,0,0,0],"sum_hessian":[2.055869E3,1.7598861E3,2.959827E2,1.5341649E3,2.257212E2,2.7874268E2,1.7240023E1,4.5794385E2,1.0762211E3,3.6647022E1,1.8907419E2,2.6165823E2,1.7084442E1,8.819428E0,8.420595E0,1.2183612E2,3.3610773E2,4.622844E2,6.139367E2,9.116399E0,2.7530622E1,4.0811203E1,1.4826299E2,2.3841139E2,2.3246843E1,1.448468E1,2.5997624E0,1.7230395E0,7.096389E0,7.089801E0,1.3307946E0],"tree_param":{"num_deleted":"0","num_feature":"24","num_nodes":"31","size_leaf_vector":"1"}},{"base_weights":[-3.1110149E-2,-1.2628344E-1,5.1432654E-2,-2.7657098E-1,-8.5232E-2,3.7265725E-2,9.251287E-1,-3.9549342E-1,1.6770504E-2,2.0483027E-1,-1.3650165E-1,9.440234E-3,4.3004334E-1,3.803981E-1,1.3696434E0,-5.876396E-3,-2.6250541E-2,-8.7890895E-3,2.795375E-2,2.365386E-3,4.4150908E-2,-5.7392768E-3,-3.0629868E-2,-2.458938E-3,1.1162406E-2,8.781212E-2,1.156264E-2,2.5962843E-2,1.955272E-3,7.905481E-2,3.2228228E-2],"categories":[],"categories_nodes":[],"categories_segments":[],"categories_sizes":[],"default_left":[0,0,0,0,0,0,0,0,0,0,0,0,0,0,0,0,0,0,0,0,0,0,0,0,0,0,0,0,0,0,0],"id":43,"left_children":[1,3,5,7,9,11,13,15,17,19,21,23,25,27,29,-1,-1,-1,-1,-1,-1,-1,-1,-1,-1,-1,-1,-1,-1,-1,-1],"loss_changes":[1.6272781E1,5.911537E0,1.3699515E1,7.19121E0,1.1286407E1,1.19407425E1,3.7558765E0,5.2154713E0,6.402056E0,1.2148901E1,6.5873585E0,1.2815417E1,1.864976E1,4.2144287E-1,4.1312408E-1,0E0,0E0,0E0,0E0,0E0,0E0,0E0,0E0,0E0,0E0,0E0,0E0,0E0,0E0,0E0,0E0],"parents":[2147483647,0,0,1,1,2,2,3,3,4,4,5,5,6,6,7,7,8,8,9,9,10,10,11,11,12,12,13,13,14,14],"right_children":[2,4,6,8,10,12,14,16,18,20,22,24,26,28,30,-1,-1,-1,-1,-1,-1,-1,-1,-1,-1,-1,-1,-1,-1,-1,-1],"split_conditions":[2E0,5.808E-1,1E0,3.7E1,7.624E-1,2.4472E0,1.3196E0,9E0,1.603E0,3.333E-1,3.5E0,1.3236E0,2.3E1,1.3533E0,1.4981E0,-5.876396E-3,-2.6250541E-2,-8.7890895E-3,2.795375E-2,2.365386E-3,4.4150908E-2,-5.7392768E-3,-3.0629868E-2,-2.458938E-3,1.1162406E-2,8.781212E-2,1.156264E-2,2.5962843E-2,1.955272E-3,7.905481E-2,3.2228228E-2],"split_indices":[2,11,22,1,11,14,6,1,4,16,19,8,0,3,3,0,0,0,0,0,0,0,0,0,0,0,0,0,0,0,0],"split_type":[0,0,0,0,0,0,0,0,0,0,0,0,0,0,0,0,0,0,0,0,0,0,0,0,0,0,0,0,0,0,0],"sum_hessian":[2.0695903E3,9.61005E2,1.1085853E3,2.0495097E2,7.56054E2,1.0919225E3,1.6662806E1,1.4558264E2,5.936834E1,1.13112976E2,6.4294104E2,1.0206414E3,7.128113E1,8.321267E0,8.341537E0,4.687934E1,9.87033E1,4.4311E1,1.5057338E1,9.26605E1,2.0452478E1,6.160809E2,2.6860157E1,8.016309E2,2.1901048E2,8.27059E0,6.301054E1,5.5441327E0,2.7771342E0,5.5441327E0,2.7974052E0],"tree_param":{"num_deleted":"0","num_feature":"24","num_nodes":"31","size_leaf_vector":"1"}},{"base_weights":[-2.2160303E-2,-1.3364561E-1,7.353253E-2,-2.611204E-1,-8.797943E-2,-3.719238E-3,2.7449593E-1,-2.6454038E-3,-3.3206534E-1,1.2943779E0,-9.88664E-2,-3.3624858E-1,3.5054464E-2,5.52494E-1,8.1473336E-2,1.723623E-2,-1.36088235E-2,-2.2961438E-2,-5.936363E-3,8.85955E-2,3.34091E-2,1.197984E-2,-6.664173E-3,2.4391275E-3,-2.8300269E-2,2.9799745E-3,-2.7272925E-2,-4.6282005E-3,3.832168E-2,3.106915E-2,-7.7801994E-3],"categories":[],"categories_nodes":[],"categories_segments":[],"categories_sizes":[],"default_left":[0,0,0,0,0,0,0,0,0,0,0,0,0,0,0,0,0,0,0,0,0,0,0,0,0,0,0,0,0,0,0],"id":44,"left_children":[1,3,5,7,9,11,13,15,17,19,21,23,25,27,29,-1,-1,-1,-1,-1,-1,-1,-1,-1,-1,-1,-1,-1,-1,-1,-1],"loss_changes":[2.1608751E1,5.422735E0,1.6924562E1,4.5142994E0,1.0516102E1,1.0176921E1,1.6197851E1,5.153071E0,5.1864986E0,4.501438E-1,8.020645E0,7.319107E0,1.0105985E1,1.7165768E1,2.3114693E1,0E0,0E0,0E0,0E0,0E0,0E0,0E0,0E0,0E0,0E0,0E0,0E0,0E0,0E0,0E0,0E0],"parents":[2147483647,0,0,1,1,2,2,3,3,4,4,5,5,6,6,7,7,8,8,9,9,10,10,11,11,12,12,13,13,14,14],"right_children":[2,4,6,8,10,12,14,16,18,20,22,24,26,28,30,-1,-1,-1,-1,-1,-1,-1,-1,-1,-1,-1,-1,-1,-1,-1,-1],"split_conditions":[2E0,6.025E-1,1.314E0,6E-1,4E0,2.9E1,1.4765E0,3.814E-1,1.3926E0,3E0,7.624E-1,1.6E1,6.667E-1,1.3224E0,1.2497E0,1.723623E-2,-1.36088235E-2,-2.2961438E-2,-5.936363E-3,8.85955E-2,3.34091E-2,1.197984E-2,-6.664173E-3,2.4391275E-3,-2.8300269E-2,2.9799745E-3,-2.7272925E-2,-4.6282005E-3,3.832168E-2,3.106915E-2,-7.7801994E-3],"split_indices":[2,11,9,22,0,1,12,11,5,0,11,1,17,7,6,0,0,0,0,0,0,0,0,0,0,0,0,0,0,0,0],"split_type":[0,0,0,0,0,0,0,0,0,0,0,0,0,0,0,0,0,0,0,0,0,0,0,0,0,0,0,0,0,0,0],"sum_hessian":[2.0235806E3,9.344818E2,1.0890988E3,2.4522652E2,6.892553E2,7.873986E2,3.0170016E2,5.3036167E1,1.9219035E2,4.4646993E0,6.847906E2,8.142375E1,7.0597485E2,1.22872475E2,1.7882768E2,2.3050213E1,2.9985954E1,1.1969296E2,7.249739E1,1.4949901E0,2.9697092E0,6.2656303E1,6.2213434E2,3.072382E1,5.069993E1,6.7819696E2,2.777793E1,3.0743584E1,9.212889E1,5.4069992E1,1.2475768E2],"tree_param":{"num_deleted":"0","num_feature":"24","num_nodes":"31","size_leaf_vector":"1"}},{"base_weights":[1.8384054E-2,-2.1925475E-2,2.494337E-1,-5.333784E-2,1.879626E-1,7.618822E-1,1.4832655E-1,-2.0676595E-1,-1.3890536E-2,1.6101918E-1,8.6788446E-2,2.5190837E0,3.7334427E-1,6.996188E-2,8.7557775E-1,-7.146263E-3,-2.1713143E-2,-1.3938518E-2,8.929404E-4,-4.450724E-3,1.5658185E-2,1.469953E-1,2.9013115E-3,3.063227E-2,-4.0932164E-2,-1.4627354E-2,9.058116E-3,1.13755874E-1,-1.5313376E-4],"categories":[],"categories_nodes":[],"categories_segments":[],"categories_sizes":[],"default_left":[0,0,0,0,0,0,0,0,0,0,0,0,0,0,0,0,0,0,0,0,0,0,0,0,0,0,0,0,0],"id":45,"left_children":[1,3,5,7,9,11,13,15,17,19,-1,21,23,25,27,-1,-1,-1,-1,-1,-1,-1,-1,-1,-1,-1,-1,-1,-1],"loss_changes":[1.9127977E1,1.1542151E1,1.5693731E1,9.210003E0,9.225558E0,3.3218075E1,1.4530999E1,4.4584274E0,1.0197201E1,8.591869E0,0E0,9.031776E0,1.2523481E1,9.4143095E0,3.0527311E1,0E0,0E0,0E0,0E0,0E0,0E0,0E0,0E0,0E0,0E0,0E0,0E0,0E0,0E0],"parents":[2147483647,0,0,1,1,2,2,3,3,4,4,5,5,6,6,7,7,8,8,9,9,11,11,12,12,13,13,14,14],"right_children":[2,4,6,8,10,12,14,16,18,20,-1,22,24,26,28,-1,-1,-1,-1,-1,-1,-1,-1,-1,-1,-1,-1,-1,-1],"split_conditions":[5.7E1,4E-1,1E1,7.772E-1,9E-1,5.397E-1,2.6113E0,7.5E-1,4.058E-1,1.8E1,8.6788446E-2,1.99E2,2.5632E0,6.946E-1,5.848E-1,-7.146263E-3,-2.1713143E-2,-1.3938518E-2,8.929404E-4,-4.450724E-3,1.5658185E-2,1.469953E-1,2.9013115E-3,3.063227E-2,-4.0932164E-2,-1.4627354E-2,9.058116E-3,1.13755874E-1,-1.5313376E-4],"split_indices":[2,15,0,4,22,13,7,3,5,0,0,1,11,8,5,0,0,0,0,0,0,0,0,0,0,0,0,0,0],"split_type":[0,0,0,0,0,0,0,0,0,0,0,0,0,0,0,0,0,0,0,0,0,0,0,0,0,0,0,0,0],"sum_hessian":[2.052203E3,1.7481254E3,3.0407745E2,1.5212041E3,2.2692125E2,4.903162E1,2.5504582E2,3.102525E2,1.2109517E3,2.2412386E2,2.7974052E0,7.8854394E0,4.1146183E1,2.3122632E2,2.38195E1,2.4353845E2,6.671406E1,1.2877997E2,1.0821716E3,8.494331E1,1.3918054E2,6.567821E0,1.3176184E0,3.4671608E1,6.474574E0,5.3896168E1,1.7733015E2,8.573642E0,1.5245858E1],"tree_param":{"num_deleted":"0","num_feature":"24","num_nodes":"29","size_leaf_vector":"1"}},{"base_weights":[1.3589629E-2,1.6747981E-1,-3.7898235E-2,1.4496924E-1,1.5515316E0,-5.4516573E-3,-2.3296276E-1,1.98145E-1,-2.509712E-1,-9.004305E-3,2.0086663E0,-3.8880333E-2,1.9035408E-1,3.9669636E-1,-2.687231E-1,3.5627812E-2,5.986828E-3,2.553832E-2,-2.7513389E-2,1.5340339E-1,4.4196628E-2,-1.1547608E-3,-2.778706E-2,4.2824663E-2,6.419317E-3,9.2940204E-2,-2.0667287E-2,-2.4443211E-2,-7.0838886E-3],"categories":[],"categories_nodes":[],